[[[{"b": -0.4589705368497825, "w": [0.8754970838729237, -0.86291391444079, 0.9050620319554905, -0.9617046629949113, -0.696057124572528, 0.8318862746820439, 0.5335227711180741, 0.5694396965692559, -0.8793146596876009, -0.66501971008657, -0.8645040871692635, -0.09568213623712674, 0.07227241581800281, -0.008899019034501743, -0.33643775764974637, 0.8208842026756951, -0.1422062288760344, -0.5955906913742974, 0.20636876475350396, 0.4615359075876757, 0.5083342411224459, 0.6348979015248992, 0.9816381869456265, 0.024017657119361546, -0.961413871556787, -0.5860874116674113, 0.291261074556179, -0.7917578225270543, -0.9893856047970075, -0.7961981069022841, -0.8438024321384894, -0.2640453397845812, -0.4763052734942128, 0.21212108796417306, -0.39399325251206285, -0.19669120444227595, -0.7418536370286031, -0.10356595161603188, 0.7314216815667032, -0.4407321778519706, -0.5361708810896999, 0.7610876149625834, 0.42521303896428275, -0.859467860352042, 0.33265672124967316, -0.6933754596498309, -0.5658519809429419, -0.6192970884665174, 0.23191672576456046, -0.4804308161035036, -0.6054534754893408, 0.881513241197385, 0.4153949303562092, 0.6745812044745345, 0.8975218288434448, -0.44813877758949916, 0.740139069760235, 0.4754025506834221, 0.7500033417187864, 0.6370583167590207, -0.8874420501695446, 0.23536417383591113, 0.3924732681526788, -0.5441186605004678, -0.2898129680969419, 0.8464255313526876, 0.08692150706825008, 0.2857099742531841, 0.5108328334562415, -0.28932809855646524, 0.4482613378411351, -0.9613946714139687, -0.6307446769980218, -0.3049484857781737, 0.13768000908066091, 0.13119348325123648, 0.9485614259803277, 0.5709398372011827, 0.05786201260575141, 0.24557453976685628, -0.919267872573299, 0.7119226573583279, 0.9296300768959644, 0.9072027820243302, -0.3938679630816504, 0.5926732687113823, -0.8446116921713025, -0.6194423778129974, -0.7993585553160971, 0.08040750384906126, 0.8782750715718535, 0.39712689139836144, -0.5141264450377374, 0.5499839333121266, -0.9168586296614352, 0.23146622035781328, 0.8303681245176728, 0.5686843539757414, 0.45564392617997274, 0.45840648062495215, 0.07427805780221997, -0.09250767898369805, -0.6512901050859092, -0.7794625881080368, -0.311773116804807, -0.4175485741134821, -0.6821124676548849, -0.6573131918892257, -0.11447198670450809, 0.7826055541575461, -0.9860758299641668, -0.23312200413689954, 0.1451211719819363, 0.9085993337811946, 0.5937942153921514, 0.10390555552140768, 0.651962047104949, 0.48170215655596027, -0.6332610182006362, -0.10046065969542006, -0.15199062594497015]}, {"b": -0.9372903077456316, "w": [0.6926715925784841, 0.6449028631023397, 0.21139413604556223, -0.8872624735998622, -0.3887960157313626, -0.38357425170886206, -0.3655435269129914, 0.2528246943988721, -0.822275840824559, 0.4567894519245732, 0.7817256451570904, 0.7576891599294686, -0.6150854182425962, -0.8358259814735294, -0.979996728957502, 0.09402690473197839, 0.15782112985581032, 0.8224858546852607, -0.06791155640420343, -0.4847198720720107, -0.9565288071362223, 0.3581802503171856, -0.6775185418075387, 0.1375516562623782, 0.4547252231171106, 0.24626314889094614, 0.9986017876778652, 0.2948693768948072, -0.11701424500115842, -0.40748176890826926, 0.24835980536429036, -0.01880358623108913, -0.011746037842963242, 0.3976754372532989, 0.3497030234351608, -0.5295957889227532, -0.2383331606892467, -0.4634777049473129, -0.9497775551965577, 0.7719050785592498, -0.9061660013033335, 0.5111162631432953, -0.941096228535083, 0.4702421005796311, 0.2871416298850733, -0.13812927873995484, -0.07485391516722073, -0.10015535843965484, -0.8424325140892726, 0.7621580607701912, -0.3565072943348373, -0.607335933867565, 0.40516297604243867, 0.8052534518698706, 0.16558541277547523, 0.5383268544894464, -0.8943525116634781, 0.7519315468777878, -0.8152309726654003, -0.9856259346343812, 0.5826762125149874, -0.6585181037993135, 0.5502489304771887, 0.7577614931729859, 0.0036488293779950443, 0.963649765168902, -0.5489977427259112, 0.3316697916473126, 0.407797960287827, 0.27643319990718984, 0.6711740152001779, -0.0598603363520529, -0.5271149590102295, -0.15561572628172726, 0.7453238154000947, 0.24496117133296713, -0.9789738063382778, 0.9481950043075762, 0.40733940747945474, -0.350280839156186, 0.7427797920147887, -0.5617111691854826, -0.3151721985070268, 0.8210033105467791, 0.29396588080715125, -0.28099629520791525, 0.6101137314573069, 0.6616193749698751, 0.8855111939120826, -0.2936449666764025, 0.35530322823126936, -0.16945965507808936, 0.9290167382213992, -0.512423734801049, 0.2795033434214469, -0.5923941152284562, -0.06589224494206136, -0.10255723693057517, 0.3601946180263018, -0.17845461597159873, 0.09399171196887424, 0.28691386521526274, 0.6866463776844018, 0.46059036755591753, -0.632645629104857, 0.18677584213444298, 0.581835761198809, -0.25268510976253244, -0.5314220120504798, -0.48000696768644713, 0.6983691981394229, 0.23649289759858094, 0.9925329600273076, 0.8798286263910835, -0.37473859335720294, -0.3977328010763377, -0.26732869775659474, 0.46190759838402595, 0.3749792358914159, 0.15011599068691228, -0.6908479292029968]}, {"b": 0.8801320634183163, "w": [-0.8491811758299632, -0.23366947726959397, -0.4605114085533115, 0.18153611826291716, 0.14925029043780214, -0.2160093064226971, -0.9835852293445069, 0.8012005438242522, 0.3782291318057134, 0.5833927741910367, -0.5624219985947281, -0.23877630601439526, 0.30634854752611584, -0.10232663089846117, 0.4551719675815449, 0.6356993217796949, -0.5291578801860446, 0.12199582435469236, -0.847856950358147, -0.6574921723865337, 0.9942499110218908, -0.056963162218531815, -0.4337428852082088, -0.9208388158963983, -0.8786265962207886, 0.9690067318883977, -0.18473300112769286, -0.19844885298538384, -0.10899711197663553, 0.18817332234149609, -0.012092979340843746, 0.4033698568525099, -0.09066646689878999, 0.17737350593949208, 0.5192233908285826, 0.24380237358706736, -0.05437296207273068, -0.39261854636592597, -0.02833078053344984, -0.6266805433697389, -0.322526653260371, -0.02317298813968982, 0.8731511915284698, 0.5039924935082425, -0.992098681682325, 0.6043595071536159, 0.5800705944120834, 0.6728269304977885, 0.2160855199308842, 0.6520786608055751, 0.795049233762317, 0.9468531079764264, 0.09591697065728799, 0.6323766262396406, 0.24784420954483188, -0.31118538481461844, 0.2876600229408355, 0.8148005024726697, 0.4142784015094527, -0.24420827825269664, 0.27171470722728985, -0.6953212430117564, -0.7379540958919024, -0.19248637044795602, 0.5785107311550544, 0.5218610110183268, 0.7355495612819709, -0.8618769255825343, -0.7369231924166646, 0.6567366154479746, 0.6194274941326119, -0.14227035562207835, -0.36512911405766824, -0.29289133161683556, -0.2836643272212038, -0.886666149738347, -0.26618747880467786, 0.9724774468362569, 0.4213027111884746, -0.04692863590832985, 0.7284055981353967, -0.8362741846481245, -0.1021358362961764, 0.15032184612470245, 0.49000867798590453, 0.6982730000743098, 0.8973283149799196, -0.917160358314183, -0.7977590910220931, -0.01474360804854502, 0.9872186387824331, 0.4871571484651658, -0.6777303554051517, 0.8621119348532835, -0.4906599785716974, -0.8603025977487384, 0.14776579341893847, 0.0005954376765044955, -0.6087262836785281, 0.2033464396969551, 0.26475227048087246, -0.17665828215688362, -0.7109552808933324, 0.7988534552354409, -0.5217011128128966, -0.4481014612009284, -0.4137540412493552, 0.10774799225118592, 0.4974548283572924, -0.7384882738499692, -0.6154201258841094, 0.9380118536428079, 0.04210690272461681, -0.36096854102533027, -0.3227517829342932, 0.256592391969638, -0.3076578026949597, 0.8265753882892957, -0.9703572962406892, -0.6992149456652035, 0.1543960321360338]}, {"b": 0.824405098078477, "w": [-0.9348898220168012, -0.44901270629583134, -0.7247389410259792, 0.9561252392837112, -0.6572025104607291, -0.6978300846074734, -0.6482016567154121, 0.6693093331422189, 0.4189684870741186, 0.69299090282285, -0.7933437570896278, -0.7926786363509906, 0.007925776257069694, -0.23607405659492087, -0.2686981006257081, -0.9992593953621698, -0.697757270520013, -0.36911943854803986, 0.2968029968422936, -0.6630875499938556, -0.32150089699496265, -0.09172548984757167, 0.8176438831949058, 0.6002402440060939, 0.926239338806802, 0.8450278283345614, -0.03779165260188355, -0.5896807306036549, -0.32825828597659057, -0.026655544064108305, -0.6277888324585992, -0.7190622084054401, -0.13469620867357124, -0.9899009789606643, 0.21268566322324878, -0.7532295497999357, -0.7936425155558924, 0.19385465463700924, 0.4950598445563008, -0.9971713590768863, 0.46910396942641186, 0.15115718227934072, -0.3075807001746489, 0.8493229899570154, 0.13227948831416758, -0.05778640789176004, 0.29840885507128023, 0.1925082109207099, -0.13287308103715167, -0.25352784293511665, 0.1718726034682685, -0.20831240647977034, -0.23870855682541414, -0.6398999049641765, 0.26302503378280284, -0.5829556846125663, -0.08316253759398262, 0.24543642929011145, -0.2452628065346727, -0.9728179397952976, -0.3356878263059029, 0.43402485024007453, -0.9424484022812516, -0.721921468658933, 0.8501674322089228, -0.6464613114061244, 0.8446280876464842, -0.11112772057981513, -0.05433794539636616, -0.9889901848380229, 0.3206316810651715, 0.17536677999815908, 0.7651578611980017, -0.86567057156875, -0.30946228187765845, 0.4582463241191701, -0.6884394336251289, 0.4544974146315137, -0.6382493461140779, -0.03673660180126137, 0.8210084447760588, -0.5663322908160882, -0.39747833854222026, -0.17827804895725152, 0.20244299838449087, 0.5966949944634887, -0.3827084833980283, -0.8963008091149287, -0.616642274029138, 0.9236640680363026, 0.23643498644136196, 0.22131339401437589, 0.9703100831217375, -0.48049459303213005, -0.016016747932038555, -0.08181366290872716, -0.24139312023130066, -0.44510391954522177, 0.7687363145667225, 0.028975042036144538, 0.491226768478916, -0.9637163942541918, 0.2759844199909993, 0.6118537753663709, 0.6540811231395183, 0.6019206970971125, 0.8365621635757063, -0.02680066616273269, 0.5304865480126946, 0.48058676735444017, -0.9396365882881268, -0.7671043493205822, -0.2740212439410872, -0.6073475597067701, -0.14601269196359756, 0.16512863524856036, 0.8206901300624039, 0.8355857365668469, 0.26835923108302673, 0.8556382336103185, -0.875103505049388]}, {"b": 0.38954379707022535, "w": [-0.22655614315174888, 0.31755041804143147, 0.9946033161453671, 0.8776660473350935, -0.9775990867856881, -0.31145917048025584, 0.7971447746464488, 0.3163774262192698, -0.08852069662556494, -0.06531752754488052, -0.6630945687970697, 0.4270454498493168, -0.1362909909853791, -0.07275545309769171, 0.00848901806337099, -0.6433992721788304, 0.38824091466155286, 0.9076645796873786, 0.4086308007975308, 0.08198538676671108, -0.6043581237776243, 0.25243927887863293, 0.017713579496179355, -0.8693180582083866, 0.44317807134623033, 0.02263920899427463, -0.6241668728676806, 0.344954874028621, -0.16239423724129742, 0.5675248832488442, 0.9026442166162336, -0.9362891104448796, 0.12565451110655323, -0.7373789346684092, -0.14409384588684993, -0.5895756005418469, -0.8687441114913748, -0.039349816624049794, 0.48869821641254196, 0.854843039836422, 0.6474749371540909, -0.9145789253476415, -0.09280409194528216, 0.38915306345700773, -0.8761710132822329, 0.44833229546686715, -0.29400120447774136, 0.6986679837107397, 0.5810607505912255, -0.44009484800455323, -0.6670363462953011, -0.14868682356161633, -0.26422339051578736, 0.20448401519320014, -0.659647601431965, -0.6264526323270114, -0.4112839748958248, -0.8846170259809378, 0.17971539118063462, -0.03905929486251036, -0.6138680551265789, -0.6966136034662187, 0.08676613094334296, 0.9342501821420455, -0.4301465820437589, -0.26685343019635277, -0.1840985574808116, 0.8761088816539737, 0.8025953018259062, -0.8774327022235306, -0.9591506853596767, -0.4188574827320004, 0.4452407233749456, -0.11466473765782736, -0.236821345290255, 0.19098881219232555, -0.8702881982111275, -0.6559771655806679, 0.0014879206373188403, 0.09626600089553694, -0.4849659314205079, -0.8414132878962879, -0.99546253680478, 0.5654178419870839, -0.2916140993909042, -0.6175791515831035, 0.9645908400811696, 0.8270758130442242, -0.656202589276903, -0.9609655484164867, -0.7278333271656181, -0.400448463856101, 0.8083592991659412, 0.007228547116693074, -0.9679630778420756, -0.717064390883835, 0.36614170004158586, 0.7532101961830906, -0.3684047422483976, 0.7434341067578629, 0.1446869993924078, -0.7278979568037929, -0.8542836456237402, -0.21002180088868783, 0.8160038210726743, -0.05561507903550322, 0.8248673286722028, 0.9609003339786808, -0.5641967901929335, -0.9375040308165661, -0.6066555828743552, -0.154504455705881, -0.7279558664387702, 0.4116052534464827, 0.8942751037913428, -0.22873999158383929, 0.6570704707314812, -0.6860889941368855, 0.8367656201475098, -0.6804120350538341, 0.8411298154708127]}, {"b": -0.6376143354374675, "w": [0.8404622058000937, -0.964114705096583, 0.015914534391667567, -0.11102110943688448, -0.2677884959969301, 0.9642039677825223, -0.9288277450050122, -0.5678825368317064, -0.7543578860291049, 0.23267288784831908, 0.9490707040220949, -0.9398745523362584, -0.4032057877121391, 0.18397457173822285, -0.47956777057529787, 0.07139492071654607, 0.4667787775308103, -0.8745445613120839, -0.09346639126303713, 0.5757869543379492, -0.6469780252097663, -0.5208780834968934, -0.8020281405867842, 0.9200855027097796, -0.5206348568889805, 0.7000962796773962, -0.8580774797336712, 0.8000914194217235, -0.45424729382371853, 0.14639296009638092, 0.6809032402924882, -0.9018478825309464, -0.9945154093513298, 0.2596784523706912, -0.1572434836575478, 0.6278181397676585, 0.9433207145732325, -0.19663202965583215, 0.8719688399511696, -0.9005865571300686, 0.8101918591378563, 0.558472974414826, 0.12425414133437784, 0.8328364696197663, 0.8156408914867612, 0.9351626625652805, -0.2741232241040046, 0.2620666618875833, -0.38949290198985254, -0.9759647526314568, -0.9522312930764665, 0.8534367654327126, 0.5892453406885165, -0.3156528890876251, -0.294755118325007, -0.597782526610285, 0.21911060684967376, -0.36802689481114936, -0.037531866082982424, 0.17518820298014548, 0.10495403739663822, 0.2727505868396465, 0.14423706454068363, -0.7212736857620938, 0.35749210047968405, 0.5814736625036427, -0.19619000877629333, 0.10896520181330316, -0.5875630282328255, -0.11567350442228896, 0.4245740097672801, -0.09228537945270388, 0.587492584678265, 0.4077496326516148, 0.5887088156040843, 0.15085220340496908, -0.08660270394179559, -0.019925437839127813, 0.5120555005832139, -0.1430040204192009, 0.6390567546511361, -0.2998574079623697, -0.356609545853789, 0.5264776053661382, -0.24629485976265775, -0.6944682429769908, -0.7345725702378056, 0.9099500423478215, -0.9908886122917264, 0.473224259084956, -0.47435805883610094, 0.17471184128290673, 0.5714077651257932, -0.061211504239942593, -0.6001318393853134, 0.029563041469171436, -0.8635527807165528, 0.6499527551279412, -0.07672810257110685, 0.16478465854093116, -0.4496886020498516, 0.5456082126069026, 0.37243347249030423, -0.6243055346134483, -0.5048181473686992, 0.6206524308243464, -0.7347110630228761, -0.8936097887061927, -0.37615099999575397, -0.4567885351236791, 0.8005609978514605, 0.29740411019767854, 0.7547414549518152, -0.7644358717920534, -0.4739139847327367, 0.2851671238232556, 0.519201004862919, -0.35566641803281085, 0.6447644784611601, 0.2742656668872552, -0.12238373836767469]}, {"b": 0.16493710973344844, "w": [-0.16661652926552173, 0.3013954040343172, -0.014620954259009666, 0.3551606607906388, -0.6144907670411686, -0.5384889969133859, 0.17555017255999306, -0.5927864050071467, 0.639523325596359, -0.8775270411766323, -0.9582912864177107, 0.42831395315401055, 0.13333427226854577, -0.2610007200478235, 0.9179906198713705, 0.8714508922697175, 0.401413250297344, 0.5213257137731417, 0.11609038311001041, -0.32182014286934946, -0.2726713273499497, -0.3172149552584307, 0.1725344049442359, 0.7092243283117519, 0.9756671965744084, 0.5279970697562555, -0.7115943354813956, 0.015551522576018773, 0.14751161936733337, -0.7471225747399792, -0.5773661785937261, 0.19948045974623518, -0.6450317079003987, -0.47259757279088577, 0.8984350509439669, 0.12398991245171986, 0.6928603779075084, -0.9396582411954091, -0.3449896844147713, -0.7881815756931951, -0.3609980518199849, 0.7930532698199404, 0.7078308556955346, -0.02267164751294004, -0.5376706889893663, -0.9149876668441539, 0.08375801425131923, -0.13162551717918847, -0.29900459588349904, -0.8975777582819147, -0.8533086482371233, 0.7700083859037024, 0.4764267748974793, -0.09110400600421142, -0.721280974907053, 0.22622940338027364, 0.17794318668046638, 0.3668764199252428, -0.9840605532291697, 0.8596923648498174, -0.5352740350190068, -0.052454512618466564, -0.9188143206134685, -0.5275181438237297, -0.25056509567278984, -0.6680691581641718, 0.3114447369191047, 0.16373479358348297, 0.2800782509633961, 0.868562968410995, 0.3070580545845325, 0.9378464681979959, -0.7938362798750089, -0.8957412188571723, 0.6301593713816169, -0.42312981233769853, -0.7673197404934828, 0.2198214622497794, 0.8869188092566527, 0.8831369127009421, 0.7531336148539527, -0.843460273585265, 0.456710806678432, 0.770524448394089, 0.2545980063073139, -0.5380574936829945, -0.3783707876111715, -0.8616159664002643, 0.5497081449033985, 0.724232388765012, -0.4267161057819524, -0.20055615022069517, 0.5006211565555996, -0.4244126622031579, -0.3607492845182765, -0.7014384174059427, -0.1190383223318281, -0.9703332509722709, 0.7461565952498954, -0.9248049227339337, 0.00998282400785877, 0.4484628631755545, 0.8944820705616752, 0.14160746524862633, 0.7882748944551892, -0.9196156830041702, 0.1685764222902255, -0.22004367527673696, 0.15912426625179843, -0.4831799408946842, -0.021402730738051545, -0.947727411760344, -0.17378502827431763, -0.9171701685646907, 0.0867382585905414, 0.5199184500101379, -0.5005314514605341, 0.7840451378621638, -0.6887488919165716, 0.6283737862641576, 0.9265937884011004]}, {"b": -0.810001098624962, "w": [-0.7191668307861709, 0.899093004733887, 0.6499908540606096, 0.7837016103475358, 0.5481930144547715, -0.5534737829049732, -0.6072752887912416, 0.9507140485619516, -0.4894869089960594, -0.7858927756778338, 0.7561616801196935, 0.47044675904754474, -0.3060098446603934, 0.9207840925024198, 0.11817270416828252, -0.6903734752454822, 0.2945669126708963, 0.004838098132072366, -0.0984343074069094, 0.3027827678303152, -0.19299382465092418, -0.10323890676133374, -0.4357167760032947, -0.37903248693861347, 0.9954428333311509, -0.8959017552205188, -0.09596282316864224, -0.6091829922067453, 0.19326043079749278, 0.6566546040012431, -0.9215262375938249, -0.6017208063169894, 0.9838998023856163, 0.6223121000542966, 0.019595762803765737, -0.8901187701482318, -0.5176579055480584, 0.507117731700357, -0.5342171763825134, -0.2887508156929295, -0.4595358195895065, 0.2593044090622372, 0.7101563607388532, 0.5839604474570703, 0.17069729610602846, 0.5230287499838051, -0.5099909650988823, -0.5467266147563945, 0.6323777218800046, -0.9770655800071815, 0.4450823840873126, -0.40985197797986084, 0.6727693883862036, -0.30498286869684677, -0.54154768953997, 0.4524815009776586, -0.16379347475556982, -0.7471824648575824, 0.18810510073647135, 0.8599087883018324, 0.8280759076848909, 0.05399230587427395, -0.6387677176973086, -0.8318092721608374, 0.26431968741782175, -0.42139822884513434, -0.8932752757476736, 0.23405082038128788, -0.5540018239525268, 0.5993643771290027, 0.17517948527281058, -0.7486147440133375, 0.3902998238796802, -0.03534228259390404, 0.9910521012639648, -0.6289232733827457, -0.45492442184428183, 0.9861086051872678, -0.18304911582534666, -0.8657430106807387, 0.5404058883197091, -0.8078237204150167, 0.7696901816378905, 0.2507013467973116, -0.5865069690476874, -0.21686425368281625, -0.7808764581641858, -0.14529002626910192, 0.8591752229073479, -0.24201204154098566, -0.4996594414051101, -0.6315539516305382, -0.31516715053511235, 0.2732422369374363, 0.9651395363449244, -0.45856478346583507, -0.08234309854367905, 0.47837173544794087, -0.4893905120818849, 0.9619351979746782, 0.28676460151609184, -0.9111903977961064, -0.9879939257961305, -0.025992894383294995, 0.3984637579832453, 0.15622658417278967, 0.5828622606313874, -0.35862041026349867, 0.9348376390866961, 0.8416438500766652, -0.23682680030815173, -0.4919221240432281, 0.9980670826544109, 0.13416088995807973, -0.7749431327272323, 0.7898147951186485, 0.6341489721687585, -0.7900799753166265, -0.17694883345561596, 0.5587506913599958, 0.8095999527073652]}, {"b": 0.5252309582515675, "w": [0.873879197227541, 0.6411656859914947, -0.567408772384711, 0.24924877942155965, 0.007522586755281502, 0.6239904498387439, 0.8709212600173106, 0.7681979708204232, -0.3333585054469943, -0.6144834963218231, -0.21723344079046814, -0.9710521123507685, -0.5177602264816907, -0.731359850338489, -0.673294155262101, 0.15071657695652307, -0.1537581077014496, 0.32492026699419907, -0.8792683198694962, -0.48908383121174515, -0.1591377650489958, 0.7307980872920938, 0.21181701834303746, -0.7433034954417443, -0.32573461912489643, 0.9490923077062852, 0.6237612347958563, 0.9841625205519109, -0.6454395422130053, 0.2761378566382271, 0.616331657675292, -0.2103785966355174, 0.003255776390433729, -0.9123681376807229, 0.41249132199033256, 0.2434302563369488, -0.6215858760504085, -0.26937897551553713, -0.03821766530790627, -0.3368557831432082, -0.7859815694079015, -0.9179336788975196, -0.1826087609812459, -0.3597479951616256, -0.7347528601566571, 0.8782974971394413, 0.15272584784909182, -0.10357273237943176, -0.8511095958323123, -0.8804637288655006, -0.17373505267379397, -0.23896718982566978, -0.9759966264057476, 0.18228255354788936, 0.6340867956186318, -0.39226034119075104, -0.48256063208223465, 0.08863511867602392, 0.015582175898743555, 0.4427787932886176, -0.9855932329804076, 0.5592989126003094, 0.5018073409819772, 0.990719013848983, 0.013095252418074299, 0.5281199821795888, 0.6806352585345716, -0.5838723811381918, 0.9392204245857787, -0.8628804033012991, 0.15991992106744046, -0.5869557470051523, -0.5909886670754954, -0.3036277815166226, 0.9906501008809607, -0.21822223229301985, -0.7575123952528471, -0.96552729479529, 0.7757534619731534, -0.6858625447629865, -0.29843525575264396, -0.5569579286571302, 0.6669149381680446, -0.6347417757436677, -0.46815926340615066, -0.6678086740489628, -0.18890193771041264, -0.34688140390638056, -0.9925242545789628, -0.6281232674626791, -0.3380131435570377, -0.7858293856481484, -0.6386195556711656, 0.20618075887407894, 0.7895821540641812, -0.19650033659044297, 0.2108871908605181, 0.22792403159730212, -0.6968790982237834, 0.36360091255296423, 0.6752203984887599, 0.5016566506663871, -0.3420222245213187, 0.4680290019977438, 0.5167488425694657, -0.1357188035323944, 0.8966982304919529, 0.37665300570491067, -0.8451028259188991, -0.6512875569217076, -0.7025147401733578, 0.5740703717298787, -0.6581960097055943, 0.966168900414788, -0.5251649965457621, 0.7735235718138984, 0.3394228422930794, 0.6242891243761985, 0.9157796731950467, -0.35670459062395277, 0.8160960571575184]}, {"b": 0.6031664003126929, "w": [0.02057209913429947, 0.9087939179480855, 0.18714587456030096, -0.8411931891743525, 0.2612819586028383, 0.5464018670688227, -0.3013106210325287, -0.43565434153933547, -0.24745727475023727, 0.09631117628979702, 0.49341189919087336, -0.3286122458487575, 0.733698515124154, 0.957387989963967, 0.8383874028822056, -0.0574315060026771, -0.30972069233355537, -0.8005375428725843, 0.6117106537037107, -0.8930585688617836, 0.0407630507649861, 0.8960792227888146, 0.9350749581888453, 0.5705567117415762, -0.4612992085723906, 0.9775217500051148, 0.24204648407460616, 0.03201248477141028, 0.9934214910868444, -0.2980765490768833, -0.4314706503804284, 0.037673676493214625, -0.31513334400291737, 0.9769552064180949, -0.9673674790636395, 0.9383180521298689, 0.08727207324155706, -0.15812162668331653, 0.21592277748244793, -0.5253910244029851, -0.23443949564897215, 0.9713094219964094, 0.9475696384762891, 0.4524469628012078, -0.10246793655813002, -0.7559099155571263, -0.3826086470854959, -0.09625742698865336, 0.702111017201891, -0.22596069366370086, 0.15313080801866108, 0.13024036475646628, -0.9627275419199748, -0.46383027343618854, 0.14553188121471683, -0.9263397703705889, -0.17799596611815538, 0.7293490166494807, 0.5021209485207749, 0.5392682613562347, -0.8252364519537152, -0.35466663715853586, 0.2107134054215587, 0.3950391058683467, 0.3804131403547584, -0.05003063473696323, -0.6946437329395907, 0.9125862600930035, -0.7921664982859253, 0.21643722546302913, 0.7350197694881029, -0.5600809043882278, 0.007030313357302864, 0.3441783610952731, 0.5577780090650231, -0.48939048372287663, -0.7113988764018204, 0.19178646463849458, -0.3356497413314712, 0.9337820663528777, 0.9678595418171989, -0.10552699491902429, -0.08165230108582833, 0.37587772089774973, 0.2296276189065427, 0.20694447354458556, 0.6857928043856407, 0.28619188085757497, 0.6967253968536529, 0.999524082076698, -0.03554957287061056, 0.13480083955043787, 0.24939973788919234, -0.3709157580542002, -0.9068557870365206, -0.9170392118600894, 0.6290082887891, 0.827391731636222, 0.08705725096724759, -0.8306779798271615, 0.8305537670764833, -0.5078204329001546, -0.06437391109670387, 0.17286017242888851, -0.8283560471059779, 0.08051504735576187, -0.6162902907029189, 0.48545980585346205, -0.3271534491288173, 0.065116614779964, -0.421353178088117, -0.909540302670153, 0.06284139615655038, -0.5846184598012867, -0.41007492641089227, -0.13708892949346407, 0.3928763059591689, 0.3157259091535758, -0.6760527965116998, -0.7459186914581311, 0.5974047952776089]}, {"b": -0.05097519432113473, "w": [0.25173816946867844, 0.2132442945973474, -0.7958454350104522, -0.9172066194501365, -0.946018670264261, 0.6891534042062843, -0.804771688824496, 0.2175159510407536, -0.45301881079068185, -0.29060122775607766, -0.5305208202521303, -0.7631194460407726, -0.2864265203347638, 0.6938465678790395, -0.3352760949705418, -0.873607973019247, 0.31356237865033654, 0.10241761537512528, 0.29802244546393597, 0.579879623136933, -0.859529077672543, -0.732008033097354, -0.7687346178908498, 0.6307287303149662, 0.7156864390227684, -0.20814541535505637, -0.36828512903026556, -0.9136909630456502, 0.3476914873889063, 0.3601214854796073, -0.7851862712325748, 0.9175698097783553, -0.8241223187619264, 0.590669671228641, -0.2520393137941819, -0.021378744246606463, 0.2700268167895985, -0.45872894227775496, 0.5656337297355798, 0.18542567831505163, 0.31541003118752786, 0.5425442665026681, -0.796348790234461, 0.6057428187617739, 0.7892952880376372, 0.7580894411383716, -0.18351531638873264, 0.5648312639253892, 0.48087481683848043, 0.9696880452661003, -0.8246901355476919, 0.9156179895460517, 0.9440851988182091, -0.18784411531840495, 0.18129411250130656, 0.16975458967249124, 0.792379021954549, -0.5286955611369362, 0.8058328585442676, 0.6178829172698337, -0.9438060969863489, -0.9622504346946741, 0.9821735398612528, -0.848501849683702, -0.13431018510622938, -0.3986192338432273, 0.5157091789441721, -0.41062636519905293, 0.554794083068157, -0.5950538448025848, 0.0013920681696977244, -0.006734737650986311, 0.5827094488981348, 0.5834381423386745, 0.4675154761490308, -0.6729479751487222, -0.3521162029994014, 0.26673012328314316, -0.15150745790513565, 0.7287806678034745, 0.06274749490442866, 0.17474093647760247, 0.15375076888398964, 0.09240861013026014, -0.34508567293971404, -0.536247603892722, 0.711833765109454, 0.9316599910237722, 0.4931811154042023, -0.840146196392989, -0.6835703605619412, 0.7413955942789443, -0.6287227497872057, -0.505518874361006, 0.7615243072300724, -0.08065073355278463, -0.2764883298206182, -0.7793533848160321, 0.8856826901691153, 0.3804853954489742, -0.7597588432067997, 0.5282390575669473, 0.5842915052264737, -0.19814512575797072, -0.16666698447940775, -0.20989724509115515, -0.4062024921524432, -0.6873211339780676, 0.07175275785557966, -0.15513259844301364, 0.055184739320772946, 0.42808738994669526, -0.6512760198887777, 0.38727626300312434, -0.7673044143043168, -0.1526691237500486, -0.8248536623447189, 0.9509304555012816, -0.43556166745644065, 0.7445480001253915, -0.19582296629143703]}, {"b": -0.167515773237789, "w": [-0.8467547454095792, -0.6935830444177151, 0.7726268828963423, 0.8422970357940969, -0.5801637734804643, -0.7532450074659567, -0.9710231650420655, -0.5171605935029642, 0.10432376465582749, 0.4696655552930169, -0.14702562498019933, 0.8883352810912228, -0.5200098465275922, 0.33149644363743325, 0.5670700976072609, 0.928477339810718, -0.45403062873208655, 0.9147256674250224, 0.4556558497823442, 0.7405683782438637, -0.9832978135834605, 0.9965052289154201, -0.21057795616902508, -0.8873505334958496, -0.9534526010207922, 0.2916448089198731, -0.5788195650806198, -0.09203903124218438, 0.04094205886268054, -0.402700184894464, -0.9741492418689566, 0.006849579963750463, -0.31598193761264226, -0.37957817667932314, -0.7873873069327069, -0.9976972970062417, 0.6445078749513027, 0.9307082500234498, -0.19855823593766586, -0.5011410960466323, -0.1518947920244369, 0.7689370833446383, -0.45351018638553264, -0.4228949875730732, 0.7828312713784333, 0.07555917287654212, 0.22187551487396262, -0.478350773560811, 0.8093673771966514, 0.7646657894483593, 0.314140343744165, 0.6599480457684936, -0.9808503904254493, -0.7684336738492386, -0.7010175768251179, -0.22153803426688334, -0.046320520722055836, 0.026957042826569078, -0.577659642194247, -0.07523616000065769, 0.9159580423308542, -0.46355363343990574, 0.4058898115360501, -0.45107662253002423, -0.18177025739791386, 0.650454774741716, 0.05984498199157939, 0.6779706804183887, 0.18784219835899463, -0.4587525718664984, 0.4718641161521129, 0.5637895877842576, -0.8668580429052686, -0.17162888426276535, 0.0326078180610323, -0.5467559951291583, 0.4755901912661651, 0.1916089798204228, 0.6756245014469244, 0.5589469433997354, -0.5370595985097877, -0.17467853583558512, -0.4254364987419792, 0.4637856794937625, 0.012943969425739832, 0.5692682617834153, -0.4904722440018703, 0.3206955327912533, 0.04333908747096604, 0.861483142726045, 0.048390367094983455, -0.29793261997963394, 0.39568733785953003, 0.5573384350052968, -0.03164672866532703, -0.6058547245339374, -0.5505871981611992, 0.3416414128615439, 0.7213878094805408, 0.4806769695624462, 0.474785581841044, 0.4683030503464476, -0.8531369509058149, 0.05685542774994978, 0.13622543846972457, -0.7842498255868118, -0.8330795470238563, -0.45068750940544877, 0.49688002224756467, -0.008983154101708024, -0.5342325120105498, -0.9507339830241137, 0.7961201477187181, -0.7620227793955603, -0.21590587958115526, 0.651193863424546, -0.23157909222226847, 0.4430687299220877, -0.06865639610749397, -0.36607424994488946, 0.3366023811140668]}, {"b": 0.8629278739990645, "w": [0.40363948677238093, 0.03411569240918677, 0.40768691671288804, -0.2557718684570067, -0.3316165343374957, -0.6174582280112408, 0.40528018412530886, -0.8698236677261713, 0.9734951053684613, -0.6995848063781109, 0.3420200295442699, -0.6160957740153139, 0.16437197471047194, -0.8491015139731226, 0.7386348303211181, -0.8899301042493717, 0.3069923713662317, -0.08775649607636438, 0.030867406936035513, -0.40282788439779904, -0.5152375444487856, 0.6735825174328638, -0.18793954931149015, 0.5353482595282066, 0.6765590258966467, -0.4832173134867823, 7.387698072625071e-06, -0.2562532751973945, -0.9468750673688269, 0.150364628752498, 0.16562252260359211, 0.5085657977065166, -0.054292243182551214, -0.28954297675757323, 0.2455036799421466, -0.18863678741906553, 0.25860947961963765, 0.7519845122498592, -0.7093726938638183, 0.3539640987397097, -0.06473431904271143, -0.9312140047351769, -0.034481610300592935, 0.9879140432086384, -0.4154562970375424, 0.957064356861135, -0.5432232673300201, 0.5304978288139053, 0.8957919809968256, 0.7223110056056845, -0.7896664552089501, 0.8091716159722693, 0.5521294005242434, -0.30994650718592065, 0.6590707009875256, 0.9464743775412223, -0.3525666493788593, 0.290847316843609, -0.6067010005386511, -0.83510872979136, 0.4406897402683272, -0.12110332145781322, 0.33603198937198964, 0.9830730178272475, 0.39495234055659023, 0.3870647265861691, -0.1261013933314452, 0.5278133748028997, 0.5338422348926797, -0.5086834471858763, 0.17836638690563178, 0.8511920309068735, -0.5026468488748101, -0.7539585366727071, 0.2157037670535007, 0.2953734919101887, 0.6960270636148873, 0.41505526048154184, 0.6641762662912234, 0.5561505446116579, 0.08555971466921464, -0.5130893362490718, -0.06485390916264877, -0.5794174797549241, 0.5857483246071233, 0.29269804649593123, -0.2965605159148301, -0.49039861148248653, 0.8865987355957923, 0.2868166490523032, -0.6713735827527507, -0.8583174931220772, 0.6536854551281781, -0.510708529061809, -0.647252958423226, -0.2873532643002208, 0.967467706814503, -0.8371398413414837, -0.5673763164584973, -0.0893863290395529, 0.904139522796001, -0.8232985070075249, -0.4835212541171283, -0.9865578227451492, 0.488976443815506, 0.08034102978623969, 0.44116620532693385, 0.47141466570112334, 0.4084800883469235, 0.95657224870676, 0.5100995872290421, -0.80682399453114, -0.3639294953279393, 0.41624538146692625, -0.43680666859329054, 0.7353983387602883, -0.8877591646358289, 0.9337226799749465, -0.4582587792804649, -0.6992523906672217, 0.6212650548388716]}, {"b": 0.4788842048108972, "w": [0.9842341617871089, 0.20752266287022425, 0.16273059053056382, 0.5843353205146893, 0.37581259451092897, -0.6650100520909601, 0.7254596341399286, -0.37349957395629696, 0.6859014272577577, 0.5870851946711719, -0.7219252215854517, 0.39836523531702195, 0.8763639410286606, 0.2508643796166514, -0.9713744678254368, 0.2803418155296966, -0.4661540239503399, -0.14052018184616943, 0.4122224470039746, 0.8639974275570406, -0.5880863659488511, -0.7543390074453753, -0.6534566849006029, 0.8119331366028435, 0.6485980072312525, -0.5417513227230706, 0.019705388455409034, -0.9193922111665498, -0.3799656420066717, -0.15935742512668694, 0.3026249756551114, -0.6991273280974721, 0.21909844684102198, 0.06242960233212469, 0.013536721223664117, 0.9360364207728968, -0.2486530430859295, 0.209528144838393, -0.6786619692689577, 0.11615317193337305, -0.12623402608628131, 0.515651394393251, -0.6414685272804657, 0.5408193648179669, -0.4591002141923599, 0.3332091473346841, 0.060919495411146496, -0.506891672584852, -0.7017062854354512, -0.3710968976408824, -0.5644872217988173, 0.2123086142201489, 0.5190145011550196, -0.2289047189276716, 0.647173844680353, -0.8616122399103996, 0.09522120000004386, 0.27950939927107243, -0.6316533897403513, -0.2888873080122456, 0.17635053735596173, -0.960384689152904, -0.2534685418096989, -0.9818093152636025, 0.18101091784320444, -0.9375292636564763, 0.44641604712820926, 0.8415306213889153, -0.011584519531906645, 0.030260841430842733, -0.8332126020589048, 0.6178409368580784, -0.22722080161262492, -0.8907721004633908, -0.14088243694803526, -0.004975889224378971, 0.34517846211812775, -0.38763858501195325, -0.9940486966571451, 0.8879794684221509, 0.7312491535105072, -0.9104851292186604, 0.2876322787366261, 0.9964313291007947, -0.5360922633752196, -0.04947016238183588, 0.8069121243431094, -0.553121456289005, -0.21019605262782814, -0.13064754318529337, 0.2352567609377212, -0.3348414046028685, 0.23762992526238724, 0.18822066376117141, 0.4230743388054785, -0.6524210312910255, -0.46329714469522365, -0.0623722761398926, -0.816368773422625, -0.4550466226156098, -0.4123654790530433, -0.10489767972609454, -0.34454082058405566, 0.5188776296313597, 0.32437442741947664, -0.6880015259640149, 0.7366304999924025, -0.7483047854959552, 0.8462811867819255, 0.2789535536437633, -0.8540016250675253, 0.6697500552097346, 0.5642481506881221, -0.7617711723175888, -0.18769545947354827, 0.19457576043442293, -0.6302070839533958, 0.8562349371753561, 0.9191332813408064, 0.342596706981084, 0.4866417673671024]}, {"b": 0.27311129724733374, "w": [0.6407773986385459, -0.07234826107053105, 0.7352956907930039, 0.4530263482412815, -0.5331343248449167, 0.4231790231624919, 0.14443521059828557, 0.7848754667350131, -0.6249531736301113, 0.15876658171581814, 0.8032350904475993, -0.4126845334706526, -0.8349951548426064, 0.24964057949412943, 0.38790429287675354, -0.04574579336823725, -0.424644576144277, 0.6516768846496646, 0.9236485176238005, 0.09581246241500607, 0.32017711019304795, -0.7014958812677006, 0.313639800880525, 0.8722939772739879, 0.44286760700559125, 0.2581737404214106, 0.656047696069473, 0.17666743128233797, -0.9978865560319208, -0.9787184712573502, 0.5414654636706104, -0.6223591310945273, 0.24187103924664655, 0.8505052433758842, 0.7563366618596554, -0.7163451463369068, -0.4494193845919656, -0.8216945449469177, -0.3851878386170575, 0.7238306426915886, 0.3056423502815495, 0.44816372865314436, -0.3227031075990441, -0.5758561182865773, 0.9685724964531937, 0.8269813324804927, 0.22150293088003248, 0.34605424146295016, -0.6027084600937087, -0.39458175607145396, -0.46596753903557264, -0.4435179824967801, -0.9641534085638757, 0.5384466196957396, -0.21258815271921816, 0.5295032946257356, 0.12254363926163614, -0.11351739221396784, -0.9946221463205045, 0.4102807783094333, 0.739920649173579, -0.6033495618312097, 0.32900326520630463, 0.29938797529443306, 0.4691695104781062, 0.34436113509357313, 0.39239348261157403, 0.4442554251352222, 0.9610846330453238, -0.4836453015369324, 0.9094017796694644, 0.433088864199753, -0.5824214013760642, 0.7023426305668048, 0.8880485436315888, 0.8307627032648985, 0.9141007136524468, -0.7482768790947472, -0.5061360943205633, 0.4389412671408284, -0.1376269187451018, -0.4691689168362507, 0.9118695864002655, -0.045694448782301444, -0.995423717182923, 0.1008740361493865, 0.7289492723842221, 0.6290530618022911, -0.8639561110908383, 0.7287026157562169, -0.3867330305120549, -0.6801692615012627, -0.7131072450875646, -0.2727935917115878, -0.048734580755527945, -0.7624551266232629, -0.16804649742181899, 0.16564139218743335, -0.18146063642115973, 0.6986021601639263, -0.5897540404972952, -0.574237939642311, 0.2587512257303122, -0.31707422814755803, -0.7354452216988812, 0.695859219893554, -0.4126175197610449, 0.2527788355651466, 0.15681098286237183, 0.8889057962604308, 0.36620895800980335, 0.8483655357852362, -0.7047705214699622, 0.47857449161509047, 0.28955737064497855, -0.8255712092563627, 0.3519963195015443, 0.07866235008593381, 0.43415348882670934, -0.09023229871495242, -0.16569961246160614]}, {"b": 0.38316352618614835, "w": [0.6122810941714338, 0.5391784328321385, 0.8356192554645512, 0.7777883494303102, 0.6900484102214839, 0.10915661325875581, 0.22125175257033658, -0.8143644672199915, -0.283269728885696, -0.8955934637710006, 0.3502736358234564, 0.21716130633559816, 0.0669407287141437, 0.0853445487959752, -0.7745732978295006, -0.30419166442386536, 0.5160706374242299, 0.45882632514888644, 0.310938189672602, -0.9037122861615505, 0.28701555635758025, -0.5563539722317843, -0.4112831991773154, -0.32355131124848824, -0.6830813683082699, 0.3031277674729467, 0.40593557511905565, 0.582707610415252, -0.5954454707585697, -0.8196223903828992, -0.7199022719533437, 0.9226119553482273, 0.7887828316622041, 0.9211552260980773, 0.590131921200931, -0.2169546802219191, -0.5717939485055035, -0.8673041880941956, 0.8912726535040054, -0.11719019759444338, 0.23905251943520556, 0.985400489339044, 0.9348775923204105, 0.028788896713832557, 0.47718121334415065, 0.601698661517335, 0.14793377486703907, 0.8373056554748635, 0.11834986569436756, -0.6954275370656529, -0.627726792710924, 0.2291076133117511, -0.9718188847866012, 0.5408181664827001, -0.6120369846342795, 0.6338194971750877, -0.0832562264486596, 0.40080336475627654, 0.8280066382521742, 0.8608620974329206, -0.6232025232985439, -0.8413140171300624, -0.9649111269275985, -0.09859607998388031, 0.5697149104359822, -0.9232029537869448, 0.25054294086877693, -0.6807103652655815, -0.35884356742981827, 0.0861851879920783, -0.5172836971986532, 0.40254085960793917, -0.030941596541503413, 0.49027206712505844, -0.9310443339109062, -0.11202676623368224, -0.2675602479884809, -0.3743311298276113, -0.7951341924088569, -0.22168372965837868, -0.9268038326092007, 0.257822331643788, -0.7640600062041851, -0.012681065274487535, 0.48841363551446815, -0.14723770589987528, -0.11463715907316119, 0.7221506737354442, 0.36262183649221646, 0.24058755054464376, -0.9636001298912766, 0.07976018834427179, 0.3974809934372834, 0.6339666233865326, 0.4170706138686986, 0.7072540880876679, 0.6946226029450295, 0.6390219847865519, 0.9889330717361164, -0.7916914487096902, 0.03076455695063962, -0.559298525193092, 0.09831804143552825, -0.9200236992788215, -0.01737311980010503, 0.9642757540183742, -0.6874918444165639, -0.8884268392849328, -0.7251125482062, -0.10131641265301616, -0.8312735631692014, -0.5614519505748594, 0.32405038235281025, -0.9190821817662447, -0.2995181757393546, -0.9112861655478823, -0.9841869198791788, -0.4423022884431784, 0.5018435096733804, 0.5298105127935075, 0.09403445956390133]}, {"b": -0.5616047279355263, "w": [0.042789163758801596, 0.6429243479859166, 0.9880688936943776, 0.5323225995281498, 0.8668118975837806, -0.12644005993852447, -0.6037772475647984, 0.5783171668732177, -0.46112369872975534, -0.5283048417399117, -0.7454503533046761, 0.780801823196726, -0.03113881868455759, 0.33884486344914033, -0.9069067499395222, 0.9779274943802629, 0.5563238338189804, 0.8055395352726433, -0.5818262920935484, -0.5333636667461563, -0.8455331062193154, 0.04161384653645395, 0.7400817178493044, 0.9179720401669047, 0.8230774473359788, -0.8823356790671959, 0.06803676224512079, -0.6098795496605276, -0.401988583451208, 0.32846317127155, 0.2100535261719909, -0.31008218371801965, 0.9056431686046935, 0.35318326992240134, -0.18466763824662835, 0.47807106116598597, 0.36945187765549914, 0.922959274866191, -0.927348619736738, 0.22066125798533265, -0.2658686307564899, -0.9217361084583622, 0.40905877055387463, -0.13804281811930452, -0.25821422240022907, 0.0039318279047224625, -0.057295786867787246, -0.7975696931304712, 0.9344809165888659, 0.16034302477296136, -0.3843104115899765, -0.02359531823151828, 0.3324110911221094, -0.7300316789412904, 0.3207102254447127, -0.1907886410876214, -0.47718385724977397, -0.6548894565907057, -0.9571189514721774, 0.7302485407675359, 0.4271462953345193, 0.9499932297196669, -0.9931333148437851, 0.1665655454250028, -0.5477515923800564, 0.3041164138549577, -0.8472091089748792, 0.559792521086252, -0.7705161645808085, -0.013927551893017975, 0.5805523900826857, 0.22393098225059682, 0.4033479438531826, 0.3929881268398252, -0.999515732658997, -0.5059144823136579, -0.9243186356817494, 0.17472947765742197, -0.6404569674072262, -0.9315294883624428, 0.9021780023443222, -0.7575224110553174, 0.35658855960020985, 0.5856804338350214, 0.7554418860350129, -0.5833114639266999, -0.7848993969435405, 0.7205460832625634, -0.8891881237030261, 0.20480125125739113, -0.8759146875784038, -0.8059807456158417, -0.7981383680733061, 0.7448453917489868, -0.24747550077607583, 0.32392673478418965, -0.17607606238966245, -0.31977614294465395, 0.6898579044635942, -0.5222699959994193, 0.8292149185587203, -0.9973046403770935, -0.4401365655324756, -0.2769188594937675, -0.28897296551744023, -0.658546717227166, -0.3587815466605875, 0.5547662700547242, 0.9608866303914674, 0.8290913463253933, -0.6868370102842796, -0.1456431767130839, -0.6167173722059978, 0.3928517409593246, 0.20263103433528906, -0.865869253228805, 0.06880799301337426, 0.6604835104080222, 0.9603415107657687, -0.07974186890184565, -0.10770737564272581]}, {"b": 0.4355761281063071, "w": [0.13438076302230484, -0.5489614166569801, -0.2526616857678341, -0.286517953381519, -0.7574414200642678, -0.8831691678656857, -0.9176953959070218, -0.08542650334132684, -0.7335194011931105, 0.5881057432161505, 0.5920935815535473, -0.2340691514873101, 0.39189970175976985, 0.8172820609284797, -0.34472967165410373, -0.7144115262514179, 0.3279254887234262, -0.20064625241847178, 0.06658383116927036, -0.5533556781989253, -0.1335603800450591, 0.7231965560876756, -0.5714615117031612, 0.25211995992189484, 0.5026046635973445, -0.2252116876493302, 0.16036771360184732, -0.5369823183795976, 0.35884284020587076, 0.43548879685840025, 0.7043393531654596, 0.41394995410470536, -0.04931666436812221, -0.011676726511056668, 0.23254954932095506, 0.31755853254056254, 0.6947660800201252, 0.8153347696077076, 0.2284184218861003, -0.3930109330955738, -0.3518610753753908, 0.803441643426996, 0.7956452196734707, 0.22820621111782646, 0.5078927722801418, 0.5574661327899171, -0.5218383010188252, -0.7050031247106219, 0.4961283971985977, -0.5506289719613608, 0.09270153878842491, -0.28150308596165585, 0.24400862614006824, -0.9994328408626676, -0.8895370805600549, 0.8059686946106062, 0.6676840919780958, 0.49305009206609185, 0.4794699228980357, -0.30157521342708593, 0.10716088581744576, 0.02106856175424987, -0.7218654046252653, -0.11241004875466665, -0.44212745855571156, -0.21861191855573203, 0.07335416559789132, -0.8912507950772086, -0.5819554631826673, 0.7126606495363379, -0.7915942868493466, -0.8145845050187925, -0.26260777977503036, 0.5308840516027946, 0.4097356342047862, -0.2018506229100987, -0.9012398568138356, -0.6336987059696984, 0.5215284538552416, -0.44385460832937107, -0.21794262104432094, -0.3848027750095442, 0.9873193976088286, -0.09850633341801207, 0.5056484710524562, -0.12833017521586765, -0.9255146000298011, 0.24779471977924605, 0.6115410049665309, -0.44740704461193936, -0.5905144052632572, 0.889762354777528, -0.34857205971353156, -0.4457608034980025, -0.5994575669837898, 0.3451393122284838, -0.11181179843475664, 0.7359632284279243, -0.09393466970943876, 0.3257598999683342, 0.3577613324803146, 0.024712677036736075, 0.24874982488903008, 0.14863916119577714, -0.5275793072383839, -0.07634850700452067, 0.4845475080406789, 0.9399413864780211, 0.003236423561060464, -0.19332283097083858, 0.8857676098178868, -0.05253182146345603, -0.15542661640621747, -0.43396548513648425, -0.020895473784512175, -0.6481919854907794, -0.577644249790874, -0.4069020462400317, -0.2661130776843912, 0.8164222102436489, 0.2858184245283619]}, {"b": 0.9723262121351568, "w": [-0.7794756783181565, 0.7264936361178127, 0.44463384215992874, -0.46271847959471635, -0.1273565584712646, -0.8883416141963638, -0.4320841314412951, 0.134373956802343, 0.9440539943965585, 0.9653507836143211, -0.39934384303378745, 0.34611281890356005, -0.21452108457836094, -0.7702221919726937, -0.978578852262179, -0.2814233942235478, 0.07278668904377383, 0.8030313800921314, -0.9824917313908419, 0.6458514471258883, -0.13774970564924893, 0.6441930173125454, 0.87161244705463, -0.9253989930526811, 0.3243760427195346, 0.30353760738096236, 0.05618720056591897, 0.6614975140584545, -0.9233692082962064, 0.25138212092986967, -0.006174814290965669, 0.4174438676206096, -0.38426033374801816, -0.11631285395566238, 0.5051141303396793, 0.3841726929747631, -0.18720748163745093, -0.3719721292188458, -0.22380216161030786, -0.4803489488413617, 0.20558378864227667, -0.5412432935463101, 0.7299119220482895, -0.42773485173597736, -0.9750950040917052, -0.656787445942987, 0.9339108915402221, 0.463091181523944, 0.6324928699625889, -0.8722859741758224, -0.4754128337824326, 0.04492020349800985, 0.2613656725034219, -0.7794787355688375, 0.19459684338957683, 0.19700807701586087, 0.9776749760644361, -0.8534571443397976, 0.8314920940012303, 0.4996187882055496, 0.6909723544258877, 0.09146000561758849, -0.7007084857996457, -0.054665486445098166, -0.44431193054234175, 0.7944452009778917, -0.6743928801463361, 0.6143866832060705, 0.10110929421626635, -0.8867784064680542, -0.6776887782126806, -0.9433474013505339, -0.9712692095177768, -0.18882486183321534, 0.410551245859583, -0.9917317894882145, -0.3007060079761714, -0.5624234217773321, -0.8316827505557303, -0.2156049742370496, -0.07106503982318424, 0.5311635926377356, 0.11139517758380912, 0.7935740151466648, 0.7321474462387081, 0.4755674531997418, 0.2728351763332806, 0.7864293424384015, 0.4179674573408849, 0.07938748321147293, 0.6578798003012083, 0.8123599900309626, -0.457604294930706, 0.13015225385692375, 0.43864254307131945, 0.5111388202385909, 0.062278240437869226, -0.6529006467024081, -0.897827541426711, -0.6185093503443104, 0.884899035384886, -0.560239352908185, 0.3324068882442137, -0.1319593124672207, -0.8386896112419566, -0.7417043436899304, 0.12075203451939909, -0.17532839116636723, 0.7093149059877863, -0.9131355427267049, 0.7648464782213398, -0.4418044833193111, -0.23286465502446463, -0.9676701511041488, -0.135931021388078, 0.6155798965539407, -0.6959044982654623, -0.2968011812248714, -0.2401655536747771, 0.09521242478972636, -0.9995993238932441]}, {"b": -0.8160382664849846, "w": [0.49675391769346966, -0.5037091895927945, -0.5232867851034695, -0.6826099200082578, -0.9888772502341823, -0.35025456860418114, -0.9967729271223356, -0.7165823108030065, -0.27184042109157125, 0.3024682007261914, 0.5239592278418927, -0.8642982789105145, -0.273872359459741, 0.6800436708559612, -0.387627628348711, 0.7482443196599593, -0.6874492087620372, 0.21925016284005672, -0.899126298250223, -0.7592364657178141, 0.6976557919241242, 0.5648926235373393, 0.5333541134073274, 0.4266163365039304, -0.6646117001569567, 0.5948306070374834, -0.5432047848625814, 0.595015723536481, -0.10322729477125248, 0.9828992555719154, 0.3909379068168244, 0.3669335145878643, -0.5014105033604916, 0.7146131784745358, -0.3801575275654572, -0.7109568595486744, 0.5652907790900139, 0.6712504302804916, 0.7068182202930422, -0.8699049661598999, 0.4704269073995986, 0.11855942484896809, -0.8547051915092776, -0.4185605769769354, -0.28124819805215284, 0.5346212276873941, -0.023859664675951686, -0.6916784425129345, -0.790870929099061, 0.8562044087631298, 0.453250862323876, -0.2484530562457259, 0.3108845448219304, -0.6634745482250144, 0.4398792114956238, -0.09313758526620175, -0.8172902852772397, 0.8968387160592388, -0.14565429365364024, -0.6564451130808575, -0.47652116368781616, -0.9103514803092974, 0.4776826355389858, -0.22481875407114726, 0.9637728793163631, 0.5205692247382818, -0.980991287427222, 0.8943558777585336, 0.8406235507280695, 0.571824976538706, 0.15133764496992375, -0.9311580863607425, -0.08729399916791092, 0.9029843579389822, -0.36137121874841793, 0.016894014387762724, 0.07500973335874916, 0.07469294582747144, 0.16362601155698497, -0.6648695498651775, -0.18183888672837445, 0.956125963658838, 0.7241098934932737, -0.10170181113820487, -0.8189645917166741, -0.635285957572959, -0.6948042713107212, 0.12136367324839736, -0.2979293673922223, 0.19272076392941195, 0.618797836233514, 0.6990598308721718, -0.07622843524269096, -0.4492855038525414, 0.6670630583825319, -0.8189423808631873, 0.4550283331419649, 0.7048015708021409, -0.8857089729702994, 0.7598118280469852, 0.4414882204653803, -0.554264743293043, 0.18912019838971084, 0.15798185926096786, 0.7028854114896232, 0.35123508361603606, 0.42231560129148416, 0.4066924550065456, 0.8688699577309533, 0.17578153547760733, 0.5675560377466895, -0.00630120240604759, -0.9030061723173457, -0.05978145764461851, -0.3228462728274737, -0.1901578410401943, 0.39645259525623744, 0.3544667561117103, 0.8344111186907315, -0.4269275380299802, -0.10295853235900188]}, {"b": 0.592420027975048, "w": [-0.7987175027191236, 0.2899301951340214, -0.21605593896320507, -0.5319079729014315, -0.042881785201356104, -0.19920689789044288, -0.8710194578262804, -0.5565712073694771, -0.5501399537454634, -0.9179047452985718, -0.13470947770755903, -0.18817065380529585, 0.8812077742965085, 0.6823465838669007, 0.9471308370016385, 0.1266603343164101, -0.3936555997490976, 0.9084601872849731, 0.5177151756528164, 0.9020254727988262, 0.37646969431067934, -0.529079200431233, 0.7216579244636796, 0.7413964864473708, -0.04949778074430089, 0.7067714165279106, 0.8915278911325077, 0.3372490047525314, -0.9077306002730534, -0.5931352390703724, 0.3607635726048999, 0.3601882520284685, -0.6297535475471938, 0.5186008684315495, -0.8440958657682895, -0.04811023611299037, 0.9548537726467727, -0.8728783820293453, 0.3670945567035677, -0.39656318475434094, -0.03540847990587692, 0.8148421270035682, -0.808960597696424, -0.07475916603955013, -0.3216923728735741, -0.7835293699211185, -0.37395857410146993, 0.9643409752549177, 0.7494802459398888, 0.9044268007220531, 0.6514246716758325, 0.8921777420832084, 0.773872802964436, 0.04834005211467596, -0.9489093130247468, 0.7042489850504452, 0.7849143268850902, -0.5707361909832676, 0.9382186328009221, 0.2595197523232906, -0.008850834808633135, -0.10828322311184135, -0.229531585689416, -0.7976962760171247, -0.9972217569812338, 0.04817413970120055, -0.9903776205401142, -0.2970953127590572, -0.7725326804222963, 0.5882930142731637, 0.841756773530175, 0.11971031231140405, -0.6450162649665561, -0.2254674137978574, 0.4802262221588556, 0.5721510198546829, -0.5816549309599834, -0.20024151153012504, 0.2707890063325027, 0.913986198017233, -0.4746496390741133, -0.7557376481708316, -0.6816561779597381, 0.24413581044751864, 0.9684515320817777, -0.5302141732106964, 0.2721482876455028, 0.036749392998482344, -0.2867891331993644, 0.009753071254853918, -0.14224529132181707, -0.2536238538972475, 0.30259066939108004, -0.2970207332103916, 0.7439088027147793, 0.3265820977758973, -0.31859886045426355, -0.4061935245193573, -0.2525503426531095, 0.4412572349695638, -0.5904719179368387, 0.7302280904436425, 0.08810183425982365, 0.5194516636500488, 0.35037018203619463, -0.550489690864064, -0.4423325212886984, -0.05829527680679503, 0.02609551195247861, 0.8258399324759798, 0.9824004441267928, -0.8710539787161624, 0.43920596812175106, 0.3660074001136606, 0.09249268950612022, -0.18834600991343575, -0.11378552877510728, -0.712999975360608, -0.905228312901242, 0.7512683824525874, -0.8599502179498659]}, {"b": -0.5760440275547021, "w": [0.21029012111983336, 0.5345552217737297, 0.6788096187180046, 0.6182578906751035, -0.25488199316302684, -0.5374939715576141, 0.07710418801305696, -0.17290170598666532, -0.3508038126543951, -0.8323407531587674, 0.9311418403058309, -0.00806780117629935, -0.7571023141777493, -0.003582115524442875, -0.12371552313608469, -0.8048168766850439, 0.3676875104405628, -0.8186013988521466, -0.642243316842471, 0.1692394266338404, 0.8775587204866022, 0.24252722742373778, -0.3564413277251197, 0.8068259510121913, -0.44504246943274794, 0.379184749795185, -0.8328369043433883, -0.5525187401939124, 0.8636378272560101, 0.3307456374694777, 0.565969301858817, -0.9766134819895387, -0.8791749913870117, -0.03976382521000277, 0.5611621892062746, -0.043891993250101846, 0.3605538850393568, -0.46504943450237035, -0.6889288582970068, -0.19383332136765863, 0.1524906333813616, -0.9526535234856743, -0.4507615187789551, 0.6970103745643166, -0.1442809458240708, 0.8105123104926941, -0.20373622578023776, 0.35209955775955004, -0.47916972013842285, -0.19882291708058664, 0.5361762388117695, 0.9277607725835466, 0.24188127063963138, 0.3186607652926692, 0.4531182050525884, 0.6926602964463726, 0.017177825017250292, -0.5805319393803476, 0.5766817385632448, 0.564691645250023, -0.34046920801607095, 0.8571382199085962, 0.2096467794306478, -0.17843668411689828, -0.852197668936153, -0.7675088335366276, -0.2126511080327107, 0.985019401747719, -0.593707203749285, 0.3367022577015215, -0.33619776640918, -0.30903723214888323, -0.273289126936074, -0.4127407621020749, -0.07359474864201321, -0.281030001145788, 0.05834238799376523, -0.10325580967796943, 0.5994567003885976, 0.23794661462334643, 0.44201675218486547, -0.23972419933119027, -0.756096423472701, -0.06846860346078598, -0.4728583967496447, -0.47933077828248893, -0.6459928045488197, -0.36098842823226684, 0.8202261627585765, 0.24765286154957655, -0.2472340660567589, -0.672867601428879, -0.17988848410848046, -0.9079815264882947, -0.9066073441640079, -0.6294664830098546, 0.4105744600319212, 0.8610185286624996, 0.49292293303652035, -0.6011997174270658, 0.22541214442637192, 0.9604317050245577, -0.4951487840671871, -0.8587698157105188, -0.08163480618377861, 0.05244939959094519, 0.13339781419961527, -0.9929017117760837, -0.7278348325587314, -0.9355062784543517, 0.07400013403470962, -0.41890943316067153, -0.8341428955255734, 0.8195777232139745, 0.6533108222721691, 0.601871479041562, -0.9991632770839407, -0.4055982663335602, -0.8719552323697948, 0.9158639016734502, -0.6724433465235629]}, {"b": 0.9216358886297995, "w": [-0.553063337276803, -0.9235929547931567, 0.3898597953815566, -0.5441020391078166, -0.5693328417531236, 0.4938933746286396, -0.44816879037235124, -0.8252349914301811, -0.42014685282169606, 0.7777468866674546, 0.9866092511625315, 0.048272412786153795, 0.5591281928609382, 0.03618448634131721, 0.0005354736964511275, -0.7809765872996548, 0.26392146614237744, 0.43160975629255405, 0.2261871571570886, 0.06604280894494341, -0.2191104561283943, -0.5395795496086522, -0.299895622210417, -0.23353072420979437, 0.9784271215633424, 0.7654191042054586, -0.4385557304385117, 0.29100406420994185, -0.6356101228640707, -0.010915575146797751, -0.3142840459561145, 0.464958957424946, -0.6517899694972096, -0.7161169446048736, 0.2876545902246781, 0.5672948329133036, 0.3008061057642304, 0.7689932032273292, -0.34511712204174927, 0.9506724920894054, 0.5014400822529304, -0.5097950198471248, -0.1582550383890151, 0.3560844399705616, 0.6737466307028126, -0.026368965563146052, -0.7528116621582792, 0.5149919136902579, -0.6422314652796637, -0.22742203899032165, -0.7259776533760431, -0.6678377073706858, -0.2363347959727522, -0.890926319977791, -0.5425383485064832, 0.1018941975952794, -0.7722022868994105, -0.08537809984931344, 0.3011699971082771, 0.05853042365388772, 0.2669225699976372, -0.5747935780411562, 0.202389623873803, 0.3410534718500271, -0.9525710133378904, -0.925809302901202, -0.9170711093889325, -0.823130010032723, -0.6945072873764666, 0.07037263417786521, 0.7298132698981359, -0.5846499879272189, 0.795203135593431, -0.4764066858983458, 0.2188829434277606, -0.7608622887327046, -0.8307229090757859, 0.26571163620981975, 0.7241507948540837, -0.9512625523711926, -0.28732021362190907, 0.5786276161837345, 0.23344449574016735, 0.8323140704929031, -0.47144598334075183, 0.3376249621574896, -0.09968013848221857, 0.1946842689970374, 0.18119065162819692, 0.04090913701463261, -0.07426146046987725, -0.21070688932980564, -0.6527630244426816, 0.6525095858665702, -0.5248809645144141, 0.9043019703908282, 0.15161068205212058, 0.4689225923249254, -0.743150640998028, 0.39361266669832906, 0.7142534241634011, -0.15123517499489192, 0.13835634939896257, 0.7889604271836101, -0.9494628058271601, 0.48245100968825927, 0.5245385631379664, 0.7038984544594158, 0.23528691658700152, -0.0551496375240943, 0.5628849875005104, -0.8708621366537415, 0.22643025249347337, -0.24579413740359302, -0.8975809891275119, -0.1644808070724828, 0.1689760910585021, 0.6353203352616301, 0.8409420373396517, -0.27243453737142165, 0.22855724941649003]}, {"b": -0.38126124441042974, "w": [0.04360532964211816, -0.8546766043590617, -0.4218047629235586, 0.4176563356428329, -0.7764996875681489, -0.41897610944021846, -0.1514798724734423, 0.11840240035466332, -0.3289336977446107, 0.6807274553309974, -0.8960932314802466, -0.815208537800646, 0.9273996175836094, -0.6187455008739844, 0.9224636372285366, 0.881511413865701, 0.07372592193098582, -0.8883329417321975, 0.035615841188037844, 0.6460652209811502, -0.2211511121207781, 0.04034212358876177, 0.9046220490946766, -0.8927062868063651, -0.46978626932479717, -0.7620402685710381, 0.47463254792920595, 0.9860633127452396, 0.3892603573332418, 0.7784196226742737, 0.6625081671430311, -0.3211648754369456, -0.3373743504277458, 0.4896831048128967, -0.8577676297315524, 0.09796856402975829, 0.419727916083827, 0.12829612306609772, 0.3393114367321959, -0.7968334522536173, 0.6960362876506709, -0.4203256283118162, 0.8677864366668164, 0.2037696963015505, -0.4324713062757821, -0.43328362875011006, -0.8106702086980808, 0.7592636460679103, -0.3235672979185129, 0.17108020900622822, -0.059263101551960906, -0.5271771114584562, -0.8568211760831408, -0.5216352730401448, 0.7009783249711727, -0.5151797122117097, -0.45718987069138173, 0.3927918601633218, 0.3564054450944891, 0.18161503632213027, 0.5405394490170916, 0.07877478713235053, 0.5952347423457576, -0.5974979956486388, 0.12690394461435095, -0.4379827617117049, 0.11529689600925686, -0.7912157569828431, 0.6284117213197371, -0.2197952202508182, -0.2201162710861937, -0.9101093632277075, -0.4267171446928655, -0.8835190772062864, 0.7469139191449103, -0.32012379524029333, -0.8702085386384739, -0.3748064319990472, -0.1910140760505512, -0.8761992849280706, 0.735053584573558, -0.31814647076763247, -0.925147188653832, 0.8611446627757393, -0.9738234789863636, 0.42112716661754246, 0.28432560611500457, -0.7874348985050514, 0.2645288188800212, 0.4086114874271982, -0.6433060407917375, 0.7120150773363689, 0.09203306214273499, -0.03608902949049608, 0.7867166793075613, 0.7078234344393801, -0.4841722391832717, -0.5049626331749688, 0.9586054711025662, 0.45252433358598454, 0.5146104854353499, -0.1342103635355334, -0.28417466864441576, 0.5692597721428483, -0.9720847687219474, 0.8751010512839505, 0.1940690845327393, 0.4629295195643701, 0.29925731034981307, -0.3156119589311315, 0.03233052264516778, -0.48136963163138935, 0.9607919504082332, -0.9000154270758962, -0.7927862879488887, 0.23660522878874746, 0.45292948996934146, -0.8933206545829688, 0.29776763359917147, -0.018185828665234327, 0.3965384943694559]}, {"b": 0.7910845546984611, "w": [-0.5747726004038005, 0.4430940898588416, 0.9307311847118673, 0.5883875535839471, 0.734065787651953, -0.2919010653651417, 0.405944005855712, 0.7026433323963486, 0.20215873137454343, 0.4171799570565591, 0.06963013283493003, -0.34970768640291894, 0.5222673398095263, 0.4618533386588519, -0.7025852323444703, -0.5166109321033172, 0.9325780015869398, -0.13064956705584208, -0.2318774146193412, -0.10087775136980315, -0.5903031296422083, 0.7819120275619469, -0.5378308666135019, 0.002805183418459034, -0.4826664709734103, -0.5154125568977967, 0.3513667041634143, -0.766304706373925, -0.9084348932739144, 0.29684789967590386, -0.9053654692022775, -0.19981885124744259, -0.7778745462640739, 0.430495840188049, -0.9630051937042983, 0.4992359910182953, 0.915557652484349, 0.8756286355064273, -0.033302159541658494, -0.45129868636570336, -0.2710737100722227, -0.6703188752654632, -0.16054847928503913, -0.2274397346333148, 0.14676845703938857, 0.16796780005240253, -0.9129935141863392, -0.8581315094402959, -0.7798848815549142, -0.15328051203337067, -0.4878994642421042, -0.04560147771363399, 0.1437194289061965, -0.8483554316426121, -0.3228916293133548, 0.12263973010749751, 0.08548324758091641, 0.1337139694296392, 0.22466504467331294, 0.5029831034574024, -0.20945861309626346, 0.41074610302059744, -0.306932118231239, -0.2548540509916737, 0.4520259307353547, -0.48115894218446353, -0.2907588612966039, -0.5715162792195201, 0.6909533021073102, 0.7111224903058477, 0.962881406007186, -0.04033483331493981, 0.888587870972211, 0.41434228542783624, 0.7472902211751353, -0.6530724885868984, -0.5254260410696308, 0.759024749406126, -0.21662276256477297, 0.6314416976817538, -0.4647679121365975, 0.616283979950349, 0.18440471571272044, 0.295600240338626, -0.5916033820883584, 0.7579429363493964, 0.4863095694526338, -0.3824536872591522, 0.9889746458137381, -0.38875816782455663, 0.6877295839596413, 0.23716464365020573, -0.47638271629086604, 0.30211092210388246, 0.6247266213586682, -0.588973652629097, 0.7586405616521614, -0.29288137528667146, 0.9068065830185892, -0.0659552454024146, -0.644096091961617, 0.25234931618895673, -0.9833057833702064, 0.47670957916694134, 0.9187126206864535, -0.2791552949677274, 0.9554034446550956, 0.9825921961986661, 0.16786496802692796, -0.6570115436453772, 0.8169370256371586, 0.4456825832855158, 0.26925155202619955, 0.09493447619579642, 0.43704061294526797, -0.8906723232187375, -0.7591628115185007, -0.7952888668228835, 0.08716721598546884, -0.9728942684298214, -0.13238296105990321]}, {"b": 0.32291496959914223, "w": [0.10094364588623295, -0.547269615276494, 0.12870523267471645, 0.904364604570904, -0.5639582796223914, 0.44941304838024965, -0.8439292370099898, 0.15934736841043984, -0.15380215109177087, -0.7164581240144885, -0.2517341285596457, -0.11338233513307339, -0.1830599298018265, 0.43022545806351786, -0.8970239129066966, 0.7748423136936986, 0.16801423179969843, 0.6872797803578539, -0.6410965882481154, -0.16372618503876857, -0.9621603121925959, 0.6662223483440672, 0.8991848952383232, -0.2927630025511565, -0.2554394197332359, -0.8014061995567356, -0.9905627161878605, -0.1395598398139426, 0.7127395620976298, -0.7111652857352242, -0.5993308392551524, 0.44369082817055805, -0.45329284324573815, 0.2043062501449493, -0.1578583934500608, -0.6271867575910552, 0.6786485788085528, 0.45178728489613174, 0.4588377371138317, -0.6368969898680088, 0.7565585260591181, 0.22124772914099222, -0.04561704005582046, 0.40097737026481073, -0.6026381974140071, -0.17268945055875418, -0.5817275723059485, -0.5446104882186809, 0.7620539287259613, 0.6458965090590156, -0.7321523561956536, -0.21662622372939677, 0.7439459280275889, 0.6834746538650711, -0.6408270612874709, -0.05138398531183941, 0.324880505016619, 0.8262119311430751, 0.6769454686594212, 0.0865497783848066, 0.5408110404830537, 0.20693733793431046, 0.24656795816550026, -0.7453600751047058, -0.49114431743432174, 0.48500719937563797, -0.14471187551649511, 0.3353070029830554, 0.3923627356019601, -0.17857869350277333, -0.7423489699743955, 0.024601457176457453, -0.30197875514970307, 0.8462916974553998, 0.08710435344685408, -0.5128425233837903, 0.9076230425441991, 0.43224116859888984, -0.026751224887983316, -0.3339720752535684, -0.08469946394096306, -0.7037865807251207, 0.031360469567915716, -0.6039924489683792, -0.5539612874037605, -0.1381291593410081, 0.8931499220391859, 0.7397244860301981, -0.6953245982123455, -0.8212301275973184, 0.9608253737599846, -0.7376365254105508, -0.3497566561905818, -0.5025849852668336, 0.632904231390967, 0.5055587027963768, -0.18990580164464554, 0.6964278553038685, 0.4819038481619635, 0.22523565846380755, 0.8390822366282737, 0.4978004176859343, 0.6203515233765264, 0.4198226101277083, -0.020444875607662727, -0.8569843176498568, -0.31909980057863696, 0.1532709336607898, 0.41323875462631476, -0.7511341781560517, 0.9313190416210675, -0.9488538252967693, 0.4548599444034831, 0.6881780937609885, 0.4314021816268119, -0.5992458035081261, 0.4691246520193042, -0.6506838066294669, -0.39570469223435834, -0.11073094600577504, -0.21505663241653217]}, {"b": -0.14613038731943462, "w": [-0.4416294814566315, 0.5579691640768043, 0.1475055870620996, 0.019787356391710587, -0.7545535659384073, -0.8788319822297961, 0.8180326803884705, 0.5532392519049774, 0.20316292716960493, 0.18327178479051875, -0.6555174167866475, -0.045943197821993076, -0.7013192392214231, -0.7931407160372508, 0.15480239249756012, 0.8278239992742502, -0.5727461627109274, 0.8620164216140027, 0.3427776144957737, -0.471827507872117, 0.8023958214579043, 0.8513459389261588, 0.9669167046489819, -0.4365833813631266, 0.1838573679791229, -0.6537368719213814, 0.6208796925803419, -0.6339304228920952, 0.3824085421679402, 0.45285488075190017, 0.38477183284779914, 0.36719115777088795, 0.015325579751839014, 0.4318049091919205, -0.25741883329562576, 0.701537352229074, -0.728915928410597, 0.6101663406847861, -0.40831590408283414, 0.482273109086089, -0.3299644255020828, 0.614821635690999, 0.6044475510342691, 0.9554180243677075, 0.34905214399961637, 0.689042945586571, 0.3358187728179569, 0.8870352944394246, 0.3747290381188946, 0.4326474260516786, 0.8960106826186891, -0.3893983629763389, -0.4077838128330449, -0.7392033238277724, 0.31905084409926787, -0.8796980074205847, -0.38717313798056896, -0.5798953364998962, -0.6309678936600314, 0.9365275214865421, -0.41683874634074947, -0.5739798288526421, -0.04617863351877349, -0.11824396260782266, 0.5005379778377284, 0.18978231944965973, -0.5669625033420365, 0.9123086086846968, -0.2596894774312053, -0.061521079421103186, 0.6424542666474218, 0.4053932459151979, 0.8153377742184806, -0.5573317386615941, 0.68285089727789, -0.5069870679049382, 0.9871033582591842, 0.7168948838405029, -0.13170305541418803, -0.15957416976783878, -0.28101010935165527, -0.7066450736202414, -0.8919549766366663, -0.7247732503262496, -0.482456051415207, 0.7756223500846566, -0.3901420894915486, -0.8922089319194513, -0.4865794847753846, -0.7034175956989583, 0.08772697031552146, 0.22584495211869138, 0.23189740878127685, -0.13446831483057498, -0.8028989556715465, 0.8868789326951136, -0.516013051390307, 0.5739497456163525, -0.4896546494441967, 0.9543287175455366, 0.5600214983272991, 0.08958815061175618, -0.2174225957364755, -0.09645896239765106, -0.8168744394543535, 0.5868698679149689, 0.9139811843868086, -0.5268794105554211, 0.5798087877325193, 0.24934715836718313, -0.26077428031600736, -0.5642702308169145, 0.3418051138976341, 0.9483827633865387, 0.1535880655274815, 0.4623786185265468, 0.3247082632791469, 0.7763643851175102, -0.022943675694864663, 0.9204863757145529, -0.6500861973504404]}, {"b": 0.48358526170676064, "w": [-0.6003683571769989, -0.8619158036726984, -0.1079723182075405, 0.973806720133525, -0.6798785297772707, -0.49919080696244356, -0.8836577186202559, 0.7160544553155925, -0.25453044062601227, -0.8655771887184764, -0.688379088777751, 0.4241759856251275, 0.791470270099423, 0.7719591453919659, -0.5113658514672292, 0.6426545681455575, 0.31764278325580086, 0.5093073421627174, -0.5817715840351698, -0.1512812755163051, 0.45643963341322347, -0.005127928344737631, -0.9234414401026283, 0.08879665079134202, 0.9382752056700709, 0.23456996776888683, 0.3944402305954047, -0.9428042492211404, 0.7477865443279161, 0.983057799388577, -0.3987495351431669, 0.4715809205997441, 0.6281430525946554, -0.0970987009226496, -0.9048810028882746, 0.8146861813864543, 0.8286195962840965, -0.4414294537861425, 0.10373810965678176, -0.9607599413131169, -0.16393952217131358, 0.5907111388972794, -0.26802729535398395, 0.7225868366787613, -0.8251967933472144, -0.5747851121164009, 0.25919975781273874, -0.659887806123584, -0.17440956521928275, 0.6585886629978461, -0.15801280359483738, 0.2863387443049912, -0.7638953088001379, -0.8553278860978544, -0.20701203279853653, -0.40890408421567725, -0.18977804012534794, 0.9569998477374788, 0.23357389200263778, 0.9422616438450198, -0.3419991408480987, -0.6647039584389338, 0.2994960870614485, -0.1307722938646283, 0.25968172152031577, 0.23772119688855908, 0.7874004216922033, -0.6310466506218919, -0.7775618579891697, -0.4522950554950096, 0.3367406415510399, 0.3929775378653919, -0.6279972811843213, 0.3282808401799844, -0.39728638261561877, 0.4642714291611283, -0.6559733620609194, -0.9354865640849026, -0.7424719786513332, -0.695986304778027, 0.8198037240472891, -0.1765013529150461, 0.05492023849117156, -0.2097513403609843, 0.5145594077561377, 0.38643937055052957, 0.3627114719823632, 0.015264231731087596, -0.9542213396566037, 0.8074726980149465, 0.418167437650089, -0.18937738317464858, -0.37368915209776254, 0.23731032125181706, -0.2403895128318585, -0.955596016422334, 0.7938231055107423, 0.5471939564807702, -0.22424409337793283, -0.47799049392214976, 0.5526023031957035, -0.6951853713571192, -0.3916625955621367, 0.8516431183438986, -0.18958639268866273, -0.278227430751, -0.46594470052111636, -0.7658372376133507, 0.4302198233598171, -0.08596825868784808, 0.7969279099918487, -0.33769173396845065, -0.007254765484735692, -0.7987882480138815, 0.3856483545169809, -0.4237018331588023, 0.9415124984210621, -0.9929860530168024, 0.3185612914530538, -0.32956727447767253, -0.1785802989894374]}, {"b": 0.7986917333544195, "w": [0.7801826420663815, 0.6982902174538614, -0.28368981796313486, 0.7576221814920521, -0.2415021286154475, -0.9504713045259054, -0.9939357888936653, 0.8927842825504884, -0.2257297182779332, 0.207288399436941, 0.9175439415986144, -0.16918474713101572, -0.18022056676173448, -0.8298032646280138, -0.6242112805087985, -0.37017766486460313, 0.06756484584259104, 0.852798619779167, -0.26356740270031564, -0.2795484836218789, 0.13482415410727344, -0.6721322090622446, 0.16542994949574097, -0.8464813344307676, -0.5376243801359186, 0.8026394009671267, 0.9737149942496361, -0.43800060672128893, 0.1516235809939932, 0.06772287690970824, -0.5965030860613485, 0.39040520300584736, -0.032459395434585536, 0.1544918989217312, 0.3693045117102909, 0.8085992146851231, 0.7019433776570019, 0.5988136997468045, 0.4492704018108804, 0.7945719431611895, 0.3206096352290264, 0.9848895020249322, -0.7275759618829176, -0.3629004322991112, -0.3430348242604313, -0.8274616658153853, -0.6433562112323774, 0.03781691454063507, -0.7743247227555785, 0.37940386713844143, 0.2815555164957211, 0.5721866873404606, -0.4187968500517163, -0.6221804313888408, -0.408660559361572, 0.9547755634310151, -0.44800221534324125, 0.2174753484373375, -0.9858928442022001, 0.5603069900028528, 0.03967813704369516, 0.5212611245491976, -0.44548920421825233, 0.1312905573010026, 0.2891447527916733, 0.572582706391876, 0.9044751942837053, -0.6075512235567273, 0.04737944829327767, -0.7021877189707431, 0.32909628333948193, -0.2974606332848524, -0.8575320848359094, -0.25523849969077106, 0.15614531547210286, -0.5113513805850016, -0.40255693951717975, -0.5286400205230766, -0.4396420331248969, 0.2604633145763249, 0.25415618429906206, -0.7612030848034019, -0.13732405571965534, 0.041187116468101914, 0.25724546966362327, 0.962096467421788, -0.5986238462855866, 0.8812297387436814, -0.960883721439447, -0.549851929073645, -0.6714845956332294, 0.9078063125949816, 0.37377380882058997, 0.057050263968656534, 0.2349757287926193, -0.6614022901946941, -0.619847939247401, -0.1518259335453218, 0.6838288544791107, 0.9556136969308546, -0.6566378792848064, -0.03382365517923991, -0.2862511711479039, -0.8847327261230409, 0.5273882638892033, 0.3493302596354402, 0.20521872890245896, -0.4081816522159132, 0.9924070534322553, 0.31312291709830853, -0.10071610690815413, 0.4736910339616238, -0.7867505554463363, 0.15759494215954595, 0.25492991705819423, 0.5224497058653967, -0.761048310120328, 0.16240441835906827, 0.21449035231552882, 0.04733455608361847, -0.08539533634524421]}, {"b": -0.8960445521405438, "w": [0.7234777195604827, -0.12752144816622324, 0.8408885753948778, -0.23200472527378868, -0.4885834921911929, 0.28015479659261744, 0.3902315510092962, -0.5733853465528114, -0.6296473993231373, 0.09802546521097377, 0.016724030247889043, 0.5788393074320695, -0.11956049993174145, -0.3501753017117357, -0.5809865461900556, -0.23766592703116562, 0.6427763873826782, 0.25473899597528105, -0.6847831925719514, 0.008084706201253455, -0.4711635362083568, 0.9256024085737682, -0.7368627143659365, -0.39495271727750625, 0.6211153645354432, 0.033070110474875625, 0.4140368398204093, -0.489006512426871, 0.17755767489874752, -0.7880781378300166, 0.18742901515307064, 0.9859787375753932, -0.23185328186153864, -0.8181273224315584, 0.7421159907158652, 0.1377212078744967, -0.9783016435761844, -0.5068247793228053, -0.8408413288224574, -0.8567499456557344, 0.7078333794893883, -0.04854460643658576, -0.28351921435370375, -0.4253465220570358, -0.6017428871691488, 0.34227595361947327, -0.2537817468301775, 0.5691917771411827, 0.20550291243258378, -0.7869126199147489, -0.3675919331491275, -0.016513752542229865, 0.5390203161709981, -0.22064067749335314, 0.9705241948467418, 0.218993087758091, -0.18629512498735035, 0.5021336504181126, 0.883766298186861, 0.7693620274001474, -0.9173487679541867, -0.6711347768368441, 0.6816211871739695, -0.31559611907700935, 0.6440631823187157, 0.08018414283533848, -0.37943296824925743, -0.660410852559518, -0.17978663848611265, -0.27662767082188444, 0.18583377578559368, 0.08455798102178802, -0.5763369838785339, -0.6986239845236595, 0.5923696864755323, 0.059335207549926494, 0.7410915884813949, 0.5393643067497527, -0.8621741597362882, -0.4642526993777767, 0.9262905473766998, -0.22215701056936799, 0.9691945885016706, -0.49980214517269306, 0.2672228862509345, -0.16781897157987968, 0.1480925737896499, -0.9234396550672401, -0.6129839101136592, 0.5255879852296952, 0.085759108617806, -0.5271541131562145, 0.7750022423873806, -0.7541338647588418, 0.4737691404594828, -0.4618172889365495, -0.353682524689652, -0.8366227213211894, 0.06600592144644124, 0.6850476694405778, -0.09724125079077717, 0.7363259977446388, 0.7170030315993559, 0.45639551929395084, 0.680144404496118, 0.3095561582607973, 0.5417026964874858, -0.15755040902660822, -0.35233656399880076, 0.0371861569485199, 0.9135431059901462, 0.7724281767952446, 0.2299796883133569, -0.20006445246406668, -0.35759093485915194, 0.32324218950414796, -0.577923942139438, 0.515160179710233, -0.9672096139325239, -0.11214599401105474, 0.880753282643999]}, {"b": -0.47515242885030995, "w": [0.9050903766277028, 0.34999090933681853, 0.3706716146653397, 0.021497275237206903, 0.5115409272977194, 0.20230585429137582, 0.8525635016068625, -0.8010672947339277, -0.7658946415299139, -0.40647978827894193, 0.8736852646981914, 0.5171037812605659, -0.17875752485193308, -0.3403990155832026, -0.8539531770588076, 0.6622979979334023, 0.8745238558254245, -0.678116894161936, -0.4974672974373824, 0.6238579414546199, -0.6982633189751133, -0.11795875204734685, 0.7718766713115588, 0.14082436063852333, -0.03286621396146594, 0.8373494229164282, 0.2570785956183794, 0.3827038142344241, -0.40583829639710234, 0.6591344500768435, 0.09814016925607283, 0.3023176673720087, 0.9643826487427503, -0.8944020838184947, -0.5611955219438693, -0.28827098602425694, -0.48211920876002057, 0.8063035192477943, 0.8345886906869837, 0.007604525305427323, -0.843567450045573, 0.44491173397528416, -0.2951294203127699, 0.3777397657397905, -0.9675909369911428, -0.47741787998856067, -0.6836193381799807, 0.3514024373490845, -0.34123725851469144, -0.37514850126314436, 0.6246355843385334, -0.3396096657389662, 0.7517901786628236, 0.07831215913813483, 0.44508522226629066, -0.8580963157251713, 0.38769009792420595, 0.8631385415294521, -0.23340700322457342, -0.9351021132103345, -0.5769070078476513, -0.7977366680932223, 0.5891477304394415, 0.6834389477037135, 0.44443200317738496, -0.4608423993834774, 0.2341311404701656, 0.07760264229831759, 0.522700177648395, 0.0831458632576112, -0.2658982638385343, -0.45937309377153746, -0.17726409363323437, 0.3685834353200834, 0.49264736169413204, 0.4997898284869646, -0.6447063097984098, 0.29688199403456594, 0.4397366720338174, -0.9767052755457784, -0.3840950433849146, 0.05744465585892167, 0.30252511401852433, 0.5656125284095592, -0.6433190658024499, -0.8614084614309898, 0.4089137637467217, 0.6137347093186831, 0.2437875727433232, 0.4871712192596922, -0.7672657097018649, 0.47532271421573413, 0.2708325268952063, 0.20134976330126397, -0.8708948023384, -0.2724336624281163, 0.449429808433744, -0.13990434517782013, -0.06375959731165803, 0.4504064572264559, 0.2582783261975856, -0.40229299960824094, -0.7249692690612679, -0.9093027197857504, 0.05552132795272868, 0.2949092948698675, -0.718329645579513, -0.5004618654169422, 0.7283432547824564, 0.9971667728872335, -0.30068280621856536, 0.33985580183441133, -0.13436447902784798, 0.8849223629964642, 0.954276013770063, 0.014001618827103046, 0.7675156444727169, 0.18593766393528122, -0.9092631082244218, 0.984697698529124, 0.8022783833897211]}, {"b": -0.717357094991671, "w": [0.23163767088792708, -0.9790666817271119, 0.27005015819848244, -0.09852428624894194, 0.7644543088034823, 0.9761093926002293, 0.24258872111565077, 0.4313636408485213, 0.6019295218901084, -0.9632545662574259, 0.9946823062970889, 0.6622230104557634, -0.6653492891288957, 0.4099745737431806, 0.5337069754658039, -0.4132744839440734, 0.908611654822564, 0.8909331211304907, -0.2135386882416075, 0.798544163869132, 0.17530319176930576, -0.46676227197592013, 0.0851763722049581, 0.311358780736249, -0.6928735936164461, -0.21505171581673466, 0.04960112544005013, 0.9519655778420872, 0.5570466718792884, -0.12451835583154347, -0.3128256450672071, 0.2180974428584057, -0.1803406476780538, -0.7081960996925856, -0.8927211452919075, -0.7160641557508585, 0.1239373234276615, 0.5041405901948202, 0.6810992138660379, -0.8922968545714787, 0.3521510503199541, -0.522869403308714, 0.5823106690062481, -0.38149711041503354, -0.9826974364108931, -0.1703537134001314, 0.16336492196382246, 0.15993408709984447, 0.732570584996163, -0.4546321688831747, -0.46470407487417353, -0.6972807350034864, -0.8380721268995295, -0.20239151295558422, 0.7489300483071883, 0.43429575269931164, -0.3965993950180946, -0.52493397139845, 0.057160016807880965, 0.8207374606594202, -0.04979555999947993, 0.6851936707794986, 0.6273590469168886, 0.5093234249580108, 0.20115608670536433, 0.7075567872038502, -0.5960924685262448, -0.0296699111660228, 0.03110785934362137, -0.5015646975585835, 0.11512015779937856, -0.3573127229949207, 0.4538890954509618, 0.012023432970144299, 0.174933948388718, 0.9790262740485194, 0.20339620009684922, 0.046469184449066114, -0.8533281937994319, -0.02463455436092854, 0.2187151080438201, -0.4013126217737273, 0.12962316541835817, -0.34164510455084685, 0.22880371354565798, 0.07628925877752701, 0.684828067775185, -0.8155744886181142, 0.7559422052549307, -0.4735458524066656, 0.7052948827854695, 0.3100262344825737, 0.8996977088655129, -0.23211781993625502, -0.9668339565416368, -0.5703192339480463, 0.09106530648334399, 0.6506655655035014, 0.5571056441136486, 0.7920438720145251, 0.31199281227788234, -0.5022304651506762, 0.9423291050164848, 0.6494206288414173, -0.33331310059946784, -0.49157497908825376, 0.6982787208486054, -0.18057275166832865, -0.8942336278335892, -0.36768026690523836, -0.6545761243184802, -0.8538108007937435, -0.9963603042299352, -0.2980080060082466, 0.39781543607599246, -0.055405475727246856, 0.003943657914526888, 0.7375800862201181, -0.05331492604145205, 0.01975537295793517, 0.9359198110209663]}, {"b": -0.8255986316149344, "w": [0.245253324569789, -0.5669302964779748, 0.6469784814954609, -0.8670537935142952, -0.7006000855136101, -0.7219840571987, 0.49396947478464437, 0.9442574341299206, -0.7552264050048572, 0.18871002752459143, -0.4930700708977427, -0.47876222196085716, 0.2071457251911566, 0.241766020899586, 0.7453199891131934, 0.6053672819871272, -0.7825372779541611, -0.10476366088518052, 0.42047129218685075, -0.535055621465607, 0.3038315753994485, 0.36798090792791727, 0.6645212278601085, -0.3372513584618191, -0.4156761115027485, -0.2258478353115292, -0.7558090197253344, -0.5961063896065784, 0.7045362872715786, 0.8062404676708841, 0.09008155727301648, 0.04542426949012368, -0.2505265064698412, -0.17565207617343526, -0.3332586261739581, -0.6857341975775912, -0.05428670328643537, 0.5850807726284353, -0.41246801205473127, -0.3633496161271139, -0.29757014324129893, -0.6243308295313741, 0.6786383834073071, -0.0074932636820208565, 0.11953910409121771, -0.6095751524482824, -0.17180500079644268, 0.9026861547528884, 0.9172370615862919, 0.6261739638691344, -0.29648235298808556, -0.8552055600828634, 0.20394604425225182, 0.8494143838606398, -0.09262597842058384, 0.49017269309045197, -0.9331254736073114, 0.5387556805800999, 0.06803963955711123, -0.8923278772130903, 0.13275281016508478, -0.1609939973608887, 0.8982227166715222, 0.044380274508047934, -0.09230546263277328, -0.43910736920609295, 0.5191317485470344, 0.7893949569977701, 0.5201087687338846, 0.23587674673606673, 0.27309416262804564, 0.07225587034607961, 0.0866753519010437, 0.6962999597407686, -0.9404314886832934, 0.12656005515425228, 0.5256224604594555, 0.7226367373227296, -0.4742375264369365, 0.2589407156236341, 0.7571886622515238, -0.7508670170603906, 0.09381521725003017, 0.5305586716871278, 0.9386325088700673, -0.5018860777719887, 0.6204996448969455, 0.9644851088504911, -0.6173110708984566, 0.1604931498252926, 0.026797432988507897, 0.27942101329191993, -0.7333587958015533, 0.5496021035248189, -0.026519477131795588, -0.2187646704705004, 0.6005035345442229, 0.43924468270160233, 0.35833458425083187, -0.09899383312304688, 0.3568370081077601, 0.7841273163002942, 0.1842638166593049, -0.3994770675989614, 0.6990031813083142, -0.02002565123784672, 0.6560273321409622, -0.9706699231954383, 0.364002260330194, 0.2562507114371222, -0.4639132857958308, -0.6476290758529522, 0.731473669287448, -0.14467815387381577, 0.9017648177977979, -0.7201257179203546, 0.8595779498651752, -0.6857932168524943, -0.9087440891207796, -0.6124300674215617, 0.4524333249122767]}, {"b": 0.7377232318678653, "w": [0.19495698318785637, -0.17361051764809643, 0.025096931862488292, 0.24597430644824825, -0.48178036081324804, 0.7214476987218421, -0.91637664038138, -0.6027026080491997, 0.22349691032353314, 0.2575104409399738, 0.23944730675398507, 0.13570055007840653, -0.4421753022118502, -0.9985217894377345, -0.7732196253516932, 0.48311182831958877, 0.7784761052064548, -0.7275578704573149, 0.6657026443535934, -0.4015097663032021, 0.1904607649154677, -0.3713678668086342, 0.7192939207809965, 0.009957695847294001, 0.4544537164813949, -0.2863216119994796, 0.5360092322992478, -0.20584779575402457, -0.7154323063876804, -0.6943526236455, -0.6031469673746457, 0.12264649475930489, -0.9041214710763876, -0.5071559607314915, -0.231750454097841, -0.39866634426659453, 0.013524474328133751, -0.06522283159004294, -0.6592410077797297, -0.15784425562746396, 0.16869048950954735, 0.8272514360164207, -0.6619417410894124, -0.8012094902613556, 0.24169832959815296, -0.1617358461998184, 0.05104103755553946, -0.3598793950073824, 0.900588706066006, 0.3674588139437942, -0.13578230303388295, -0.771513077658387, 0.3189494282497283, 0.7600583686301126, -0.16084404570152255, -0.14033501544306848, -0.6554221541277196, -0.749616935702115, -0.21507213674086767, -0.9557392147954, -0.5533937642678806, -0.5845944402054057, 0.1433534912778962, 0.6671634872401224, -0.42621009211417427, 0.2426766677365284, 0.6276107722589981, -0.8273445143092131, 0.7464225949501586, 0.19953751559973631, -0.27007775288258506, -0.41039281786081494, -0.2962247230146986, 0.31968787820838296, 0.14269514313543752, 0.6472018021888761, 0.48389249371123455, -0.9033160044863864, -0.1127471662639512, -0.7378365777051488, 0.8219760217324303, 0.4568222454729003, -0.799318447850262, -0.35995481167338106, 0.4426841853041281, 0.3272082136185275, 0.9829065797221992, 0.5957496987522255, -0.6175316701367088, -0.9744726236979073, -0.365428927067194, -0.6334777485770728, 0.6224520986852842, -0.4534300139003302, 0.49131934207973527, -0.5387326795996721, 0.8408228824383681, -0.9274457810166381, -0.6840329310293838, 0.9712479985775786, -0.09402789152278368, -0.5207620524648677, -0.6948179635516896, 0.6034223449157434, -0.8393755793393085, 0.2483311275691813, -0.0894969706938924, 0.36434351157540634, -0.04293432929386998, 0.05479344518237772, -0.4986713674614556, 0.8593710917739523, 0.24309186264055005, -0.7574065952579461, 0.9715002630701397, 0.6396324087110594, 0.7003336628601098, 0.9780359708511155, 0.019375079540167928, 0.676613675570142, -0.9549822253409899]}, {"b": 0.8656692993632533, "w": [-0.29193097999745876, 0.9936671570937212, 0.1099742797648322, 0.8598815767815529, 0.24995389804652102, 0.8980051191717986, 0.5486937258045887, 0.8659712222970173, -0.9810100074402537, -0.9015131874002338, -0.8692996269630566, -0.9178257617950147, -0.16868449420383347, -0.5869049426439981, -0.8627658185545597, -0.16923070080531155, -0.7379331645644884, 0.8314154336727935, -0.9669957127393043, -0.9190440858536797, -0.5926425220297613, -0.33242806306424466, -0.7667993833424509, -0.08055532393611808, 0.5836836378514831, 0.7215558414035657, -0.4488354784154167, -0.4375717663523355, -0.10506771053002639, 0.00977372777194252, -0.8735318289424039, 0.037307467673221906, 0.6098965113331258, -0.03598667530557598, 0.4863909674093725, 0.0006076667424217419, 0.8064838162224328, -0.856255441101569, -0.9980903004405552, -0.9397185621422823, 0.09662003225430049, -0.5207060616271315, 0.6546607374244684, -0.8411279481323293, -0.14976855824186752, -0.5835363204571073, 0.5564223303279809, -0.3933073514411507, -0.49003904762642736, -0.3800961684779949, -0.7974082960827478, 0.5978443530443445, 0.9511888533699677, 0.5372919046609579, -0.09327601497122795, 0.6618425558732755, 0.6940632347672797, -0.4329208734651242, -0.2822617988388836, -0.6223465377069353, 0.7686036508083469, 0.4205031277709441, -0.5417741943506258, 0.010914588101898381, 0.7407269719456229, 0.0667456081926856, -0.5726811809524979, -0.7411979069482402, -0.5666517863191274, 0.9100665074176995, -0.5245470454504448, 0.6371734117174697, -0.6229009989257455, -0.9415442998957773, 0.09378145436526153, 0.9546041119129165, 0.5606090722781991, 0.7357828492157052, 0.0356755264704689, -0.09510411866209156, -0.09703163949297444, -0.059162158436038226, 0.47415303969142397, -0.5140467379417397, 0.7457269188822295, -0.9313051278132183, 0.2452887611249126, -0.8826292998812375, 0.7795673958389491, 0.898237012660992, -0.8631199742554296, 0.15179404255443063, -0.321260989018894, 0.32888472802902347, -0.3697178793369158, -0.15980973019504652, -0.20978754181107284, -0.2053182813863228, -0.9974010435305387, -0.5804922457470603, 0.5654903344936875, 0.7760196236330532, 0.5627131729620269, -0.061100822233103536, 0.6461455606565278, -0.5614036331562424, -0.12462833988992728, 0.03244564338022515, -0.4324935174323472, 0.09935464841370556, -0.8668145867655304, 0.5139979652602451, -0.7578174451420729, -0.41031555273500353, 0.7468354504012658, 0.13235145862498343, 0.9241117894821682, -0.04859959285482329, -0.9801097745491465, 0.2538659417978606, 0.9620584846755769]}, {"b": 0.8901298064621275, "w": [0.2350862675174079, -0.32953687485318905, 0.4203352576312116, -0.9740116615418208, 0.7533340139965123, -0.828185390325352, 0.7003710923077939, 0.4244947158984955, 0.5532562664365617, -0.37905091017746106, -0.6775465455330716, -0.5113743857914281, 0.7837331610452225, 0.6316179236013217, -0.9636027770522031, -0.3831508395938723, -0.37060343240649307, -0.394159969744897, 0.831321689683949, 0.123886494616533, -0.36061429693414015, 0.28140896408273086, -0.3312039474091788, 0.7448761434770415, 0.74612096304338, -0.43889576135983477, 0.561456559737868, -0.3012324987481534, 0.6140678591229791, -0.18296981942234436, -0.8595857382615464, -0.5746474218873956, -0.7671997494514211, 0.49535734107608476, -0.7189790319115485, -0.6738565831396879, 0.5044730594642068, -0.5351778252510822, -0.8646520302245151, 0.5293393551247965, -0.6907310756597405, 0.3503622345777473, 0.6309287969209438, -0.6934198569362515, -0.8518325309708088, 0.29359368558356036, -0.31656947939578006, 0.8301078752931195, 0.5288001994219604, 0.4478701318777858, -0.5213140703769248, -0.7154962424894167, 0.8664363291190489, 0.8701254872570514, 0.13996083530342807, -0.48054854314636253, 0.6761508847912825, 0.2592060767662281, -0.8073933326494709, 0.2769747211033011, -0.04587542837734215, -0.21506156805639765, -0.4467781596815026, -0.9117784264202309, 0.22251307212985805, -0.2902727122123452, 0.3188604703701763, 0.4231569585239823, 0.9995805501328219, 0.40596899013072973, 0.5769841210534798, 0.6588718522133887, -0.5194252603396943, 0.5408738166628815, 0.7812729800818121, 0.3265308155841129, -0.3691149746455893, 0.49188603109112194, 0.722080231322588, -0.6380693638687198, 0.47568499420406174, 0.33221285710901194, 0.6835649155319732, 0.7793233072699575, -0.24196512080258614, 0.21471525286833004, 0.010112516214828338, 0.5451312036771383, -0.022570141623383, -0.5655123187475437, 0.3977384471108605, -0.11147180131499224, 0.7326944543495437, 0.21750432554656385, -0.7686915154390783, -0.10084423720751712, 0.8275169734225012, -0.7615453144445565, 0.38543349923249437, 0.46580540905729784, -0.4354696321992293, -0.23662484374695114, 0.6300697246160307, 0.5189043771379251, -0.5251981359149522, 0.674555824227923, -0.3369015357595935, 0.31941849821170476, -0.26200686451410915, -0.7367118789804912, 0.6034363240709162, 0.6367860183843574, -0.21868069785187472, -0.9683469999463035, 0.5660827589268376, 0.7025667764472934, -0.17238351240117855, 0.2533966627012727, 0.8465794499669619, 0.32911226898821755, 0.248259460770766]}, {"b": -0.6296437591052482, "w": [-0.15458044633222756, -0.9162045762856028, 0.9893466448890162, -0.8849627515043015, 0.8138183692530236, -0.12402583661531486, 0.04416873141230693, -0.7365014259314921, 0.5042870826123416, -0.718420580930083, 0.2785863344909929, -0.09839835448845857, 0.7112416737863088, -0.4175466418759106, -0.4583308889915205, 0.8740266673867496, -0.17999621253045972, -0.8417783187696868, 0.5815590182896098, -0.007356968997634716, -0.8741662388474307, -0.34217348350932375, -0.9066149611741396, -0.3626265183323585, 0.2026997938561914, -0.34905827558725, -0.024075142031557473, -0.38549139132993004, 0.6526125388069488, 0.017963740021061936, -0.23118024151343053, -0.5784110837968353, 0.8086976550149707, 0.6738547674285245, 0.18170740512919514, 0.4960539532424628, 0.8899337165279844, -0.9670861285561034, -0.5209065852011334, -0.8947040935360377, 0.6327075124034138, -0.16372182945042346, -0.8142516480485298, -0.1367343364998812, 0.39180856699722577, 0.03668410534974087, -0.09587169828619535, 0.17091449916410117, -0.511898379609937, 0.9190237991615469, -0.3546671458902615, 0.21390823854128227, 0.8995733670298987, 0.794500955037279, 0.28393420157621274, 0.19390658866023025, -0.5941046581201384, -0.6499245749645219, -0.3702020691425352, 0.6120208804997922, 0.027522696463027074, -0.11616927263495436, 0.987727968097653, 0.9644356499343085, 0.4586657674905448, -0.6294767254270062, -0.5641232037070587, 0.8892068159443489, -0.14382464272113582, -0.6497360686331004, -0.7178200618315773, 0.8287877488235498, 0.1367210869525597, 0.8235768169153468, 0.3439205786260604, 0.7885224729294651, -0.04442023317408217, 0.9914380996380052, 0.13790359608902003, 0.6996781358596675, 0.12387853155968798, 0.9902159746270613, 0.947803908416726, 0.22731381744640466, -0.7620184361979079, -0.44619101217689994, 0.9550813441863935, -0.8072977457628956, -0.410430271898212, -0.18999451190008254, -0.23939090253691786, 0.1728786125793047, 0.5165451736146198, -0.09025564129327956, 0.6464455538199694, -0.721315732365533, -0.811395599928789, 0.4466304162948045, 0.6015485975443637, 0.4365655764680858, 0.8152305889488363, -0.1124980321239859, -0.8900933642098356, 0.7740720524954947, 0.10177629596972615, -0.8231509367642673, 0.6333471874649967, 0.4231432917057567, 0.48780116301461773, 0.6555221957359096, -0.8799263106768982, 0.02884667410938402, 0.012224142595504306, -0.5874040348309206, 0.7994580147065771, 0.7343830012475936, 0.5317272724639708, -0.6778314454465382, -0.08606341243902094, -0.2070942006668619, 0.13078129219023427]}, {"b": 0.1658303690205889, "w": [0.393278842058733, -0.6250143161652768, 0.702064109840786, -0.34938451160017303, -0.2541820522914484, 0.08982774931751458, -0.31329745128512076, 0.7780070599677285, -0.208190280609043, 0.40799726384587176, -0.42443878069351726, -0.6219975220219094, -0.3498411471883516, -0.05976075254912572, 0.17911142499074773, -0.2673018739809616, 0.11352977561142508, 0.7428200960164177, -0.4787016041373948, -0.6136206490166565, -0.12130591827923909, -0.47816408803442845, -0.36597800766366984, -0.40143406600730125, 0.8856564187099889, -0.31687575012422475, -0.7325080203685232, 0.4813844209834419, 0.8874154965025207, -0.9797071067298346, 0.16650278833336407, 0.44077932688597343, 0.2664063722249581, 0.9735903936623318, -0.4101405029560161, -0.6560845708559919, 0.2509903650295586, -0.16094111436167524, 0.049230949509669664, -0.806672671139095, -0.5998460118427971, 0.7966854659055063, -0.6286593696894878, -0.9012635430367766, 0.37444863686111973, -0.8789800273773629, 0.6149861594553534, -0.2290462035512626, 0.08703500672549414, 0.42090586600683255, -0.9093073709525721, 0.9627211386406245, -0.468334759915245, -0.009002012897581402, 0.9471954334506978, 0.14032627086988847, -0.7599270069332116, -0.7035907911943782, 0.26120810998315225, -0.7244378291390754, 0.4116816846867697, -0.18668685387241357, -0.4809688263327647, 0.018355446563887323, -0.28769085305631337, 0.5769631650040667, -0.24318774044357938, -0.07132267647742019, -0.08571639406764486, -0.4574435875207956, 0.6852506490919412, 0.10460501562714808, -0.8185928398050597, 0.6023203270935227, -0.9946550763415956, -0.7121309045444815, 0.6831053650778238, 0.5806797765608684, -0.09081533338733538, 0.19035987097680862, -0.7244608694428869, 0.22445541116178958, 0.14743002535630279, -0.6263660715850754, -0.6388497726905715, 0.2866430143637724, -0.5691005627547541, -0.6666223890768233, 0.7235978533133212, 0.37755803142610866, 0.2916795274413637, -0.7118108620704253, -0.41146891563817234, -0.27249543059420933, 0.7649974551818821, -0.8329225030922585, 0.7121188904060041, 0.5116190072496876, 0.8547320043287554, 0.6919637598893993, -0.9507524738275381, -0.8974323532810264, 0.603173022732153, 0.40613187606905554, 0.42340141412673127, -0.36404253730456926, 0.5040891105341301, -0.1246306041786076, 0.8309021548789586, -0.10346210988255544, 0.19702773619982072, 0.1294026922629472, 0.47264957138670916, -0.8610511586898162, 0.4261646736375224, 0.8060220815149184, -0.4731082633208863, 0.046198635580769976, 0.6291585689802355, 0.7194368423251105, 0.1432669395624746]}, {"b": 0.2156053193981482, "w": [0.4191209073009341, 0.6285339514959409, -0.6425537631015668, 0.7712605084585442, -0.3277069088909148, 0.8653335036167442, 0.19251543139542737, -0.4725244350931106, -0.524178377766279, 0.7590808516725367, 0.23647337408306912, 0.12074822174529976, -0.6896633893101256, 0.3478552516473865, 0.015348078226453898, 0.7616320867198545, 0.6107658750278588, -0.08522100558922796, -0.27304647466376664, 0.8378148653469342, 0.4774787805955123, 0.3087561593481587, -0.741795596215362, 0.9008314733930227, -0.3341909755447907, 0.3838599773449969, -0.42708739373438, -0.7648153380372118, -0.6688285632777944, -0.9108537709863378, -0.49093017944429107, 0.35556924044645855, -0.48950066895534006, -0.592985448192028, -0.30688651801272915, 0.8663308303645729, 0.6905447661338138, 0.8012317734950654, 0.6643181660799697, 0.16962392938137838, 0.81764779697191, -0.8244541276201087, -0.14310673109132677, 0.25806606126656106, 0.604988718362327, -0.9996380047630449, 0.13531181728489905, -0.27008347097630026, 0.964949105537531, 0.9233484721731597, 0.42341974826676987, 0.06731492179581844, -0.9015272740402374, 0.006175950411016595, -0.08841509378481649, -0.3292398165635828, -0.9506669399945575, 0.3781178955325639, 0.41975770561570513, 0.6252177211084138, -0.28286902094510635, -0.6381994588505244, 0.0528308702268383, -0.5094762404220476, 0.2873429500783262, 0.8221002462072629, -0.23325550611285717, 0.5158052227470429, 0.4328128198236638, 0.533112707689418, -0.47609889454670995, 0.4032337401628121, 0.006446464006033992, 0.3737448921795534, 0.8488466732834834, -0.4711976452023967, 0.3132549478616138, 0.31529677015243585, 0.30241705161431764, 0.6058107361418628, 0.9739781454034999, -0.4809337312561932, -0.49995081704228395, 0.4981593543841323, -0.1019401762612997, -0.2927785474124587, -0.1982867110304436, 0.4766833162388615, 0.724109332710688, -0.2339614976247486, -0.6821065350605442, 0.7384251621009115, 0.9648821760487336, -0.8396177755436376, 0.9800471431405839, 0.626523887851526, -0.5218613824536416, -0.19412439971235007, -0.4569160244648527, -0.5540982644434203, 0.28003963886058614, 0.10226396562716644, -0.9549722533103029, 0.6948698712882488, -0.5550680858141921, 0.6421446176804757, -0.7689226145784394, -0.1773768883082525, 0.9426730627267765, -0.44953785283555026, -0.2094503899342075, 0.8604821853282567, 0.4607435439632468, 0.8012010095085491, 0.9061385901358383, -0.30311881113432704, -0.8926803692917615, 0.6527887216279891, -0.4308911184890729, 0.7462703449871826, 0.7509141683057314]}, {"b": 0.7769710337241393, "w": [-0.5366157904219457, 0.8952241285982723, 0.015301971577137419, -0.9128087088080334, -0.15031685729675393, -0.8797939223636768, 0.3403840682576109, -0.1704270394495655, 0.24872714140079122, 0.8145960123941598, -0.6605002579214359, 0.1226588286799144, 0.836446350168206, -0.030184517098931885, 0.842734453688774, -0.8309986139113086, -0.4934484712070959, 0.35090084153293133, -0.6501592625057946, -0.20949746732510555, 0.08778407686600675, 0.0845265192389495, 0.7422984771347032, -0.5818429904500466, -0.04034756394023087, 0.20137642941614242, 0.549214269584485, 0.8285533156117015, 0.5964343567924277, 0.6993097694257897, -0.15857739807034954, -0.6755273094577652, 