[[[{"b": 0.17907212228164474, "w": [-0.1208338723116098, 0.6613364193986693, -0.1243112872897627, 0.6898284415817335, -0.19334988447041468, -0.3276870716772946, -0.11964167638778522, -0.6325639642132721, 0.5080396744199001, 0.2801274587519651, 0.7302268577387345, 0.6178732619679526, -0.8267469317373546, 0.7488720989590678, -0.7660140498917618, -0.5376057678463204, 0.35962164020377485, 0.8165501434436633, -0.4099827972160017, -0.046383480086274353, 0.2627332624808334, -0.3625797108395764, 0.9622362515859975, 0.22104988336890652, 0.2551400234282817, -0.7707382354995351, 0.017614300447255538, -0.6234080534223241, -0.945072787214793, -0.7258562419117365, 0.6852561492144342, -0.0772766222376915, 0.5208659350084506, 0.6265127561269819, 0.17859071972924967, -0.849074134739215, 0.4492102872996626, 0.6155292786245048, -0.8937364525793132, 0.7619112651221485, 0.4586863182089493, 0.7700166908644062, 0.34503365802042474, -0.384163801226618, 0.7345933193066245, 0.21005048352225364, 0.6784386241659617, 0.019379091671738822, -0.011919911929334726, -0.3964709868049403, -0.09382682433988232, 0.9035892997517048, 0.13023909286638413, -0.07437098739729953, -0.971437825561398, 0.30001292266335855, -0.06977542527907148, 0.48028813651918356, -0.11248284772996575, -0.9810230151787296, -0.07070300161537628, -0.478088194359235, -0.14476227875927727, 0.8924623897769959, 0.9198263533604012, 0.876099214083123, -0.4034168127213065, -0.5098096754376462, 0.1895821487363758, -0.3558499629507501, -0.48395357744670386, 0.8342942722552487, -0.09022304462997677, -0.8629071614994988, -0.5139518239900258, 0.05766409853576393, -0.10701105492327392, -0.5132904604134403, 0.38045599721225987, -0.6070542612022931, -0.677744164431191, 0.1469044488544775, 0.6127342025322247, -0.5338389860410717, -0.5507415244419666, -0.0968339129072171, -0.04315861353111735, 0.471607431131678, 0.9036483577072785, -0.5068682467443681, -0.5728540556537496, -0.6607015688396127, 0.44464111797535977, -0.9520516359748419, 0.9538922290182239, -0.13931172102028522, 0.44945574490417917, -0.2571454446565138, 0.04554164197046995, -0.6616038355332159, 0.5445948428763767, 0.8328119451315934, 0.8950671319330343, -0.6535418700022884, -0.23048764246432452, 0.37065267918035794, 0.7236688583012296, -0.17765232003293363, -0.5488764045422965, 0.6154549377256147, 0.5145086255529656, 0.9163683480396567, 0.9752023064671476, 0.19141334639289798, -0.2582846009240651, 0.9869891234277735, -0.2565995383647486, 0.5489598386823946, 0.06989347556591005, -0.33150689777619435, -0.5133190517547779]}, {"b": 0.3828461204718426, "w": [0.609714226971136, 0.1809427041613314, 0.7500680041569809, -0.6001299148299191, -0.07076406736471319, 0.057889040192758846, 0.04782278175503185, -0.5821940985081606, -0.3245677342723959, 0.18972588496910947, -0.505050678109707, 0.04532932808970358, -0.6306341933583117, 0.611180021428436, -0.14141435872567376, -0.44292565631264624, 0.38493293803855466, 0.10341302500616956, 0.487422579653098, 0.6213286728120694, 0.943541523394634, 0.2405956085212786, 0.7311978743188798, 0.061038797021954805, 0.5039362135461067, -0.15564322782646745, 0.5459508276792662, 0.20532106889964385, -0.14371511473457804, 0.5168338066068453, -0.13184254129560657, 0.6350449148254218, -0.5459779304177947, -0.7028983406175247, 0.5713950555692089, 0.6236524781068208, 0.8689333191703292, 0.4165589969107717, -0.8188552334628281, -0.08481217866177015, 0.23449873439545987, 0.5594748487734644, -0.41813919371062114, -0.9202474045322209, 0.30839993078477446, -0.7066430828930277, -0.23997594996429727, -0.7058060628146965, 0.07389929497056102, 0.5355066237101482, -0.10376924062558546, -0.8379733952767259, -0.6416662488966618, 0.5465331920463876, -0.9317696351416467, -0.8156585409261954, -0.043933984779729096, 0.38469380464645986, 0.4459035721848059, 0.9317051473209486, -0.5758802511149219, -0.8891276412329772, 0.3793592837492388, -0.880193516248198, 0.9451197949400225, -0.5618287473699599, 0.760483089848436, 0.480414667191732, -0.9530923200201695, 0.1878255702948588, 0.41226963356321145, 0.3771296638003341, 0.676818539878721, -0.6720689569501914, 0.160520704375643, -0.19385336105770534, -0.9183506988111172, -0.4934356983337418, -0.3459432904072557, 0.1481954867535593, 0.747346862819561, 0.8735190593163833, 0.8767345569304374, 0.40570900448197644, -0.8321590623460797, -0.7425445410563298, -0.6397572412777726, -0.15565707325379763, -0.38414113814733475, 0.42317979641075176, 0.45858063902626056, -0.31916985747391624, -0.36259493583304647, 0.9027311750089306, -0.015159996660471409, 0.8159633048001085, 0.4412540557338682, -0.9945513049894898, 0.327086983442642, -0.05121774573488724, -0.5073061157462222, -0.07332618963200521, -0.2102760442293996, -0.028072045383239753, -0.9310659384167945, -0.04573046750272325, 0.4448306618822164, 0.430200202130516, -0.030776609023854373, 0.0012855895856709741, -0.13823966064103668, 0.7239170198174165, 0.7462940927291992, 0.9167138161566621, -0.7724956628995772, -0.8545489235755346, 0.7361496536169279, 0.8266621211745242, -0.6137842013128858, -0.7539657670408888, 0.11375547455667867]}, {"b": -0.42004727559747335, "w": [-0.5997408029312292, 0.9287949306802057, 0.4670041677509422, 0.8264455109574742, 0.7095915820499523, -0.9449492306571896, -0.9176432893036546, -0.4181570926780507, -0.28980869439508417, -0.6804091005116546, -0.006655214143993948, -0.08916367828384586, 0.8118030891630563, 0.22057564433810883, -0.5745805002257809, 0.5232153056366036, 0.11979374477966775, -0.5574315727115391, -0.3463902022761065, -0.02711937590334723, -0.8779764646218464, 0.09223285638660106, -0.8866312087635275, 0.3365034399908897, 0.03047913592605589, -0.410719844335965, 0.9225569429652056, 0.7198564931566529, 0.632118469001385, 0.3628656892124784, -0.09680030585088972, -0.5036291824511065, -0.7219592965233046, -0.580288344358048, 0.4526992680970072, 0.2880322144250236, -0.943611640672058, -0.8788307908011805, 0.9135659210264864, 0.8196751012551673, -0.4841159034254423, -0.2622997250501027, 0.99459777539099, 0.4233420880557306, 0.31589598478666914, 0.003196941077569404, 0.6763534753061244, 0.4155672059373319, -0.06483588682476626, 0.4827822657306864, -0.8803385918059017, -0.7915573487355476, -0.20019641033483637, 0.7743676983900154, -0.0014151038813030592, 0.5851069613626523, 0.8306021936629298, 0.3784672438301957, 0.5973355624175571, -0.14076353739553804, -0.4534448271018279, 0.4977086027820057, 0.352787358168246, -0.5890309828300877, -0.6962972593278833, -0.13733833407524587, -0.8805405797133607, -0.44869486649716883, 0.7652114295619532, -0.531738913402696, 0.18178974111194668, -0.0003868245490691821, -0.9347898840239883, -0.6897687241134705, 0.48863389425610904, 0.7539591507393912, 0.31191585245419007, 0.14244892665528153, 0.6319449075552332, 0.5970955209958515, -0.6492303506522252, -0.7316005990961751, 0.18173687465627708, 0.7830368656620488, 0.0061095169187203695, -0.00677567374108512, -0.6030501540611988, 0.02721056770212882, -0.6377213498199132, -0.4682267967825082, -0.14155599171705835, 0.45845350511280425, -0.12369012165231917, -0.2658190457844587, -0.7997890268376429, -0.8889951174786466, 0.36621282624899254, 0.24518109692251433, 0.7607943466346749, 0.13710716451384308, 0.46193014701296686, 0.7936652395450119, -0.9307095486341701, 0.3014034325723172, 0.6226501987832134, -0.49893677282586957, -0.6120913370024552, 0.9420256900712549, -0.8021195829683634, 0.6531697484096262, -0.5683128556937076, -0.2550102881687404, 0.12099853260174398, -0.07599623090820806, -0.16327872816681932, 0.8397052387440611, -0.26263931388524764, 0.19671713196477203, -0.420054099242261, 0.8493957417841442, 0.06431860091859987]}, {"b": -0.3182994962946182, "w": [-0.8330240425609179, 0.6721975270222111, 0.6728793239853266, -0.3506349702785765, -0.9735312128589471, 0.6185234767343188, 0.5115182016397533, 0.060961620239214254, -0.022152618429276082, 0.9931063817117949, -0.199409921856329, -0.408629418670323, -0.9478844490125857, -0.1903552720216471, 0.8205618171463644, 0.2511579158441901, 0.8570997723215092, -0.24351064042007767, 0.8145308889221559, 0.2570706498973556, 0.052195963597103455, -0.021454615910355024, 0.22611643261534953, -0.12031113092146992, -0.25510204752826726, -0.17055830051976728, -0.38859577823036573, -0.9302878217548869, -0.7673879877140981, 0.053701534493570735, 0.055535906902906884, 0.9371067119836003, -0.3538067857152898, -0.6911484216546055, 0.1741081595448084, -0.605818457419881, -0.4233545369282814, -0.37825719793098456, -0.6403192015951309, -0.8852210714721325, -0.08429323654119142, -0.8686957466712124, 0.5268980850850915, 0.3065116868053996, 0.48432157836829437, 0.667204763905179, 0.8877949227240189, -0.8083163610683628, 0.7354553350605366, 0.17628999156880054, 0.9666649732962025, 0.34649993628905806, 0.9510854142563467, 0.4480869667405998, 0.016319250253286954, -0.48635416019985866, -0.24223709541256588, 0.6766641059835061, 0.6204552289934808, 0.9336691891709576, 0.4837026594939824, -0.9243319114027264, -0.23357409090973014, -0.5221439187149193, 0.08032849685698995, -0.9668667024167987, 0.21975184515808568, -0.017490317852106863, 0.8905124499714161, 0.5398368314795795, 0.7708607981933296, -0.10870081638941587, 0.43628609488030845, -0.5173060889274552, -0.16290399592119198, -0.6291766591512233, -0.9185426115704636, -0.8310575560434537, -0.6368067107820639, 0.2686852741318966, -0.006236423256733126, -0.16924036867652537, 0.26574806567631226, -0.4706130064481979, 0.6458164914177862, 0.48710451738697436, 0.28398720733848326, 0.3749914079781975, -0.5423079881725552, -0.6213452740057999, 0.979038963292383, 0.1852329847084475, -0.25865983501799916, 0.2896481162661171, -0.7965994948105171, 0.8719649835960357, 0.5756917877135752, 0.18524222563770654, 0.8572944867742254, 0.03005726824311582, -0.3062499637116367, -0.6745067174726316, 0.3218657863224397, 0.21930852679832413, -0.5034300645461187, -0.4227269742057551, -0.40113218692481567, -0.4017999887083359, 0.08827863629913665, 0.46384207899042407, -0.38594313536717817, -0.2713040095015188, 0.7330830432457203, 0.3410815733847694, 0.424667029987565, -0.9987113515621167, -0.37581081318176124, -0.599421930104737, 0.0848799189269307, -0.5449298598445331, -0.0018167650278204171]}, {"b": -0.1089707317978108, "w": [-0.49258134911859686, -0.7020871717390342, -0.732439476199821, 0.23900243594385717, 0.8110250402262424, 0.9487970055592339, 0.516442953156921, 0.5830746194799852, -0.8465840835631289, 0.39524605824481074, 0.6179190540123585, -0.7827875055122093, 0.16929533705192878, 0.053456883511990405, 0.6907962442264948, 0.6818289367586636, -0.1741034348873804, 0.4649939347613721, -0.304275027449076, -0.8613687154414198, -0.047162783103120276, 0.2644018168402913, -0.41441668947894184, 0.6223563875250466, 0.10973216402557928, -0.07644442902444348, -0.7999675549489058, -0.6738075415339033, 0.74434040461917, -0.8100183191167922, -0.3421707188455916, 0.714313128206701, 0.15793374681622208, 0.2894815510558255, 1.0324435115800552e-05, -0.3465590176998754, -0.5492173905839799, 0.738791855647708, 0.23023661823376895, 0.39346354032605, -0.780414867208276, 0.17844118745504267, 0.4507108546291916, -0.8915555219625957, 0.7678726457564609, -0.9152995315485877, -0.7270185860928091, -0.32956105373615996, -0.5994883913553855, -0.08027414415349132, -0.10542483275369396, 0.761442997441246, 0.37377596924033263, 0.5458635507372631, -0.5945383407562087, -0.44604561098230255, -0.517335286197317, -0.1554136354080906, 0.0793172484781759, 0.7000842934796718, -0.30904824529496966, -0.27399380957684083, 0.8054460074048824, -0.29201631418771434, 0.6114513519948788, 0.43638331972625494, 0.7244539593016943, -0.6979024013131337, 0.43915056463746915, -0.7850550217398453, -0.45029386527730414, 0.09125015206354603, 0.20116458986746077, 0.13331528561616213, 0.23959075126275886, -0.0704208134995743, 0.9645183778956181, 0.45410369856167576, -0.12107002462335048, 0.2255367767492733, 0.12582482124538674, -0.2794502273497448, 0.03013069647507968, 0.6438706840460644, 0.2512588834030547, -0.48496600189740424, -0.3713986299404519, -0.14288895792619138, -0.07909066513163476, -0.26522414558471885, -0.1128529447784659, -0.5582577445273023, 0.05312277114135333, 0.3904210469461422, 0.7102469228003023, 0.2229284077369844, 0.8395914672634133, 0.19169330429568832, -0.32411959773792176, -0.9705138446390225, 0.31092090339427414, 0.9998413584715553, -0.2818553216611206, -0.2609032179146673, -0.27479266132382474, 0.7733429166282917, 0.6434856587173221, -0.9974382016148831, 0.1457487994562663, -0.5336588742241521, 0.5781660373546882, 0.8470781935784459, 0.053812991412309774, 0.5924795417597559, -0.44358031460266645, -0.6802243357111875, 0.8868423811567467, 0.8272114166404778, -0.23410311762467906, 0.6437662817653078, -0.7662097349045551]}, {"b": -0.8283787923180443, "w": [-0.8539911747354751, 0.5889982668421403, -0.4223510413154121, 0.7202711168526323, 0.3842085022751922, 0.5556408318663033, 0.28553727402313145, -0.6499605471049843, -0.7260148256713774, -0.09624430492421765, -0.058240440529154114, -0.8642553998248634, 0.27645822541196474, -0.6665636390711431, -0.3789945792211717, 0.32495620287454385, 0.5499070514313915, 0.30146129896720786, 0.7148572408648508, -0.34209328549101503, 0.7782309937651961, -0.5611766015799098, -0.244329890649297, -0.08967934806492694, -0.05916394403861691, -0.533879978149056, -0.6059438118244389, 0.696439857469892, 0.4658739374067302, 0.5785744121566312, -0.9350342825343627, -0.5607998206222913, 0.6815972899594467, -0.37460777962526026, 0.9889355617652364, -0.35677437515176247, -0.09922464029886946, 0.9685039455742601, -0.39013750952506954, -0.7666187389581132, -0.3363794920117755, -0.13762608556655653, -0.7789284265867655, -0.06461184801411579, 0.5224789047286198, 0.9927585126196328, 0.5632767740075486, 0.3981202411185707, -0.8173709400855906, -0.26985330099819227, -0.9763140175614315, -0.4336672848770162, -0.13267189369532972, -0.04002862836081489, -0.2007170396464819, 0.33945292836060853, -0.3891695454810793, -0.36552116203422136, -0.01742441721304153, 0.840261805226042, -0.09094419604066117, -0.2812434067963878, 0.8953997166388024, -0.5346783335913312, 0.4616029192290654, 0.6291775144037905, 0.4955764908028965, 0.3968322928479253, 0.2922653987215593, -0.3087470271995685, 0.8560344699575104, -0.05319842917952622, -0.7799220272976339, -0.9451008987265932, 0.5272991781159111, -0.21474438889833336, 0.4942103286375863, 0.7633116709322822, 0.4961475267761435, 0.035513708111066355, 0.6688415154213159, 0.3736925673548135, -0.6093427592138512, 0.7065821853998147, -0.9206815000986777, 0.262282810438903, 0.005473404446909802, 0.9607971994248794, 0.24732997722332017, 0.5809094944531725, -0.5627453595419369, -0.9080450943405012, -0.7310016031295703, 0.8009597855501307, 0.22931571336063628, -0.2010701085457296, -0.1263070542198257, 0.733252538657925, -0.6867185712992907, 0.6024186085557133, 0.2133042565534944, 0.7887419908479223, -0.7601149361062549, 0.3008814640091795, 0.44503551998186536, 0.880675632943384, 0.5000474743343966, 0.37294600180943394, -0.5230475447167884, -0.17623581243452202, 0.15304006684561777, -0.050987617793229544, 0.5652507335953203, 0.23161143253207603, 0.44465796575762445, -0.6056546125474644, 0.8492256091443038, 0.8617626670195289, -0.06704291725756395, 0.6296061214304689, 0.15349454718109934]}, {"b": -0.17375666201007056, "w": [-0.5557852461199424, -0.6072819526505706, -0.9026988429744569, 0.6079635830111698, -0.8091320084320259, 0.27345697751773046, -0.9805640670375608, -0.8628505152601458, -0.2084016407774092, 0.12344560764766022, 0.35381639025918044, -0.9257972396347802, 0.22080773238832418, 0.2024091128196972, -0.4135102711056622, 0.09676305352350911, 0.11299553964884712, -0.5469736007748733, 0.34909139796131594, -0.11924065618602242, 0.8847735107831334, -0.2805321219322596, 0.5268050691716641, -0.5073813108327621, 0.6185904030574907, 0.44164849685885765, -0.1847090646612315, 0.3664037782244478, -0.2576120711027954, 0.27112846106581556, -0.8660524501513902, 0.22323916173026248, 0.07631677145868832, -0.40944630809338545, -0.0470972845660997, 0.7120251110382321, 0.14357242243627644, -0.715442124244335, 0.8447796535332435, 0.9536042407248109, 0.021817295814655857, -0.4751003771335507, -0.4858912427566402, 0.5709857757068484, 0.39412579441662055, 0.4470204797670907, 0.28253172718041863, -0.23252602948134182, 0.8294115790388898, -0.9546412639339283, -0.0037699678303386532, -0.1855439420951177, -0.7495353157211282, 0.49091716509377514, -0.30398475375275447, -0.7763594720369462, -0.9431826144992961, -0.09078681100834163, 0.4830127885156008, 0.606736707916153, -0.7020009796577662, 0.10014893406706508, -0.8363289635319284, 0.986934132571351, 0.30682753693444353, 0.43587377556552975, -0.7806011999488265, 0.3086490655231526, 0.9130714707085195, -0.47850231419851696, 0.5331047991136035, 0.12207999739048322, 0.6408963405503989, -0.15900684623722006, -0.27190571112581585, 0.3734506494458931, 0.7387237346537023, -0.0024417059850363465, 0.7652843755623302, -0.6018305916503297, -0.03609740792007243, -0.8739722607545852, -0.013905453586346317, -0.035791312400399455, 0.1266080243094465, 0.2889502742283949, -0.6506769481578132, -0.5222701791449507, -0.23562484584498744, -0.18801976759188554, -0.18179822282643676, 0.3122666225772561, 0.9437764361048009, -0.1305021661604966, -0.12251592624268848, 0.39335358770174, 0.6919196933085763, -0.9029031915486254, 0.46166416944516403, -0.8870652098517295, -0.374024152117308, -0.036431491045009645, 0.9295580359379552, 0.35792838008096095, 0.8949883815415907, -0.045596796832046316, 0.31160591281754524, -0.07968315534559789, 0.15069259172165772, -0.7548663498245178, -0.2614924716900804, -0.8916392153367456, -0.33425128209916144, -0.2577276719203532, 0.02856855063995734, -0.278000872860803, 0.42041337369715426, 0.22282126843376693, -0.5031018045413365, -0.9671694190252906, 0.5922737289744402]}, {"b": 0.7083065512988467, "w": [0.23700396099041104, -0.05935779241843275, 0.8960545059314413, -0.9120794353647728, 0.8614513096103047, 0.4376671355177917, -0.06775037312298737, -0.5771701040793763, -0.6314599403144205, 0.9974897327685319, 0.32892163871455904, 0.2827669983556589, -0.0018038171349614718, 0.7170344157525446, 0.36722918978455477, -0.13079630155127475, -0.0659137269059702, -0.8155800192902349, 0.4745959335586787, 0.23227059626513125, 0.1777500802280143, 0.17764955340230792, 0.20012058101396368, 0.7319643067624482, 0.9790540144418887, -0.08730562161406219, -0.5476773322634414, -0.6628964868174623, 0.08369682267369782, 0.937265589822085, -0.44859334718621113, -0.5464916193478035, -0.28272911143783164, 0.8889509599508776, 0.8598896069890021, -0.34984389545221384, 0.22297310086604094, -0.9970899232123767, -0.5654343548766847, 0.5446651780362224, 0.057660642689417334, -0.3670106983227317, 0.2619722302786305, 0.9576700543264716, -0.2424503181455353, -0.9012694522415823, 0.7562110774499768, -0.8055349650511421, 0.8791459595931228, -0.4305732790998824, -0.9566156179967438, -0.006608017131482771, 0.8263602363292859, 0.279213371597125, 0.35176464344586034, 0.35735341762065365, -0.6300803183531383, -0.017922114488937657, -0.08561136400727287, -0.536229818916109, -0.5912130364487376, -0.4266692262190044, -0.7704424547569648, 0.07726484419002833, 0.5647653058978457, 0.18938362066796466, -0.6677150074776177, -0.6711517081918603, -0.15810332294175855, -0.8865612042564073, 0.426023643865192, -0.4768557438925438, 0.8682451613408444, -0.6815778143979643, 0.5967521651970515, 0.6786527468400598, -0.1331933253969855, 0.6005844095488615, -0.8535527725451719, -0.6444780995889283, 0.9504248206703594, 0.5482084726712841, -0.07353059358569047, 0.585116996993492, 0.36743410456416425, 0.796959121664242, -0.6441374894915972, -0.9339734766522432, -0.5127297818274201, -0.2498693706664059, 0.4525778182829894, 0.8988049520946433, -0.6684612087548729, -0.8591141429080005, -0.2103731644317126, -0.9360198127136474, -0.06046157659582341, 0.6035339435308258, 0.371674273272446, 0.01192796647455685, -0.26266800401005286, -0.2842776344227227, -0.5934159863308439, 0.2281909703031153, -0.03247540671157423, 0.35849844446060986, 0.1525846241381612, -0.28648105800114454, 0.872882465652661, -0.37567210945875007, -0.28319179331075106, 0.23524561950944745, -0.7444205777188708, 0.09339443384443791, 0.4902643247848515, -0.2683052855374881, -0.7178528082883666, -0.31301973265327, -0.1452497309524763, 0.2586559296499682, 0.782269011339183]}, {"b": -0.14628830250233515, "w": [0.29240778571928083, -0.7904807115987689, -0.791748567144364, -0.008739040661431564, -0.029970006449760334, -0.34329296524782693, 0.28226964485878625, -0.7130837582144753, 0.24116024373957567, 0.9116249036626458, 0.9207736601172476, 0.279071445923607, -0.7775947349104291, -0.019540728586245948, 0.6588088047114429, -0.4379819655768702, 0.19457533046754683, -0.16981738156975415, 0.020485489770613485, 0.327096855873104, 0.29452790233925397, -0.699420085557904, 0.24520518849090522, -0.5527741681180418, 0.9682530911672127, 0.508743066107193, 0.06718540501845505, -0.14937021974672327, -0.76767947430157, -0.41579979920346255, -0.7564213428180777, 0.09139896840140299, -0.34500986504876896, -0.7509542155488882, -0.28639492928856636, 0.1854196978636411, 0.6575608435629066, -0.5148751352340717, -0.8278885780356124, 0.9869496291054662, 0.12093390701558282, -0.29554664492339544, 0.7406173217116174, -0.7745814606321149, -0.7419286431681453, 0.556417845803657, -0.6936967776851883, -0.23199007744264244, 0.646472616689594, -0.6247006908821477, 0.9139118034552796, 0.9017430359194358, -0.8813411917653504, 0.0349541153016113, -0.19241518669426022, -0.2598665445509072, 0.04175180471986706, -0.8970128988685009, 0.1234565534141363, 0.6245468198106199, -0.7567491585084665, 0.6707134501523628, -0.7280238603656015, 0.3164654086184113, -0.6081870859616176, 0.7616553435241391, 0.016924273837244597, 0.4756112013753191, -0.5887962053431823, -0.9817858155444061, -0.3728267486777608, -0.54289845324428, -0.48533992108447, 0.2759318541233795, -0.5828374403290828, 0.34031940825182805, -0.8182047098454952, 0.8925160743569429, -0.7174703026905831, 0.16460876716691653, 0.6677676438026383, 0.036803736347482685, 0.6114847435471016, 0.38314402730515296, -0.6567437954490221, 0.6624407339907203, 0.6688808125209353, 0.48179047948178644, -0.7315247838321246, 0.630413822511741, 0.5991204782312722, -0.7088951396830581, -0.5023991044590317, 0.31491435916891364, 0.6704063563889733, -0.18048622469186792, 0.848142494087518, -0.19941059203185127, 0.37035210708521116, -0.4781159213749884, 0.797885702848925, -0.9200362599211567, 0.7862530627918716, -0.5305177125859393, -0.1053834644366523, -0.4524851166076522, -0.8376690249825132, 0.20516502391901104, 0.3922137031965258, -0.7276124180243477, -0.36973675060832334, -0.11175068719367842, 0.42085614503660707, -0.27402953554145765, 0.6079331272835873, -0.46460479743900485, 0.10557208599555708, 0.9548465921034051, 0.46411777604493554, -0.9541394062899975, -0.998664608110192]}, {"b": -0.42520416235156033, "w": [-0.19161377597304452, 0.3106544223604297, 0.9030163099047397, -0.6239201850358176, 0.45920677895121353, 0.8798594267480495, 0.6535890830345503, 0.5563362620259236, -0.5277735328399542, -0.12563582613121804, -0.6510672754575746, 0.4619563825010591, -0.5214819503224726, 0.18132387504812542, -0.23342335771561795, -0.6659771861712465, -0.37005755527526474, 0.6737634088844171, 0.8060199956436442, -0.3966772286289808, 0.9431191995085562, -0.8575102237526451, -0.35374002874859367, 0.3000237404133155, -0.7295586482373353, -0.8012982649162248, 0.5557872649228288, -0.5260102477071171, -0.3694297339147188, -0.5854825360051716, -5.94683275646633e-05, -0.08242508983974904, -0.5988361392374015, -0.8235893600875093, 0.6424123494382423, 0.27602373060582, 0.5367136960059682, 0.0862358588167722, -0.3282867472202571, -0.177618447927262, 0.8630695445293521, 0.9260862045544378, -0.9448111309456921, -0.03710923492393414, -0.6635844894912735, -0.4204421134286285, -0.6557079663507919, 0.060341865447037346, 0.11148781654621587, -0.03988013287800705, 0.7895504078869378, -0.13811563707911234, 0.9678308539787808, -0.09108001700495727, 0.9546645462575416, -0.11030454697471148, -0.5666608277853769, 0.0563320935599676, -0.25717379965808296, 0.2643297803631155, 0.9673268836548714, 0.3018192215482418, 0.05811442317918608, -0.30694709185556457, 0.6853518291768173, -0.4153467550736806, -0.6073934083228774, 0.4869685245084847, 0.983182907256831, 0.10439088670611252, -0.5966464705881285, -0.08396480802275641, -0.16318251214469837, -0.07975859066241164, 0.9670838955125249, -0.6592653493341021, -0.4442497906605414, -0.6382164547799096, -0.9980761680726322, 0.4644344936632452, 0.704593287323285, 0.046314320892789085, 0.44644916459985606, -0.685040541153904, -0.5511490210562335, 0.44577502376279665, -0.2585725146152682, 0.9622048423843323, 0.4499529825221953, -0.02895988407433414, -0.3554304167636304, -0.6850798193029797, -0.7351352675873786, 0.17454722936557276, -0.561761343563036, 0.5252732868057515, 0.47132848075745337, 0.9565970062435845, 0.28705627082862506, -0.7691213769662937, -0.46666042721311474, 0.5542434145515374, 0.2905491625796297, -0.24571230537616606, 0.9544145523722196, 0.28569431679464197, 0.4417315964542996, -0.3047119186664853, -0.5976300307095446, -0.4184230124561772, -0.6408951851100542, 0.13248681338307766, -0.7590641452485027, 0.6571905149685375, -0.29427700259324086, 0.906071514819492, 0.9323859540021084, -0.4173910316267626, 0.4833021322947815, -0.521545258875119, -0.003714191501610564]}, {"b": -0.8787598211536054, "w": [0.8875145797547437, 0.9887551509588508, -0.23671254484097282, -0.238246917667011, 0.9712141362402313, 0.48199761026692745, 0.2491491128892086, 0.2195792883317753, -0.5240107631439157, -0.7632549208327664, -0.2831771320975194, 0.8764256892553106, -0.6859018965715502, 0.5679034908132592, 0.31528094952101626, 0.1451036758010582, -0.3453040396295497, 0.8674995209286183, 0.7106275125455488, -0.7450152374388834, 0.3271312937391653, -0.49943072065238864, -0.17853822552593254, 0.5305881709455025, 0.32636086582500545, -0.4861505184751751, 0.3475043907744433, 0.14753866156129614, 0.001962136308239647, -0.9166374175113035, 0.583521683031289, -0.2145085605112822, -0.8938906621681157, -0.42255915690510415, 0.5841584575997215, 0.1575317239553089, -0.07159879015005174, -0.22878939937638787, -0.8227548921082268, 0.8115471879917624, 0.9476756444866219, 0.4539642117380258, 0.6649818688660538, 0.2556256199724174, -0.8872385716703779, -0.8697210593278493, -0.16546926438173748, -0.2660705567889596, -0.3154495453691484, -0.7043746318461122, 0.577358024059765, 0.5680309134262393, -0.20236742422631404, -0.15751711777006938, -0.4587567588686894, 0.14769789813278345, 0.325256773164021, 0.9678826888867722, -0.5434530334083953, 0.35718115852255616, 0.15440817879906013, 0.9461822151747326, -0.1568403826035667, 0.5409003213002681, -0.3537049186149335, -0.7247668283363553, 0.4701007071444383, -0.33173816768356135, 0.21607511489306466, 0.8887563770391325, 0.5684008438919395, 0.7799527668471395, 0.6022921574147508, -0.8171016683147891, -0.20168416929714494, 0.4672808344155246, -0.01295742593108229, -0.18646594762972168, -0.27174426837568166, -0.9891354226297187, 0.1644819649203797, 0.8652105893113653, 0.1708924840490147, -0.4114064384544409, -0.2688622154892013, 0.7764236288195838, 0.9226498111297263, -0.47657732174643375, -0.42322120454560164, 0.34593029418196486, -0.20676387771772675, -0.7986457944165972, -0.2877114375552632, 0.56224270156054, 0.7028729789425268, -0.7584597372228306, 0.891820780430677, 0.0965533693862259, -0.41131764837897666, -0.3248008493763497, 0.6647842458775011, 0.6579516937431249, 0.016171650949981853, -0.4861414833979272, -0.7805487257630235, -0.4548160250824562, 0.6603119523388257, 0.9796090128007455, 0.017377314833906032, 0.45983201887213854, -0.2947310417081208, -0.31753872358366775, 0.18058047100425223, -0.7431568011988485, -0.8020809569649148, -0.7233437263999087, 0.8021378023306021, -0.2072095992811771, 0.17180026705203777, -0.22026644939916995, -0.5074779456881262]}, {"b": 0.9145846129752739, "w": [0.3265559768935442, 0.8273359981566457, 0.30506009678687174, 0.5436252920963316, 0.20339663654523843, -0.5021186666276074, 0.08196713830161917, -0.5523758218406314, -0.8561906685359888, -0.05508467038556231, 0.8139227989720625, 0.2576455843359977, 0.9558317385715747, 0.3031926791187429, 0.5939955197428424, 0.27783118806196905, 0.2741660104555266, 0.21611035134558843, -0.07478614104030434, 0.3600300958028584, 0.3778927769263243, -0.05923424138614486, 0.44862250807497794, 0.09401181696626852, -0.771991609326967, 0.36705894549710893, 0.861973865196973, 0.9968763475053841, -0.07103843633033691, -0.015741421818177503, 0.6163148149606092, 0.772204302755813, -0.014414744331740614, 0.1342735739251537, -0.19375305559223022, 0.27549949818630065, 0.24211818931920592, -0.8919602458082552, 0.9992025335903032, 0.8219015756382688, -0.9164634113595214, 0.5164941712817395, -0.12371593798088387, -0.4521934998103474, -0.282642214211029, -0.15231094066909434, 0.7866009064993031, -0.2732935512005714, 0.12095963383948938, -0.2975610443489911, 0.5613943809071571, -0.7972000609249492, -0.13486448766793901, -0.8536459164047119, 0.9993144439273889, 0.4587874168390371, -0.809834313149383, 0.006410705708790765, -0.11829586709024428, -0.6861144545415507, -0.4155959922512127, 0.6712681492945747, 0.2382521426082087, 0.1781323970672588, -0.2971579830560498, 0.8806740311247272, 0.060240379284646206, -0.7021385215240317, 0.24748808352053145, 0.619253174815869, 0.4719413981313916, 0.6317251302629172, -0.0004915026588385718, 0.8632389744892497, 0.3752151916878428, 0.42395495964803875, 0.010239172814070496, 0.7413477854607522, 0.8448610107711694, 0.8980791760488176, 0.40899248713255365, 0.2611506986186234, -0.0693477916864016, -0.4960379030927926, 0.8732828323871045, -0.48353288806591976, 0.9334416588352927, -0.3603275574520999, -0.7301359601431634, 0.23562439129643997, 0.313544911708165, -0.17670538819814752, 0.2502553147906954, 0.09973874061906057, -0.6672188823749337, 0.4989018812249071, -0.913200533047495, 0.9424269566549357, -0.5258622391932333, -0.960504720280082, -0.8713407412977658, 0.1450879259064417, 0.32340300614085415, -0.5461909155395879, 0.6494022755273332, -0.3298112413725254, -0.053341092607742446, 0.8287736369233536, -0.21691098311079537, -0.3825157155589647, -0.0069509216393244255, 0.21549306327691053, 0.962697941971512, 0.7364157075716016, -0.5466354925315349, -0.6904319699389323, -0.17864260793729758, 0.15777917060702418, 0.38064347638153917, -0.39682607092233013, -0.12353188604077106]}, {"b": 0.44699258740941117, "w": [-0.11764706773367649, 0.26302866055908103, 0.3018042502043864, 0.3843258926022066, 0.017638787958996538, 0.7887457513303016, -0.8922610314251775, 0.17606825859319586, -0.44840649763878515, 0.6479744193825017, -0.15964117451108265, 0.320775986480085, -0.08342683093013936, 0.02595143019457442, 0.3516248077627837, -0.8073927250309227, 0.12302736510973203, -0.09958896860746787, -0.35792646190700617, -0.12810418127966708, -0.25579886359856063, 0.0009212137203656889, 0.9429196154775283, -0.6113299932655183, -0.9990016084164623, 0.010859193480945217, -0.4294491725923849, -0.9692990365333913, -0.09700129044416883, -0.531254545353155, -0.21791943767665045, 0.21022724366039247, -0.8438685059454452, 0.28124281853188005, -0.2628407852358059, -0.4726994273627163, -0.5257359517445443, -0.4070441122636037, 0.10988110967750209, -0.09469507124312027, 0.9498102959855548, 0.31725255565230626, 0.8919807042799861, -0.32096478445452714, -0.11729551423272189, -0.08561042860745349, -0.9865324636701136, -0.3552854860468462, -0.08825470962966353, 0.07515613433090684, 0.40731169118079547, 0.20073846589853153, -0.056271857909485856, 0.9441375654911899, 0.09773940062553943, -0.0891106168998328, -0.541885799373617, 0.5872741431836022, 0.03390041273020805, 0.20897866525342312, 0.004184309855201666, -0.7446918468401265, 0.7825430485293898, -0.6524745190588257, 0.6282830153224763, 0.8645456098713911, -0.29978552495369315, -0.11821386105009535, 0.7993232095024305, 0.7348768737715838, 0.38577219887533154, -0.47645438863537337, -0.8832660215265147, -0.5765085650458661, -0.2730568186348612, 0.8545390648093609, 0.5968681327224306, 0.4870757454067259, -0.2913569275524799, 0.07531652237322883, 0.3145480031681407, 0.5497992174971484, -0.9900149659384783, -0.5135081818895102, 0.11236799939021136, -0.16355184821872815, 0.5157490516020684, -0.03006182700075888, 0.9162833807090576, -0.0400559105594247, 0.39512360124858326, 0.28151421458430637, 0.6779728968992578, 0.05255692132175516, -0.6642095534852734, -0.08350170548751201, -0.5811579410609209, 0.9011544314084878, -0.8660524534247296, -0.1728333480878177, -0.3322962295772054, 0.3489704728094245, -0.15996135756237972, 0.7474218350158666, 0.6497748764745979, -0.2829691742702318, 0.20378570259926088, 0.8798500260830833, 0.9392429810860685, -0.03716458550688784, -0.4118374831929448, 0.9379519595398362, -0.6884784909439798, -0.05964217814408945, -0.46564370049137205, -0.8176614715538792, 0.622170709938558, -0.8741398276944372, -0.34495745721078275, 0.30723155864636165, -0.7189480110619655]}, {"b": 0.9798874463332614, "w": [0.007248993981440188, -0.39667418235116614, -0.5723884335127098, 0.7001935912462727, 0.5998025987043258, 0.2192506104122498, -0.6993553186955486, -0.053746291107022115, 0.2862447866713618, -0.0891546309308957, -0.009063910961389964, -0.5055739529603056, 0.7659278383010453, -0.0871020136819125, 0.5636570091902868, -0.9256733852104153, -0.15696416766118548, 0.02000719689159891, 0.10325854843637355, -0.19267045148101292, 0.8122079041751076, 0.15370731401236726, 0.6785041038974717, 0.8512209323849445, 0.524179687593346, -0.7063589256695588, 0.145340268922874, -0.8412186031859226, 0.9116297711432699, -0.8702274050112657, 0.057972859655573306, 0.9612506430377579, 0.6798210642781948, -0.8064856730942471, 0.1421487321472048, -0.9598698295625523, 0.056558727061993004, 0.9847100787939731, -0.5328287610023068, 0.7689265159568412, 0.03434167655607292, -0.9432212902669861, -0.3687360178663033, -0.30247573809588246, -0.9324298119336885, -0.9278287296858965, 0.7050361033743475, -0.7232957355708678, 0.00298757472037825, 0.6676565195114794, 0.23059402310356258, 0.9424543352805868, 0.20993017521687118, 0.11961403225140654, 0.3314282000753084, -0.7721766786036492, -0.22926896105910016, 0.4788877469339199, 0.23019794599491794, 0.7888773298082516, 0.4490026273068082, -0.580546940990716, -0.2890493344711387, 0.6302792601475118, -0.9438656276959356, 0.16263254984594822, -0.3298377776975787, -0.25253407714590526, 0.32530451667450433, 0.08512133696314761, 0.8845136877906021, 0.6750638059365526, 0.6392958624899752, 0.3913228953676344, 0.5591104172604333, -0.6194780567762133, 0.9711480472444096, -0.05751465630985719, 0.44753743391283884, -0.7982679278193519, -0.8192107951634409, -0.5015400753108157, 0.624989654320077, -0.43443185476103596, -0.6046812969272568, 0.47415126646916117, 0.799057678981886, -0.43931521153271036, -0.576696911455197, 0.9828621541438924, -0.3750594199319939, -0.9348551399709479, 0.6183772499397184, -0.951121539503051, -0.8055504711572368, 0.7429517048832057, -0.6995485530341607, 0.10599061919148278, -0.2513916410430004, -0.6936797214669801, -0.36996716868779833, -0.12692338896126887, -0.15833073804562248, 0.06332801729877069, 0.40562426423560494, -0.5420291185096571, 0.3606193590046811, 0.433854253210916, -0.6870901535618381, -0.25875356374159275, 0.1518439421245139, -0.6217194201285143, -0.1546122897722448, -0.33651125856719766, -0.7526237922408613, -0.24282735285911955, 0.1012456347560553, 0.6648234251057987, 0.2883154159474379, 0.894731707906113, 0.26659616527958846]}, {"b": 0.5652632181700088, "w": [0.22868021125872984, 0.8451017264768439, -0.6941791175153298, -0.2672731501670538, -0.3661377622990345, 0.6815149659173745, 0.07926600352270974, 0.7184348921800643, 0.5383826728809902, -0.44323800626966636, -0.060518923852454574, -0.18937828860166417, 0.37110035904963046, 0.4159105426136338, 0.311027622012334, 0.9615349388633427, 0.7009934889015237, -0.3110359591606373, -0.17302962461907778, -0.23497161993997295, -0.6035950730177801, 0.1031967379504497, 0.435311582776412, 0.12452673541273396, 0.6595716273954113, 0.983337144531572, 0.0904909486034764, -0.123506451335605, 0.624589994403546, 0.031893522107293126, -0.4315183763491343, -0.11341668117220949, 0.6355784323221885, -0.24895667187234172, -0.42463585609531274, -0.015945154053264243, -0.7469937378477196, -0.5610758488495514, -0.10580357259758855, -0.5157005617112662, 0.38206169962189107, -0.8533719357907987, -0.05039751273452109, -0.7116294298433363, -0.4328337777362994, -0.5664844536697404, 0.21926950398881218, 0.8974958198131089, -0.25548704368625164, 0.2974256821900749, 0.7769395996709942, 0.020705249038769802, -0.4222299927317654, -0.720746688510379, 0.6813395160930991, -0.8993078111931405, 0.32171178298863135, -0.06567341824873485, 0.641252475266161, 0.8759205702604576, 0.25115611393588533, -0.04116531571454884, -0.03166152888725304, 0.12849446767886086, -0.8429886637774935, -0.695821566024879, 0.25695260325685054, -0.34187406043558677, 0.1108960610610825, -0.2826175424624775, 0.7214958529488418, -0.07992295160047069, 0.9284909240050478, 0.5987248593002175, 0.28458179025518143, 0.2402001369748128, 0.3409331858219855, -0.7636630862750555, -0.853286484630545, 0.7501180430659817, -0.5108994233001307, -0.4887385175586745, 0.6313865158127099, 0.17702307647383764, -0.4115067442740499, 0.14464444529363463, -0.9320844377324722, 0.7889655627464673, 0.24373232037920226, 0.12266013253375863, 0.6284876510030211, 0.7088092879052913, -0.7602381397231002, -0.012119417241016839, -0.2775960899327299, 0.85351514858793, -0.06260182865882902, 0.7393458985244226, -0.4555074114098222, -0.6136325351201087, 0.7346925501819495, -0.1402964938343294, 0.6351133782376484, -0.007579581165301885, -0.5408850868923674, -0.23058008619213408, 0.14080397584282667, -0.06914203594159174, 0.29108129746737776, 0.7358341471619407, 0.0037672193621534067, -0.4252743387328468, -0.4890645372393452, -0.8404206340095526, 0.2470230155354458, -0.17151695933314115, 0.12102034831048081, -0.29331802181580735, -0.4414912539214946, -0.7079296517306033, -0.35948661834979023]}, {"b": 0.8035183906581476, "w": [-0.6222494739027353, 0.7885848738387418, -0.7347113869289583, -0.35519572835858115, 0.48928415261327607, 0.9973574747999066, -0.026213652347049532, 0.4173971769715483, 0.7811389188062996, 0.025779539021696607, 0.6096393795907147, 0.3689000242758269, -0.45995729247080663, 0.049359940605753376, -0.6656001493207269, 0.35368261611499197, -0.04879775584478607, -0.3762745882876055, -0.7881240347161405, 0.3790041792854226, -0.14663537065468235, 0.4777271365562279, 0.16162548591937975, -0.10627062535334182, 0.04861266225217897, 0.33427021650823185, -0.5475928190873243, 0.23162680978665806, 0.6253285876824852, -0.2744618316940517, -0.36933075282302497, 0.25737449347219865, 0.6598801985178677, 0.6801542812906736, 0.816021084929965, 0.006909573490232103, 0.8429114520983059, 0.8492788253062153, 0.3573521312659924, -0.3721531665537823, 0.24265009621659508, 0.975110756910428, -0.12749005164178362, -0.9055961910408803, -0.8118413150490733, -0.02833424117532357, -0.6210502516981953, -0.33145868078491847, 0.2754149874451781, -0.6247896389714596, 0.7268754054094178, 0.35394047664475337, -0.5797084464153688, -0.6677824227887192, 0.28658805988370717, -0.7549577054911489, -0.6964670736716927, -0.06521633437717944, -0.5199867869074537, -0.3844362156056531, 0.1337847965937582, 0.030093164579163112, -0.15793150017091895, -0.4003926835269127, 0.9274638682332088, 0.8323408718109311, 0.43699453701992286, -0.8803859774285154, -0.6405059320547701, 0.7189847085938394, 0.05534648122500614, -0.9005646344853291, -0.6571235978422272, 0.4737088024116711, -0.39146702443621995, -0.6454796025885976, 0.7519390485310027, 0.06285190958088305, 0.66015443161369, -0.9916822609838705, -0.5400428883498485, -0.7163611442975371, -0.003819842837236963, -0.740706139602676, 0.007341843804690162, -0.3560590736488065, 0.8890866244401219, 0.7078512349336312, -0.9951883122653529, 0.6780264922470034, -0.5085152685323833, 0.9207795370849479, -0.00215207025094969, 0.443565436118335, 0.7486942418997443, 0.8751461299505052, -0.650121498166836, -0.9334826934019713, 0.9212341847029624, -0.3174823942978515, 0.30202303494816873, -0.24123833669461547, 0.7063116760510515, -0.9340354368274333, -0.688499946958818, 0.734481141977644, 0.4430573417541288, 0.3266560604525903, -0.7957869989300397, -0.05636981068122915, -0.16463557899834225, -0.1385389412127458, -0.5342733737532197, 0.6322632385313645, -0.9028822787865574, 0.07710767800573537, 0.5593175365551415, -0.13087347632843382, -0.03815855561624448, 0.07505979648502192, -0.41472330032653804]}, {"b": 0.6132986693241735, "w": [-0.10483586571530723, 0.6904097094859449, -0.6021266857098473, -0.555706845961442, -0.6162206176415708, 0.8316955928114158, 0.40598307744896855, -0.03770559322189941, 0.21621965452463332, -0.5934961336948201, 0.15170384283740368, 0.1456644703724368, 0.83898989691976, -0.5925919264943385, 0.30505042885302736, 0.9864626768316365, 0.743803940406204, -0.5661955205572975, 0.5928875940808709, 0.7678282313273008, 0.925244849782008, -0.9640873535521322, -0.6900500171371855, 0.5919819178761001, 0.38573915269210346, 0.432795427416373, 0.9058821124980274, -0.6536589459523217, -0.31542878626814996, 0.5489689210132287, -0.3132442516906604, -0.017772752481932663, 0.5224014197903533, 0.16741628756058868, 0.8676494487293186, 0.42145959174480363, 0.07192779020924034, -0.37982725429786424, 0.001231646735878389, -0.10759922019555312, -0.7841079901491326, -0.7509989162493572, -0.12934377103833694, 0.19614461046055665, 0.4604966243344608, -0.14618584122810097, 0.045613825715688394, -0.2890152783400113, -0.3590085026285257, 0.47255502609003597, 0.319715225142686, -0.6662861951974393, -0.5243706319496986, -0.6631727667886105, -0.7523006453376184, 0.026583422815043976, 0.8430683479711105, 0.26121822939065864, 0.42234954466872, 0.009444689346181478, 0.5085903575514461, 0.043193458108647276, -0.8862552851227539, -0.9644183017510068, 0.212278429877518, -0.5490473439397592, -0.0898565817174033, -0.8814071291305139, -0.06725144928296634, 0.006386583642777888, -0.689926554583354, -0.5263284173831768, -0.4462065617868445, 0.8843968871658301, 0.5173605486151092, 0.4010591564575934, -0.8153583336611592, 0.39284584654627397, -0.8010602721027797, 0.46503236068227105, -0.29702416395830555, -0.7729458246368283, 0.12630558705734463, -0.9619535671332529, 0.3423555224239814, -0.7505984880453751, 0.8897771753098187, 0.7212109240423978, -0.4039695269429433, -0.3230175121521712, -0.3813410302388416, -0.4893934834582949, -0.8329420480295444, 0.5088901909913035, -0.6110971713405451, -0.7460102203972216, -0.4338387813049239, 0.42580667528042215, -0.8408308849758848, 0.4736814380458143, 0.9593702689536234, 0.5725664324735611, -0.7940692338873463, 0.2908060071536269, 0.24442560750341014, 0.7907004336718051, 0.37715742296958554, 0.77850035159331, 0.5832202654685916, 0.24353333027795454, -0.14958331904438463, -0.8325267979772872, 0.3367200950688596, 0.9019941291459881, -0.3058579465721049, 0.6802491012611618, -0.26127096824631146, -0.008786840345111013, 0.6600486399186418, 0.23625265363089065, -0.02243739076159122]}, {"b": -0.3145184080752499, "w": [-0.04661933668229623, 0.13544424703912505, -0.05497453562457033, -0.9499247534492476, 0.5748310093433353, -0.13449288564134299, -0.5116151051698339, 0.3046417061210047, 0.3615261344169054, 0.6975795045826337, 0.15819374400069752, 0.8987102787299213, 0.5039340434319146, 0.0776467773908256, -0.6867380691169429, -0.12994915959712605, -0.7238620664646949, 0.6693270961109232, 0.2690693139350624, -0.10663211218768855, -0.4377125568498126, -0.1888169608423036, -0.9868599274732026, -0.2875077053339252, 0.6522183087487079, -0.2708133161641595, 0.06880715050491015, 0.31728602183422927, -0.8548784186850111, -0.06236923123734021, 0.44827595203614545, 0.23839177595036598, -0.002582862141749853, 0.44485950147486575, -0.11880913437329177, -0.38773583129107947, -0.9568197776315928, 0.7519940160365686, 0.49434679509925816, -0.20138292650399592, 0.057116497211161014, 0.7835051337969929, -0.27029326751629545, 0.8633827324923444, 0.44665235122584734, 0.756481583983601, -0.2879487570964214, -0.05016082276734992, 0.7646801901498359, 0.6204124704957723, 0.8444908192587255, -0.2739970329880703, -0.1816223932805865, 0.6486766861652757, 0.21025294319763876, 0.48398225993133526, 0.30236075026555187, 0.8121519987450598, 0.4004418983764626, 0.495348021304197, 0.9413005322628244, -0.5243269719991166, -0.38845270469058635, -0.33475864954869805, 0.5232463903217963, 0.06100365622290327, 0.17889933719787776, -0.44051991340791574, 0.9169168370670968, 0.7425854420153626, -0.47638162491361014, -0.6026085835738944, -0.3043455009374343, -0.8667829103949523, -0.9515715951623209, -0.0882908844930621, -0.6344152854562868, -0.5841507715938421, -0.9398000915525502, -0.3117805692360154, -0.4503580555896798, 0.28143579593171864, 0.3595345223629236, -0.9779864728903394, -0.9054349552583627, -0.7265999971603219, 0.4364948605090344, 0.8346309196966835, -0.88876079843896, -0.39337907150626683, 0.008742678062959586, 0.5832131668176594, 0.08444671197158246, 0.24667920825804535, 0.5270462568229612, 0.013970311883839716, -0.959166848997123, 0.948144443161393, 0.5354826925176466, -0.9810698889051057, -0.39467815528609607, 0.9982352266106826, -0.7438586401773644, -0.016800367072453026, -0.032741212360106964, -0.652480999972902, 0.9744248601365737, -0.33498724225665183, -0.6720573295709709, 0.19734698308698695, -0.8279550911060873, 0.950152923236985, 0.04678378973656083, 0.691928929402515, 0.46878598111476455, 0.5775293416554934, 0.5055845822967149, -0.7720477350575776, 0.0906803185003382, -0.09209258081988203, -0.20282415116726377]}, {"b": -0.05472114743814749, "w": [0.027057142123597444, 0.46203749633307134, 0.2451870269853802, 0.8366935149239909, -0.5894837831181283, 0.06548543738400792, -0.4351958762724797, -0.00442804454174544, 0.3172103411634346, -0.004368107813065464, -0.948233058656093, -0.8501749234259479, 0.014555710965513996, 0.14463547433352986, -0.34428319242600147, 0.8083848159548574, 0.027449795282415757, -0.3337229342758876, -0.5323699007091851, -0.043099984379502576, 0.39344095722581174, -0.8280228006190855, 0.34681297691120805, -0.6838754240289835, 0.8136617714451395, -0.8613900246578692, -0.9664260636263731, 0.37101108587350007, -0.8004948432108421, -0.8209913966364335, -0.6687459518752157, -0.6055335452469828, 0.6813328923463711, 0.28544447792824923, 0.4753017595625457, -0.05345297389660142, -0.4647583365869974, -0.1477032020239288, -0.8844748410387182, 0.35686782616770385, 0.9097798357211724, -0.09509954380478058, 0.9469001459280753, 0.6682380189158412, -0.35561917642100327, -0.21232323042156453, -0.5900320008819728, 0.029343675048467736, -0.05567190384660514, -0.7983386250991413, 0.35043120447205056, -0.9708616777138739, 0.6685605123111467, 0.6586813741586826, -0.27123056203711116, 0.39648501381673396, -0.0745247325607663, 0.40318230471477445, 0.7085143700832384, -0.8669723474042514, 0.9316010465999662, -0.21183667996557998, 0.5717050627268432, 0.8868803249205104, 0.6998115629958988, -0.5653684833452535, 0.33457786914404264, -0.7291817078669849, 0.5769646890743789, 0.4374403959979649, 0.7234838679528719, 0.36249577497048047, 0.5676197672351435, -0.6579396738620089, 0.1912692424157474, -0.36155088704633065, 0.02410122477679846, -0.4736784408754193, 0.8510815504850555, 0.605359321033621, -0.9409087512433687, 0.013351494938461439, -0.22626472324183422, -0.6779893302244986, -0.4906379040378306, -0.10924621923485317, -0.5343438830886178, -0.9692334803993974, 0.5390950501678566, -0.7275772679407544, 0.27580040200115596, -0.07412440427839284, -0.08846026745536228, 0.6631542819812006, 0.22590792945062477, -0.31267506123719535, -0.9496083741917294, -0.39014265385296554, 0.26227877793918153, 0.5795563509708261, 0.3993946784528726, 0.09423284657936404, 0.32184499279240364, 0.05491890364899765, 0.02056817737665151, 0.5321013978986544, -0.8804352861603555, -0.8796728195738668, 0.05008970130304219, 0.947635367870159, 0.6914515419023308, 0.48036849383341496, 0.3480637776628579, 0.8666527619098525, -0.49623326516420896, 0.7020514953072949, 0.3148280674127679, -0.617619357663479, 0.9063790274933741, 0.7681566749400675, -0.6600432929390234]}, {"b": -0.01924217569550768, "w": [-0.9997799629222273, 0.6906654706085633, 0.3831399510248048, -0.7464327451705737, 0.3064601263749289, -0.9398090266058701, 0.8876637721522378, -0.5697194449943959, 0.25065331797674817, 0.6811480868048794, -0.44058103083578404, 0.851704057833155, -0.6933790748651858, -0.8818316109397695, -0.9061178613688152, -0.8101333415629721, -0.3535613415983836, -0.628638700224694, 0.07377359884781964, 0.5382313118739401, 0.24587567202999017, -0.07065950564384171, 0.03735256906394999, 0.08405455803611606, 0.8492401755939996, -0.8354258481063959, 0.5622821400305493, 0.3200028643059467, 0.3371986330504051, -0.30727611154466583, 0.1632674110103258, 0.4161167921932447, -0.36155078013835285, -0.9009095472319757, 0.5555739121190955, -0.6788572928967211, -0.1609319395598452, 0.28995133327383416, 0.14424904406382577, -0.0019939356002103706, -0.9750748079765665, 0.47145938579568036, 0.12966193885705213, 0.5001053937996713, 0.15414315818408664, -0.7566050438329928, 0.17115799560813927, 0.7754940407650404, -0.05224970205937729, 0.7236643043651501, 0.1751452579262993, 0.5140791320108953, -0.4717372747260073, -0.7468597362996521, -0.8563901385126167, 0.9134622487481707, -0.18596275590473899, 0.3084166018057284, -0.5437490006326636, -0.11466614762464777, -0.9475495264816214, -0.26127674527696, 0.6821801140302604, -0.5092382779263658, -0.7232219986026871, 0.7987054859115064, -0.8265905175739876, 0.22004141471158656, 0.7265824062775132, -0.044654537645333114, -0.7640030724883162, 0.6638088750221982, 0.998447592689957, 0.3377258801066707, -0.9165067529810345, -0.9218043137845779, 0.653129951793495, -0.5216550542070897, 0.527846264007696, -0.20227356971576507, -0.887405189642483, 0.058038204606234656, 0.6314701138292396, -0.7218470211999273, 0.5833155720384997, 0.5811783888595592, 0.13618008141154925, 0.5171388137252706, 0.003349289212670616, 0.5793640288886852, -0.5501501752708868, -0.7431873681901835, -0.3094208105135372, 0.2514152105959313, 0.4070982242916803, -0.33398534489979603, -0.8156339797341403, -0.3632818897020637, 0.6101683934721134, 0.18447858875963696, -0.4160876963226941, 0.19236403243754086, 0.4654012961453997, 0.7506437888026141, 0.9504276325191057, -0.1566346783754926, -0.5323257357753517, 0.5764656218248028, 0.789277507885348, -0.06866981259241056, 0.9330785209179464, 0.48841379461160694, -0.9540589176702123, 0.9274384768900725, -0.2149468836935351, -0.8082089738807285, 0.5623668270378499, 0.0018557050728791324, -0.13856093352364685, 0.007578498708731063, 0.2145665594469035]}, {"b": -0.8468361223592191, "w": [0.5509399479098231, -0.9271139702063522, 0.41266041973527406, 0.30385664228971754, -0.691791433865572, 0.8152504859766683, -0.6435788902337416, 0.41389816836522986, -0.5175872262434889, 0.13621563850861126, 0.5506074949610948, -0.04923225731048175, -0.7021430523692052, -0.7736564352019513, -0.9412489170214524, 0.1402548040956748, 0.26792197155119846, -0.9933158411091199, -0.07887948050654581, 0.3410840620269331, 0.972355663834227, 0.29630942642923164, 0.7191534578462355, -0.37963851455894293, 0.2811316878102228, 0.4561996279130123, 0.741834592335471, -0.010660819550016631, -0.22056630729782523, -0.548568619787438, 0.6673639300067924, 0.16606243056497028, 0.45045188387305624, 0.5610007873632235, -0.18301631133116603, 0.9440788838613194, 0.6634578105603846, -0.23467814810138687, 0.2885197643659368, 0.24177774394574758, 0.15881366273265574, -0.29116385832671043, 0.04358136255486955, 0.04643068962507102, 0.2184681737179126, 0.0006291689483786336, 0.555565009830578, -0.4709909950305622, 0.9711897267378384, 0.834019210502374, 0.9460068772269792, -0.11670560382447462, 0.9815130747865395, 0.9506949919534162, 0.2784500128804077, 0.15579439187888466, -0.3528856848502724, 0.8427699845311325, -0.18467551787326086, -0.24778378466387396, 0.6492065189667044, -0.07792271202340388, 0.3212004364106469, 0.8625526325168462, -0.7684277734539309, -0.4756036022963752, -0.8402107947819248, 0.3372280690788729, 0.7916408188084898, 0.6607632936182741, -0.03626865607974872, 0.2701219287235006, -0.705997149576725, -0.8015767025163931, 0.37987298098389904, 0.3272565924229647, -0.6154903171751633, -0.4238521629633272, -0.5929779057370526, 0.6508138981042801, 0.7995389133752266, -0.5934577466831905, 0.006966289807446841, -0.43127711695726867, 0.2716414089194157, 0.1904057221198754, -0.4090942501382009, -0.5998959857816706, -0.11184688700287901, -0.9452858482409852, -0.5853886815866816, -0.8660996740649816, -0.7434047061523608, 0.10112328082573163, 0.9937581923464625, 0.913600884423504, 0.036722453223465866, -0.34048970362175623, 0.23418283725861966, 0.4193620871787591, -0.28197924395653917, 0.8108995624524131, -0.05238455332072567, -0.019383648803885656, -0.6923978489427653, 0.31839742376133184, 0.6085068816203687, -0.22688554106056769, 0.8658523418331359, 0.04912235325834646, 0.9089252868053321, -0.49403218339023347, -0.5705088910579845, -0.7364586871500233, 0.6373227745314409, -0.7447526123787336, -0.6775122285577975, 0.7004911302899124, -0.2827323015826744, -0.8338625770297181, -0.6551016440650945]}, {"b": 0.07437089429525318, "w": [-0.6103752619696159, 0.07681871930951245, 0.05218412671396361, 0.00851861178651303, -0.45649275961873004, 0.6281696989746979, -0.09468214405423314, -0.333735871160751, 0.03546854687946377, 0.7704635305856977, -0.9458372655404448, -0.7967958133857165, -0.7057537154143734, 0.362839932402099, -0.13910009439659765, 0.060555982522589466, 0.17783857492497965, 0.23395787698160309, 0.1317934616339198, 0.24973970233838694, 0.7677626210648478, -0.636425391439855, 0.9986029257409401, 0.9422523354199224, -0.15930043068643962, 0.13737573959894567, 0.019215045128041064, 0.05560591537861992, -0.873060696301142, 0.4125406450007463, -0.04323766446719808, -0.9273735331726509, 0.4585426428895585, 0.03571872796602893, -0.10329412996022236, -0.550483446092668, 0.22793105088497723, 0.16850576400575612, -0.36386597851253955, -0.4957782744936421, 0.3666392871874731, -0.9826073304852114, 0.9599876219320747, 0.8408092849901803, 0.25325616501643644, 0.5111702477329658, 0.59272993633697, 0.8458405291169298, 0.36981757218022815, -0.6992179416006084, 0.35818980351699237, -0.1384898878382621, 0.5277997202574654, 0.5603469697137862, 0.3696845576000771, -0.35309755202662396, 0.09602682779998428, 0.2424337630722547, 0.8664585870891675, 0.5102891916947481, -0.6916845983534106, 0.17186024647929266, -0.41425107330537925, -0.04345403865626318, -0.2469533198003402, 0.27534012767236793, 0.8830708299930483, -0.2675199691544927, -0.969614202471341, -0.27139192898109643, -0.7081226106773324, 0.18699655356413625, -0.3674420228741839, -0.5524004416746524, -0.6456370213773117, -0.8934231364321621, -0.5693870548004833, 0.3982854105197735, 0.10427664771942147, 0.026154317255476074, 0.7441468959855667, -0.19112145408133102, -0.8501011778966554, -0.3900417244226575, 0.6022581890809033, 0.03560862066814785, 0.6745459461920584, 0.013259775914050476, -0.7841612287456459, -0.795047036631285, -0.3777661628933844, 0.3466641698046411, -0.19905445526281285, -0.11933059442951843, -0.32739287256669053, -0.10809180187706402, -0.9903789575739113, 0.2242012055328344, 0.3116546508827196, -0.7784413665873886, 0.3187298721865892, 0.7612735177660106, -0.8694957791765128, 0.0038821761130705124, 0.11648743592556311, 0.614195068673486, 0.17176486298401006, 0.06658562899522935, 0.004134531245185543, 0.7827961320883672, 0.7662113672596624, -0.687416876861733, 0.23074345202077295, -0.14434105884020254, -0.11646544073874177, -0.6931465936437875, -0.9543063034869195, -0.3719160191004798, -0.4193727482682099, -0.7049740843075831, 0.3782735769742833]}, {"b": 0.39480709769947286, "w": [0.14958861974517457, -0.5483370805379721, 0.6955317244464676, 0.4428304132074663, -0.3228031144761039, 0.0853566404262942, -0.44261227575247397, 0.7559440073788728, -0.851428505535067, -0.7847158537601002, 0.41236521923266634, 0.801804022384607, -0.5728083361046068, 0.4111882605025996, 0.7805697559776026, 0.6077831727873186, 0.5896932580140202, -0.09985035048059188, 0.06950270316800977, -0.8340691175954522, 0.05748937243675202, -0.14346938736715953, -0.9093564504101781, -0.33364585439694405, 0.84227656170734, 0.2710635385463376, -0.8276237631290371, -0.015798234871337025, -0.7824641229829261, 0.6952042136540333, 0.8605373561336371, 0.13179074912919253, -0.2617311298104583, -0.5112664510099252, 0.730431569601399, -0.8605073514814048, -0.9034635128433732, 0.3105993854521003, -0.7977882383123966, -0.40417148348057386, 0.8370565113604529, 0.885463290177295, -0.9674219958754993, 0.7068465087807809, -0.8832271343093554, -0.826614929736154, -0.03049308121820893, -0.8623972583047774, -0.7364217540846623, 0.9775719994806098, -0.9000428486586058, -0.302715320020577, -0.37224005887960976, -0.2652551266585799, 0.7034382396471892, 0.822927385458776, -0.960072567146063, 0.2910116781493042, 0.708710108335525, -0.44181493465856136, -0.9804122035904128, -0.37422121017394594, -0.816958238160409, 0.634771729181455, 0.041092534583420104, -0.7699155952080377, 0.7011040262528674, -0.40583808025018797, 0.8232016041109098, -0.02398091645042146, -0.19615736439286702, 0.42832588356978785, -0.35000757053628284, 0.11126416051230242, 0.8837709049411446, -0.3782873439691772, -0.6646895776389274, 0.46286693776524235, -0.44344192961684614, -0.7699300062469134, 0.5302821613643545, 0.941572828712189, 0.4265144107860661, -0.5430125973244673, -0.7591214710187673, -0.45051073650389095, -0.5014251021511249, -0.11082441309590241, -0.1293290897061814, 0.13892337605793353, -0.38596336987364244, 0.24574608993569802, -0.12000866166579387, 0.8629016735633794, -0.9127412198226961, -0.836781314615993, -0.9361155247182462, 0.0009443887425077957, -0.8086465672980887, -0.01621590764936031, -0.533568835166601, 0.007996081342209223, 0.8381116625937, -0.846315138850825, -0.8619332684555729, -0.5675132885347502, -0.37531020525636793, -0.041867383734053965, -0.28660422217734216, -0.4082063386193999, -0.3877342366245682, -0.0728887314147102, 0.10600599776270303, 0.22170789868939722, 0.9404821391259581, -0.9399381819990549, 0.2737430564614417, -0.22631968225323473, 0.34631000890055175, 0.47393657393209, 0.5215264522079448]}, {"b": 0.16892235195603833, "w": [0.5737945704554066, 0.4282371643328251, 0.7953222733764465, 0.2770931962027394, -0.5488225171036154, -0.023990465438017444, -0.5221340723178052, 0.2734227641301139, 0.31103002041896644, -0.6928605397218774, -0.6642172547732068, 0.4982799432503835, 0.2418441143469967, -0.709232248447649, -0.010858767076989205, 0.26046656488706027, -0.4521268460624804, 0.5062356503637981, 0.7121846855440215, -0.0960601386754607, 0.307655684101128, -0.47654991804355795, -0.15449350107021953, -0.6758137563470639, -0.22741722580295293, 0.8281584189004179, 0.5702427045161509, -0.2085312482051537, -0.5612970780717315, -0.9526960222703487, -0.21985361146246007, 0.1636475252540468, 0.9993439947090872, -0.050151254982801374, -0.021860878268149753, 0.25102595371452474, -0.33293282306019667, 0.36451053529809974, 0.6065509477621209, -0.16785773159238127, -0.8042503089224033, -0.8976304855122819, -0.911484945323322, 0.057939839413576166, -0.3960313852157564, -0.8252409045105698, -0.0927273722053843, 0.5755081948616338, -0.5285420244104022, -0.9220947799884296, -0.7135502888474632, -0.0650154363700995, 0.252589889792294, 0.9600468016060026, 0.056723335069533753, 0.3165571228086046, -0.6327414808843945, -0.8625661562292433, -0.9148390166724278, 0.14101107294167536, 0.7325767224410054, -0.4377657246625166, 0.027955268886598716, 0.17350671272986995, -0.7566593816225637, 0.24686051488325567, 0.4634341223426412, -0.8383494856928313, -0.2815021400792743, -0.17839125783403564, -0.4878453145147008, -0.09001590099235371, 0.7224848794391432, -0.8536716546495702, -0.11470635102400295, 0.9554622631880538, -0.6566053037560029, -0.8495997833912232, -0.22409647914147568, -0.659520853841761, 0.8001601503205897, 0.6146413364836396, 0.28753367469989444, -0.0664490793298953, 0.8117239257476276, -0.3154001471589314, -0.24258015554043122, 0.024127774265947588, 0.11507951924751891, -0.1971742448906173, -0.19867806014297895, -0.12574276251554536, 0.4754167922343209, 0.718258119388496, -0.673553309923743, -0.6708285668602636, -0.8052625076462407, -0.3230216922404858, 0.9644478439549702, -0.8428449683664678, -0.7767691718627097, -0.12417885402319695, 0.6128609565176135, -0.5024238607428986, -0.14084244847656155, -0.96717409033593, 0.2165881398257663, -0.444837313206887, 0.4783640298279448, 0.9430652758432607, 0.6706408408318343, 0.058730333222424255, -0.7086469707604277, 0.455579296506619, -0.7463509070478378, -0.8396604261885348, -0.3622514218346289, -0.4501842187292162, 0.5829913037035916, -0.5284886392768866, -0.2628997466810603]}, {"b": 0.8588555796387134, "w": [-0.638369466809102, 0.3154912450117022, 0.9194788908199563, 0.028798300004632127, -0.4077396708491514, 0.42717107159156065, -0.2802061531288751, -0.13682661312439892, -0.8138479822199012, -0.5405826684791168, 0.8772494731952096, -0.919301044251436, -0.16104953512776476, 0.709917798590705, -0.19238193438174234, 0.8336230229314976, 0.40730159334990756, 0.13674880309803106, 0.8311144337391316, 0.47022189080890997, 0.1968296381528909, -0.858514368349736, -0.5025802026791715, -0.3274916099121288, 0.3853733780987425, 0.17817952761203282, 0.24593810236001135, 0.6562270178214116, -0.19664458353982245, -0.8848966580616164, -0.7054618388221912, -0.6697187883199665, 0.5094845033114339, -0.4821369899633874, -0.5168411244633038, -0.46432318374645587, 0.4299432801110685, -0.7567616620989408, -0.7045838544962488, -0.04633295129927913, 0.5688824009306994, 0.16874628708621664, -0.3656223950139552, -0.05122319370981746, 0.27764582360535384, -0.0417798789021698, -0.5224993287472766, 0.18866513361822723, -0.11473925032059484, 0.47631118188412547, -0.191373391315522, 0.31580528836917887, 0.15250534295462947, 0.8863471497209412, 0.3751007432719924, 0.5707428537381636, 0.37797435192160456, 0.0036843952935351363, -0.7486996460361333, 0.9833151954444457, -0.6517644522956798, 0.022913277808050747, -0.6633550391799645, -0.5560064480916536, -0.8145688294235414, -0.1707898315594254, -0.4116539722172263, -0.4510335016417899, 0.1294179737392369, 0.9988429840386723, -0.49932018358654173, 0.04759342483072361, 0.5320973446581392, -0.061842975668735534, 0.7787805007975555, -0.5850612189258125, -0.8200832302613992, 0.9698541069455349, 0.2496004794846769, -0.8848518963555685, -0.7725383676084641, 0.6845154456593208, 0.6265087409840433, -0.4496664553320353, 0.24802476427201103, 0.31059213249323425, 0.11498622814239101, -0.4415546834545956, 0.164721934884124, -0.4726043982305592, 0.9527171211666909, 0.0021716955022963447, 0.8099944969639241, 0.604678517220284, 0.9170379931310728, -0.24120776814815703, 0.5117586456946555, 0.8542241973906557, -0.2829142633892896, -0.3256795275046477, 0.31597089553329916, 0.9510873477158077, -0.20212858724639227, -0.1509284403960358, 0.3701960716729105, 0.8661024268496897, 0.7700489519009277, 0.5760509367872952, -0.06944823716748139, 0.45633608690580196, -0.9909793647822294, 0.18910658223784876, 0.20171416331432068, 0.04775672506816786, 0.312476716600699, 0.5014319781414294, 0.25066999749540825, -0.6130435019920222, 0.4481078867135402, -0.7656055303662419, -0.6716944998837393]}, {"b": -0.8858768907047387, "w": [0.6858831555785316, -0.8868184607444201, 0.06880064527937879, -0.26267104457072676, 0.6051927451780879, -0.7253145856650582, 0.9401292679095765, 0.11847417430368945, 0.8104369276021721, 0.7839150000255839, -0.39675664686216877, -0.5791523340940425, 0.1510898085846033, 0.8772748192826607, 0.5535710249788717, 0.36447673373348843, 0.8922492727901155, -0.07626404149237631, -0.2016452487297471, -0.8467632845868076, -0.20321177017474823, -0.8483054704670325, 0.060169695865548434, -0.6065931891891856, 0.9030326226146328, -0.2958958286235609, 0.9081137134101953, -0.18646353626899193, -0.7817722702145007, 0.27715709383537, 0.9054773467244728, -0.7585052667795618, -0.9984222111483025, -0.13150628268253572, -0.47684107139790344, 0.6284672994164238, -0.9937638009835599, 0.06407393868302719, -0.5784912867584835, -0.4673267105645245, 0.8437826196173683, -0.22392426339573812, -0.32157515167421846, -0.7605309159570541, 0.47333844688913107, 0.30592105459966157, -0.5524050826827476, -0.4986095698234807, -0.435896228613301, -0.3495239487667714, 0.41064040849043093, -0.3181075549412675, -0.7638941259161389, 0.043691624149100904, 0.7323494555941166, 0.6509121527665076, -0.34916535193496145, 0.19911539691077818, -0.5570724414783799, -0.5603970917205301, -0.9120788477442634, -0.856370214458221, -0.5009579518706408, 0.02149777314053547, -0.32267567769351224, -0.6334737183958881, -0.3532894808017717, -0.2402751574690829, -0.7092779659026649, -0.042034741523337305, -0.20147367114384981, 0.21814369102684905, 0.8295637203904145, -0.8157738652856052, 0.2679825877386932, 0.2661422059766747, -0.6920427521719896, 0.2995806039480178, -0.6359169758878189, 0.30566330219210625, 0.5905921265275562, -0.29624692454391455, 0.3520302794575223, 0.9902744130965759, -0.866776014544038, 0.39404470252771406, 0.026646402794983315, -0.15715678084662632, 0.021900471320468684, 0.8723149351346786, -0.12317529216540901, -0.1173896167872095, -0.1820561677865371, 0.16342388602109814, -0.6533387550740459, -0.9773607278396332, -0.21031641362462272, 0.6290165543729804, -0.06810269483350284, -0.019587993932923542, 0.077509037578535, 0.3045777221121704, -0.21487593181212206, 0.19707622450219398, 0.4127537545707092, -0.04263138869265326, 0.12853432424070288, -0.8826399672621053, 0.7684588701667348, -0.1170850825171621, -0.2711528195760835, 0.9558569136532995, 0.20383811975820776, -0.11846308135891781, -0.5303297963911706, -0.8895701813993804, -0.704941955566716, 0.9508943462932016, 0.37493148187144476, -0.01589152794275961, 0.2756427563781021]}, {"b": 0.19260260105413707, "w": [0.8874097687421305, 0.23525563379426617, 0.798412505796533, 0.03163364011550802, 0.024318276742674068, -0.6608614263108197, -0.2115173533064083, 0.5899769161129882, 0.3973662580329884, 0.39678351841210246, 0.17022169223936667, 0.3260034307712971, -0.28258259346328807, -0.8401624868723054, 0.6684338280894682, 0.2704817979855263, 0.4826948733104952, -0.6130792822307223, 0.3033171119700133, -0.002433419957749422, -0.0799672547237471, 0.6814842640519709, 0.6127997671509808, -0.5908521333030663, -0.6836266492911526, -0.281534137733658, -0.022305709558721767, -0.12168023702396136, -0.3839385991766897, -0.3406582184274183, 0.7418657338974082, 0.06250472200069734, 0.12847433271458297, -0.27864728041190534, -0.054723301750630116, -0.5474134325333144, 0.237700147043842, 0.5481921835964072, -0.732328147093626, -0.7503559043367352, 0.1725407661457834, -0.2741869293038446, -0.9865857939556513, 0.9363448229917608, 0.4172193453576989, -0.4213385888957315, 0.07850792484761038, -0.49006417498015886, 0.18204594797644397, 0.8395883451078947, 0.5015666606903496, 0.38035739719385697, 0.8985522593950006, 0.6815259708224859, 0.29983841865273586, -0.46998734258599684, 0.27922073017742655, -0.3234253210584006, -0.6436125546241886, -0.6469596630087369, 0.9712015954443738, -0.27019251515824894, 0.6927353707054724, -0.2219142995181657, -0.25223947616935316, -0.8744598343264363, 0.011590989890799763, -0.26201209840703754, -0.46351408422005824, 0.8424928798568265, 0.1304629326326936, -0.3102007778131042, 0.9638152577749275, 0.1254300617353481, -0.19417282215042353, 0.17884173003724357, 0.6495295606221556, 0.2143187651990619, -0.45838438939006365, -0.672077594052028, -0.2639390499096448, 0.36413393812228323, 0.92900622903286, -0.9069405568070363, 0.3735027521701193, -0.18041364041287225, 0.9114118931628241, 0.7599321764860387, -0.712263202502919, 0.2629754577253478, -0.5063420675897001, -0.969172833055878, -0.12598557739637117, 0.8559458026485092, -0.8258940661157563, -0.7433909835812884, -0.07316503537130001, -0.38182239116789574, 0.19213868985000881, -0.0670040351380723, 0.05325829056082432, -0.11117733843197741, -0.08041987338337532, -0.7381619535823771, 0.7289846132992199, 0.025073814708533933, -0.9745495737711993, -0.5229995104329723, -0.02906829488202416, 0.09136070414845007, -0.8415337390923001, 0.17947582984055388, 0.04225417892161263, 0.7216437522279013, -0.8153391171673574, 0.6165608002209235, -0.08027793656926875, 0.16232058657216064, -0.09922632941938718, 0.09621820653331392, -0.7133104343569601]}, {"b": 0.5255582804425485, "w": [-0.7549397698253772, -0.683078591880129, 0.6800596889556163, -0.1022851456763926, 0.11355471253617622, -0.8257456306921203, 0.4090329723609656, 0.9556900246462035, -0.586156575722574, 0.3388981641423361, 0.24227093336340857, 0.6688855458267196, 0.4016376163257178, -0.6684882672033647, -0.44480537432909495, 0.6363064456730797, 0.9058079336025977, -0.5593121546977667, -0.1545448884375229, -0.7691849194542413, -0.18314832683696802, -0.5720489768500269, 0.648155912404268, -0.3996074949771222, 0.5804425260252231, -0.8919809405599439, 0.8586210506898584, -0.94959222893679, 0.24305699309698925, 0.6956714633554608, -0.7133671083083402, 0.49770815719136174, 0.001222425051353504, -0.4795201846396855, -0.29700807031924387, -0.4078216332569317, 0.9098262783712678, -0.7012902640193781, 0.45298475440988173, -0.8007268047606684, 0.6988656333866401, -0.23228651167827197, -0.2007742362802626, 0.06454658780676059, 0.9234801481919144, -0.530601037830688, -0.02381358747596063, 0.32251008447828355, 0.7303936096098198, 0.2295152917384191, 0.7756300299891485, 0.22006890484677522, 0.6710766517604885, -0.028848655552166758, -0.5937493427966909, -0.8752683256664984, 0.11465572994147033, -0.22724692101226052, 0.11949861527966932, -0.670513488289487, 0.09731820956730937, 0.4620803602917054, 0.5289306371394398, -0.257031368364562, -0.3838320892218514, 0.604240195733782, -0.23053455992080396, -0.33818362677611624, 0.05798725498022894, -0.1889146062602196, 0.08460773587878205, 0.7883114754684017, 0.1198949335246906, 0.40633011593835544, 0.4535966321026834, 0.36304317911335304, 0.7826016154732263, -0.59300603233752, -0.7579273049957203, 0.9036088373092523, 0.4881201605511185, 0.4073313522352824, -0.661533212838741, -0.9830982610717598, 0.16884030928084748, -0.4729143408087779, 0.1978966478851727, 0.9585930997490462, -0.5455080533837757, 0.570078609496508, -0.9358080760871008, -0.9485325586184135, 0.22676559430968732, -0.7940212523004859, 0.4372248886804144, -0.9723434081851015, -0.8474558226154467, 0.3434075262015326, 0.6090904784203446, -0.4223030975082181, -0.42317383197799696, 0.5518111092757825, 0.5561849436055826, 0.9385684412773267, 0.11995127328353056, -0.6640122884534012, -0.20046255900649834, 0.28813125046627097, 0.6854816999585553, -0.8638130083192517, -0.40217830598318827, -0.2571812806537186, -0.9449556544936735, 0.2662505361635821, -0.8196192421910504, -0.33215810599520235, 0.2009799574774047, -0.5523357805790061, 0.055644392450935554, -0.5151506233590768, 0.0007202609272047855]}, {"b": -0.3712249263559835, "w": [-0.40561796256950267, -0.5464104985277547, 0.0438168766602708, 0.2503837702155942, -0.2635083576802515, -0.19149407380059258, 0.8697402197745978, -0.6528707018439193, 0.883356256371711, 0.14373077277398716, 0.08449954814814689, -0.7591280735406667, -0.9867501121069981, -0.4002640230309271, -0.6139811837571627, 0.15144686620852954, -0.7861765358395156, 0.21316429665605408, -0.6090436153369709, -0.6285156053621632, 0.8431372780107509, -0.8822454855387647, 0.40352441734196765, -0.733024932147875, 0.783852440189718, 0.4409076416655103, -0.36511901877326536, -0.5194978802870018, -0.4925926597138428, -0.49489853301758435, 0.664157604711904, -0.13580140196447266, 0.5893041025753836, -0.6475217757304952, 0.0070578930955859, 0.09544998818377226, -0.5008274208776964, -0.9366230632517052, 0.9166427180630914, -0.6415148090049558, -0.5894173912751488, 0.17559605595885097, -0.5211161582260919, -0.05732802369729902, 0.6351728373996741, -0.4509994117217364, 0.047870857080098056, 0.01883035098054231, 0.5867266147700507, 0.812547483009654, 0.49786274240896855, -0.9710924767787943, 0.21355030890173232, -0.10795773524302921, -0.07634822586936407, 0.22618687503914536, -0.4732702552626735, 0.5260159704557978, -0.01968965634589448, -0.6290120556725456, -0.5839900375391769, -0.4183504304424308, -0.01916575376830257, -0.6431296411396772, 0.9414947733409539, -0.5416209399647005, -0.5252890936379173, 0.6994765877880655, 0.4965163765722069, 0.7184255866673201, 0.3239623092949211, -0.9757113983128198, -0.9386488681587495, 0.5084867223271698, -0.4307310680882892, -0.9166335603429518, -0.41027828046936565, 0.6663332224977204, 0.5248718128076505, -0.9400750164286418, -0.022689982054835366, -0.4590810050505192, -0.7589479011627784, -0.8154912419843807, 0.19737110746966113, 0.7254112962496513, 0.6009229662499886, -0.6780753974724112, -0.6471877005828708, -0.23824352012391858, 0.44870650326584616, -0.4908181347525018, 0.6425711714128071, 0.4598223600524618, 0.030023842483471563, -0.3806507709922802, -0.24925020068672898, -0.4294346514619696, 0.9752098193775456, -0.9541200456538605, -0.25948284829259394, 0.008881541746448127, 0.22702415287625533, 0.13989548510744335, -0.7126343105721487, 0.2161258121120475, 0.581134032299572, -0.5556832386453874, 0.7390804336215384, 0.6637708097855815, -0.3720710410605985, 0.22320356950985643, -0.2808147332157609, -0.2898105597219196, -0.5243792429570047, 0.025776368811562866, -0.20897419515410376, 0.17248022529508789, 0.03443925580712759, 0.1749023084964061, -0.08294693592789835]}, {"b": 0.1295286161903712, "w": [0.43400017123452783, -0.9876780447851521, 0.3840514485577351, -0.9482586140783871, -0.18302910329459343, -0.7727100218719298, -0.47499812239010586, 0.05204439226708413, -0.06531296724686575, 0.4617814830218805, -0.880317016873658, -0.33457259499506264, 0.19761059968790495, -0.9466350517203408, -0.2880201685554546, -0.7669542312773696, 0.7183032114977255, 0.9645119701278577, 0.7632854425524322, 0.03771423755326802, 0.12089135651280504, 0.9103966478157217, -0.9058540267463084, 0.6107497163237059, 0.7183635928580772, -0.9693953251468228, 0.29064780626647657, -0.8352132300086865, -0.7755935406696526, -0.003840841473858214, 0.5994110109425086, 0.7372360089234684, 0.802831544053477, 0.4111822342177316, 0.19574160834277943, -0.6153518370828122, -0.9769073571191058, -0.1825361500681073, 0.8425312776498937, 0.1512543044375915, -0.11495703395801216, -0.12283749704866609, -0.6476553757807906, -0.6269780566322785, 0.2084739505967943, 0.20455854475928437, -0.1468417688677801, 0.9719787714490178, 0.6980305989104696, 0.42909109893561115, 0.006704471754545027, -0.8172978801030746, 0.30769587020693634, -0.952980756287358, -0.5471173800083475, -0.4826628473990058, -0.663950767122381, 0.2324013911543792, 0.46765350253477034, 0.16891123073235215, -0.394183097477403, 0.03021295243819111, 0.9160675590701599, 0.5319922980371785, 0.3630886879121378, 0.6345850143587974, 0.8273970755800284, 0.24469409703886336, -0.5077705852737595, -0.3498504829985323, 0.6027438164141123, -0.3155611258182007, 0.9895033039312533, 0.0197135754324953, 0.17176664315672707, 0.7494158058238114, 0.10691430567445237, 0.743176093028888, -0.010203367881180748, -0.45270222461548637, 0.382260237321971, 0.4295105146728866, -0.5244333808042414, 0.15790410264759885, -0.860098819752819, -0.2647848300670525, -0.3524671516924138, -0.5175306642060218, 0.12088889109757907, -0.5893733682535247, 0.16072453925944719, 0.5298038299571335, -0.9391389660089966, 0.9593484752008474, -0.2931895719886065, 0.4087094881742044, 0.8159982600151152, -0.31809804985238066, -0.8379981217385124, 0.24995540373237457, 0.2862350098813698, 0.16152620159831743, -0.3586342939312157, -0.0766491137761609, 0.06487155227983489, 0.4806505554418894, 0.7310469039559144, 0.8964677936267635, 0.7667445072036407, 0.5604724792345677, -0.03808672424303183, -0.27564009279293966, 0.6430277299870844, -0.837250328632914, -0.010655449291510743, 0.49371176295959507, 0.7595631953607576, 0.24756549493132152, 0.20299280384680207, 0.970773750261493, 0.27814729198523347]}, {"b": 0.8548575928280255, "w": [0.8727646795422335, 0.3645986293604244, -0.3610085257409268, 0.7849227132732237, 0.20244312816164167, 0.5082461188871019, -0.7906816456128823, -0.01010098813583915, 0.8121217991703671, -0.029499601159657995, -0.13791025720921368, 0.2756899659827641, 0.015463270807856035, -0.11567363879400716, 0.7031331004652823, -0.1852655546930011, -0.7869716243219296, -0.5010130877224106, -0.634994252484689, -0.43573114739083496, -0.8861647231783125, 0.48775630576433016, -0.16797541970065466, 0.2135195380552899, 0.17232622638920891, -0.07694689533849546, -0.6982979901348505, 0.05292667149264085, -0.2860082893325573, 0.4180327465635889, 0.298559920403455, -0.24316930498883216, -0.46124961174623946, 0.35769360513796733, 0.27903768763725023, 0.8569101532168957, 0.03363227400738533, 0.8265895138106931, -0.5660663567350817, 0.16204717729840268, -0.8034887654085558, 0.17892351918958438, -0.4143227479171694, 0.5082543464126055, -0.08093687357230439, -0.0996417505988112, -0.4152649571490268, -0.008992704257985817, 0.43219798071962057, 0.05766351164314587, -0.8412517475780117, -0.5570255880650676, 0.4978984661209276, -0.15292231630688802, 0.7068307428008305, -0.8565089137780066, 0.9690192070361898, 0.9758677974128156, 0.9258998613731437, -0.6096756797053937, 0.20829124225130413, -0.6390618747075196, -0.8771090573667313, 0.7283484949513559, 0.8238911820241617, -0.48778542526514973, 0.9796176407161952, -0.29095386533893675, -0.4813032055257851, 0.1677638952677829, -0.3436957275011827, -0.27605583968023484, -0.6276646846178837, 0.2032771988047013, 0.7889487585937993, 0.5599525545410269, 0.4079373471135488, -0.12278950583906623, 0.023611894971528383, 0.5956026543081618, 0.04313983213589179, 0.5900045489161558, 0.5903643965360099, -0.4844325459960898, -0.7429959049723247, 0.5173090516309189, -0.8416089527707928, 0.5337026069283528, -0.9150656633824377, 0.15156747157577177, -0.6218220665563887, 0.5962507770188992, -0.6122759604772368, -0.18054076874232158, -0.43690825087087864, -0.7366829010822125, -0.595674073477449, -0.7937575463692146, 0.5672215509318452, -0.9242471272748405, -0.9023820961585505, 0.09160175860520425, -0.5122909190536038, -0.22779765850156175, 0.6902842994113445, -0.7084988439742812, -0.6234758852781705, -0.6146201464195755, 0.7471557106236921, -0.8150570358090055, -0.7205887021551987, -0.9060270691053711, 0.7138997744872426, -0.3101402486003777, 0.25043154260206935, 0.35440716676631534, -0.8739763373817768, -0.831317417054469, -0.8180457142693729, -0.20033962135917438, -0.9839768510334974]}, {"b": -0.40644267696907477, "w": [-0.5188585502865501, 0.655443185018334, 0.38680578688381173, 0.19246752605506307, -0.9087658734364186, -0.08115985164963092, -0.2697660275810556, 0.4805837552866301, 0.5635677007344466, 0.27204299914189733, 0.9461849215857037, 0.41523220749657264, -0.7654684300401544, 0.44798677672302456, -0.5518059404157352, 0.2501322645856794, -0.2969565539029799, 0.7664189662644405, -0.6882968277073238, -0.37056193143753013, 0.550309792926094, -0.36918358103386306, -0.002911767250768685, -0.8649632368663198, 0.6425163749760237, 0.028201790279865913, 0.3602772813409836, -0.10149109672955725, 0.30610075799039027, -0.4691265802079989, -0.43002755273103266, -0.06264629355569706, 0.4952869404017264, 0.983343846538294, -0.17452363075065924, -0.04914354533846277, -0.9945135768828108, 0.8272266363961072, -0.7420526909469336, -0.14424037699790673, -0.9489284624048291, -0.45994092851767254, 0.7251859736081777, 0.1057802164438768, -0.7523726881526489, 0.2957888972560707, 0.9466640990232338, -0.6896931432664695, 0.3282047223353486, -0.7866568318549283, -0.6845912145151325, -0.3141108526337226, 0.7401320167985268, 0.33736637476711473, -0.3993268523131259, 0.37314258228055297, -0.5364132455324369, -0.6834016129147502, -0.5483136823916632, -0.4698143104629615, 0.4054444032774984, 0.9965363600124939, 0.10335840513733974, -0.49021925390475074, -0.04305989295813795, 0.6906242523549113, 0.05342275530606555, -0.7308116192332157, 0.30041512894991707, 0.2054761116116144, -0.3324780793990012, -0.033679398074964124, 0.5444892372966514, -0.9105677379788406, 0.9076714625489641, -0.9177460604711045, -0.10875548756417941, 0.3209632130175015, -0.03507492397352772, -0.2560721788863922, 0.632804882954038, 0.4237910862525798, 0.03641074130571531, -0.27754849382263314, -0.16719900587167835, 0.020254078280091514, 0.6921785190958847, 0.7768590184566235, 0.14342217479983166, -0.4577555271623035, 0.09241052910634756, 0.3734053044771797, 0.32503836483990667, -0.02459765378876158, -0.6219020934048831, 0.09564353757818389, 0.1967038598617481, -0.3432511511122128, -0.4729869554051238, -0.3470094226292162, 0.27573334637593216, -0.8491773771547464, 0.1921014889225221, 0.842750054376326, -0.28499926152508825, -0.39398435877862004, 0.048974153322241865, -0.24109163124806376, -0.8797938325800603, 0.5884538487574595, -0.19906402154017186, 0.42027521982513316, 0.3078655896393705, 0.9747499604397163, -0.4475327319159166, -0.9776367408632765, -0.704301832508329, 0.04067225355175763, 0.4078762313554649, 0.6058694587101052, 0.7106404688666177]}, {"b": -0.16471964734776368, "w": [0.2127433816982589, -0.7850597656294578, 0.9547180011732219, 0.1398654038070799, 0.20065124658214795, 0.4986394761451993, -0.7058592503120689, -0.034553426718876734, -0.3258190570831081, 0.8823439156242454, 0.14112158654778728, -0.37927239603850116, -0.46739623665599606, 0.0020729777188504134, -0.9491992930099182, -0.9049437072871231, -0.8978601730722009, -0.6290853493857493, -0.5851784373421944, -0.16480689620820876, -0.6129928616093625, -0.10715403922577459, 0.4781685268696605, -0.5535291999043126, -0.10744697358482891, 0.10351809131744072, 0.944499810322958, -0.37864132499811287, 0.13107377485959715, 0.11141705500049026, 0.07221745368400301, -0.000495632963011694, -0.0062953685210493165, -0.41000996600371176, -0.24919892706070734, -0.1711762402199939, -0.17047129460410604, -0.5127487579462331, -0.6964713734653001, 0.7561303491347147, -0.5035075141551362, -0.7481596629741335, 0.7396794387174801, -0.9616747696999774, -0.9656620301678229, 0.6641867632606946, -0.3240326348916054, -0.7290805038245531, 0.5369231677128463, 0.21194993633897352, -0.6326648720208965, -0.021631622604744383, 0.11981188514284648, -0.6624879794478826, 0.9421470434499495, -0.17158936290600124, 0.1787122775648004, 0.4703935191263886, -0.8042595887326476, 0.709659316169408, -0.5058432413464038, -0.3759176847437913, -0.8082223431953157, -0.684492773177469, -0.44305697335111094, -0.3699871529915104, -0.6734827244532327, 0.7858326885115954, 0.1963366213659992, -0.6317606461608263, 0.6197103217783646, 0.5620143080195515, 0.4162080207863019, 0.9615786140106148, 0.8484343312037432, -0.8524413041915517, 0.7696356765785577, 0.8956379158098704, -0.9019987365394257, -0.2893203753779252, -0.8362788161398236, 0.6721194682192515, -0.013429541693476654, -0.05090325758274138, 0.3535353948733526, 0.23149536412289717, 0.050017804071023964, -0.06002377952050986, 0.9646314055518097, 0.6612563743167807, 0.478772758598514, -0.036667759814251744, 0.13519149823788745, 0.028020018146277303, 0.17735369094468334, 0.6518460819863654, -0.011926519307182248, 0.7007834406938052, 0.8746275239707908, 0.567822507624433, -0.337807234152655, 0.5238462883774986, -0.34682705214866716, -0.75047570853665, -0.609698373683383, 0.45612208471516036, -0.8640646993746119, -0.27575703329183665, 0.3096091499645093, -0.9549062824132082, -0.9543851476899692, 0.8261122680201145, -0.3344490031432772, 0.6917240204451743, -0.7828289362401881, 0.2127302389656366, 0.9379766010054973, 0.44553569492276646, -0.8326610172789979, -0.687066467098268, 0.7314894925917355]}, {"b": -0.6700002676139549, "w": [0.4691312253518039, -0.7345205947407885, -0.8603908311651747, -0.2735292119909527, -0.14277265553379492, -0.9461877209245126, -0.07780422701201806, 0.9013876308855155, 0.7168855245683934, -0.4833655138205948, 0.26934692885491285, 0.28528016815063073, 0.3854552355650737, 0.965509857332298, 0.6769901969442647, 0.7961042642802574, 0.6590211924010472, 0.1834033456056443, 0.835387397815871, -0.738314030681448, -0.6586721211590851, -0.5974017601261041, -0.7154634632594284, 0.8928028869752749, 0.6638614106716338, 0.5487994786144232, -0.46740540681827203, 0.10431648346913353, 0.08908858220709392, 0.7248960280494419, 0.10299899352220154, -0.7027677786942015, 0.9939556357594159, -0.8885693358553566, -0.39543403222163276, 0.5983388270173933, -0.3883807273839315, 0.968133714729688, -0.7147041385400641, 0.06977194628444727, 0.7624359124107472, -0.6856999678536442, -0.7675045820954733, -0.2991902519211245, -0.5837715035139697, -0.3747289360459789, 0.03813371266461682, 0.12660892735907958, -0.3879248404146207, 0.7282368618606172, 0.32616176198463465, 0.016317028813262358, 0.12713544235069363, -0.8703371715870654, -0.07205246417400568, 0.16433454443600204, 0.8381621368985952, -0.003350379096361233, 0.165507757490424, 0.10604708356138026, 0.9542685869950187, 0.6256190661582346, -0.22594095009267035, 0.22385002187659353, -0.6096272417180733, -0.10214645402090872, 0.947032759143823, 0.8298000982705134, 0.567852264587823, -0.30862927744037605, -0.14415346986926836, 0.3702444253837387, 0.8252398393729377, -0.47440578673297273, -0.8321449296658128, -0.8866137827181495, 0.09550032316459456, 0.9147740520912822, -0.47384048887727603, 0.21161584752386497, -0.39958648030495975, 0.7371910223652274, -0.9800204081481532, 0.8080922937058281, -0.866689812554069, -0.09067014481156255, 0.6132294001231049, 0.8229030889102604, -0.875261600690143, -0.3474203165296834, 0.14917441545946186, -0.476951625134336, -0.2811529881973063, 0.7500298640653422, -0.42776432176860335, 0.19997538177682284, 0.24466469690396764, -0.7414950127018605, -0.8676068271483346, 0.9697265125706707, 0.029620736477480758, 0.6329333590257962, 0.07620147731962157, 0.23289022219523337, 0.382015192865815, 0.18933292529215118, -0.01879934731687638, 0.7044559147360363, 0.9579647831470972, -0.9597537940063463, -0.9450188442177263, 0.5505306712440585, 0.0708176885736331, -0.13312865115034556, -0.15566605103947828, -0.6507942949655152, 0.107382902328101, -0.8375530468654575, 0.1524379120929058, -0.09775787532986979, -0.14610823940948658]}, {"b": -0.3878441577042486, "w": [-0.7400682947126354, -0.32933799705427114, -0.09083931796099254, -0.15328093980561408, -0.5486845650554839, -0.6736149918221936, -0.4220814253009606, 0.23424731188480452, -0.40140493418023704, 0.4695938330656373, -0.29776020823630156, 0.4590595240288231, -0.40933989194683934, -0.6003315963291305, 0.004437718401587495, -0.9521853354424206, -0.03596344841216581, -0.0911796887466445, -0.775497081223113, 0.9700955057501837, 0.826807800675301, 0.5700683656950192, -0.2951542965085594, 0.5940243942533545, -0.28666348580561674, 0.5584721850693064, -0.8056501710265764, -0.08485269068046916, -0.4626173221595198, 0.2423029088785693, -0.7479868368305034, -0.7260063453906409, -0.49853841430277, 0.7950802058136026, 0.5544578875137978, -0.28069892417318565, 0.2621807812264248, -0.6984788546042535, -0.8180999409115413, 0.0785703676800722, 0.6612307851138259, -0.44394172951902844, -0.2960052272530178, 0.47956605640652494, -0.5512189079079235, 0.6904254346420597, -0.9957047120871012, -0.35606668894085075, 0.3233535952236397, -0.6785726287444189, -0.9307729357253673, 0.9510261965510729, -0.9794800251814231, 0.6894883113369397, -0.020399160153571627, -0.20702239958594748, -0.5959770472705261, 0.2032835288999486, -0.7022243034072271, 0.09994348346796333, -0.7784647422124671, -0.749372725282818, -0.2938311749750042, -0.06886778750836235, -0.6038680178390385, 0.835734345450744, -0.3371860400829281, -0.6594532920455161, -0.0001821802946040115, -0.1296153583936639, 0.747388269514162, 0.7452561137180815, -0.6109712318636917, -0.46769786456459705, -0.10804868483249064, -0.09538173937100836, -0.9205702868761734, -0.9627508851371696, -0.07218567423920308, 0.37451146851743045, -0.22881160288619284, -0.7048206528487211, -0.3897891780889442, 0.4959173396081873, 0.1903018501894045, 0.05858027229404028, 0.09472122544385408, 0.5454497900846063, 0.8932203155987084, -0.9692629707224132, -0.4354746296693035, -0.6945662464132625, -0.7445356361904254, 0.07812102398639831, -0.6981846249430321, 0.2431313032753546, 0.7775238203228181, -0.642543276733593, 0.7029437726823398, -0.5231318535082388, 0.3063058695052092, 0.49902467199650125, -0.692096240202829, 0.9971942294993563, 0.37312250202397035, -0.31370982216181753, 0.3339686463245757, -0.18499089207349217, 0.059486295934327194, -0.13918964610884754, 0.617676185242124, 0.2150120069428496, -0.12129115946554725, -0.7772728319735904, 0.09631227271497367, -0.9065177266038564, 0.7172829944913204, 0.1717470034011297, 0.9732228430470304, -0.5337503754377422, 0.14597028865989503]}, {"b": 0.45429409732791237, "w": [0.44241281136370825, -0.30828672712379923, -0.04230124803320412, -0.41016982713103145, 0.19206962145170192, -0.1424502155623204, -0.5908209158234139, -0.7141619871770835, 0.4054747384592594, -0.7196467572546248, -0.12711878128302126, -0.09303933142288057, -0.055415467084541016, -0.1454083035535863, 0.022471780178423696, -0.5433118713278138, 0.4900312070553517, 0.10535954516355868, -0.6024790616847817, 0.667968831249327, -0.6308357897803953, -0.8680324914694582, 0.14981075236085867, 0.9189760900117521, -0.6620280046140514, 0.472423677399898, -0.8661743823539094, 0.23260755600788488, 0.8606942592598592, 0.8126767899193437, -0.9249389421865684, 0.4563063657307742, -0.06925994227352228, 0.1456854409357653, 0.23478228958039038, -0.34248413286555013, -0.059176510743906396, -0.8331531221801871, -0.7106111353941884, -0.13913196596666633, 0.37236938013665366, 0.04748745882143224, 0.6442000040561744, 0.7592958482142664, 0.4305572564542073, -0.8164844911332656, 0.6268921948555513, 0.022278314370324903, -0.04788588701874223, -0.018701677962476237, 0.8622447362335277, 0.31483278258576153, 0.6257889434975379, -0.9517134881991651, 0.88140721177426, -0.3454017482167202, -0.9304620915857076, -0.8449484404294489, -0.42053926616945625, -0.596224653007228, 0.033180296830315426, -0.23728484077497636, 0.56523353397738, 0.27932674311302197, 0.41869845633390934, -0.9323790808267018, 0.23893573449500494, 0.7686932809357754, -0.11615831846285052, 0.7905431128753149, 0.9774552651407407, -0.5633693718464723, 0.8324404032951545, -0.01685643280137844, -0.9712229658910942, -0.22784924710168575, -0.31253836869373575, 0.3155317644289459, -0.008995940542268821, -0.6516646599806322, -0.05898432335632657, 0.639441073557224, -0.7807998679185846, 0.8925690166134796, -0.35363972439298186, -0.22747397736373243, -0.3885163523054036, -0.15614320367372803, 0.8913136918394489, 0.4746864345268722, -0.060053989819792486, -0.9310971126228555, -0.1395616642365851, -0.7968336025569756, 0.3347412225864921, -0.8880595344953816, 0.037665282745106055, -0.147172429284524, -0.14077186223728, -0.742476885945484, -0.04382803227400187, -0.023927374726793404, 0.023460850533068678, -0.40100538831941757, 0.20354397577391103, -0.7071971751763169, -0.30873525864049545, 0.2538328522317681, -0.2836004095191682, 0.04965931351693431, -0.23179440590990041, 0.35013576139880165, 0.22020949373245458, -0.35865616263733724, -0.3145422048725943, 0.2769339319378259, 0.9454033113614406, -0.24135177040312028, -0.2496317250032647, 0.9771323007955115, 0.23025506921564398]}, {"b": 0.5437154535970914, "w": [0.5717625817664125, -0.43614531042537186, -0.8201251387630584, 0.359948696266871, -0.22605346728478837, -0.3256001852332824, -0.23337468739385359, 0.1876675535863559, 0.42787537186581437, 0.44850306093687164, -0.1712438477060063, -0.7534385894513176, 0.10647330750328621, -0.39729524211748, -0.9886131457587863, -0.4248542697926592, -0.07047294441136942, 0.773174195078262, 0.9253518672336345, -0.5489695765495144, 0.26646236665878265, -0.12802268449211196, 0.653976516029213, -0.22896884026777697, 0.10016510409486368, 0.41752218779244465, -0.33716607988140557, -0.6185078078003055, -0.4696856786338339, -0.21696413980952456, -0.9480895638035978, -0.16276122760664435, 0.5852406805424781, -0.8815863430055488, -0.4026600447129911, 0.3156315078289733, 0.8646882441122654, 0.5263022430773352, 0.8300073558964756, -0.8315107821158234, -0.6738563953067862, -0.1794393772288314, 0.6647726384890804, -0.6434129036088494, -0.39729003972038357, -0.7298362990656528, -0.8199905422252218, 0.052888252640354336, 0.4305257068489774, 0.9707261409240453, -0.41393028026738277, 0.9095847893335656, 0.34514192037138014, -0.7847398973503192, -0.03048751297458138, 0.6632676256870298, -0.11268483561541842, 0.7417389246506965, 0.24360604785982454, -0.8716239786657698, 0.07957920187523815, -0.8207776547287253, 0.42462591854933684, -0.36813325050094514, 0.34868532729079127, 0.6169474036361233, 0.9021377979790124, -0.1662823884918998, -0.15933191247036937, 0.844419979380989, -0.045420318322771935, 0.04312893746425073, 0.7668017815056731, -0.46562393984089634, -0.35408874024474324, -0.22845448198848506, -0.1443407303540507, 0.3462831583896788, 0.9652523579665098, -0.8355359261603272, 0.6546468459519941, -0.08171698359379764, -0.7116215879558538, -0.4551316593611494, -0.05890910093383711, 0.5440005412365139, 0.05574210837754534, -0.14293780363041342, 0.6494913996340972, -0.1693979899217417, 0.007780911859200268, -0.6813045368376696, 0.9020372502216281, 0.053359302073611836, 0.7292918659494121, 0.2605260788357222, 0.0860277466716024, -0.3035875067857656, 0.6769919076324522, 0.9922327800996324, 0.04681582697708131, -0.4691709157787496, 0.22342379390246392, 0.7451695897345834, -0.8082884778354222, 0.3034336656550676, 0.7921422047017688, -0.6984376213888186, -0.49109542818578156, 0.3807500538536521, 0.8714015241025983, -0.23174254803411753, -0.5996201175338136, -0.9038220184408094, 0.8475477119126873, 0.4073648559256464, 0.10313813225211321, -0.6342092205258607, 0.2554972971579277, -0.9533657243278713, 0.8067766743481375]}, {"b": -0.11586945215029276, "w": [-0.9118814997059965, 0.8570617025066476, 0.7150691672290079, 0.39450096486908715, 0.809140307459496, -0.8377297429037567, 0.23255362531533263, -0.3779507321471508, -0.9892988066943442, 0.2804220731880631, 0.42934780437591447, -0.2765571509664537, -0.7576342678410608, 0.2830735881184385, 0.35622934035544773, -0.07475186545787094, 0.15755569126010904, 0.5901249645915669, 0.594865671344234, -0.7816257394329447, 0.33092221088160145, 0.9021613215418105, 0.5822347806590349, 0.6767582893501689, -0.5795302234087278, 0.5376542542986706, -0.08117534981227, -0.5449546373083516, 0.3390103162593239, 0.1806038714502243, -0.986729504687631, -0.09910953015674337, -0.4895538996952038, 0.16359354531033943, 0.9675412262183423, -0.7196559407525045, -0.45278079241107494, 0.7483098251011748, -0.328424088000391, -0.7793934305090682, -0.917433225686815, 0.1762297483790729, 0.11837023331404728, 0.972863892978006, 0.7220741158936039, -0.3440881461878338, -0.36836889214361146, -0.7318308834419445, 0.5086077368122298, -0.5701631263711779, -0.10452429844315292, -0.03560619242218044, 0.535305098588511, 0.6987898915265545, 0.16181885722909128, -0.425389533243125, -0.8794836529658854, -0.7273425103077253, 0.7324522107526441, 0.29991359723250044, 0.41649358583711327, -0.5124237318957892, 0.24525140202436235, -0.056918833355254606, -0.15503482780739142, 0.5527438817225343, -0.3679330680585873, -0.2807974848753467, -0.18499481693390396, -0.2970673156672583, -0.9391558277657954, -0.03791018473907417, -0.32682527785260174, -0.7790514507942894, -0.874432992776929, -0.7972015101155914, -0.22984705254374327, -0.7599116533713128, -0.30482859233982995, 0.25360435243932855, -0.7553819732478966, -0.09771996316945852, 0.5387591993517329, 0.9098768496973542, -0.008261979063633223, 0.6457051057513343, -0.10146602254995152, -0.6846498662523224, -0.8330125937717519, -0.9574501951483723, -0.5666172635248354, 0.13410414625459888, 0.8809831827522372, -0.9830593130077889, -0.2606721321969847, 0.3429755920000914, -0.8475470601392785, 0.49360590374611135, -0.8508070094619671, 0.681645002941448, 0.6341629084407725, -0.22196607456394904, 0.9833484170227158, 0.6708724534032238, 0.008689582718655942, 0.7131526254675327, 0.9496474188445083, -0.6055355018730348, -0.4577529746948945, -0.38568857572812987, 0.5918382231768968, -0.381270051308255, 0.7350357927426492, 0.35598939435974764, 0.7729871700437727, -0.5403931997921236, 0.021340384242224175, 0.21299861948753818, -0.7496110810420368, -0.6892856179215419, -0.3345220476458284]}, {"b": -0.23319613951846474, "w": [0.22995730149560334, -0.18872999537217594, -0.0786760977256249, 0.9107832860037661, 0.12123873802222129, 0.5627543297427402, 0.2867627911067694, 0.09642232424311323, 0.10525377712986428, -0.04333135426934409, 0.8886416299085065, 0.2731937911668878, -0.23175592205360673, 0.8165189198346618, -0.16313008301838083, 0.2595361236199436, -0.41644411827707306, -0.5841837066087803, -0.3992937443368607, 0.8317037314181739, -0.24433510572630746, 0.9887220251491287, -0.8051729264007466, 0.0018003672096242596, 0.021909241824737302, 0.15969297318077214, -0.527229874904406, -0.03810175406083882, -0.24340890662314307, 0.07783015209477173, -0.8769206387349717, -0.9032937943863031, -0.665375365864668, -0.9626309183831365, -0.2507103555853139, -0.4714674541222661, -0.6945031421716679, 0.4528559547760669, -0.5824470857200292, 0.5469577540205219, -0.556744159157176, -0.396230816571421, -0.7008443535137834, -0.6413085862684904, 0.2430023452058785, 0.023623920760376338, -0.1123721352869873, -0.07829701634073394, 0.11354230978820062, -0.04833203669065189, 0.4462111305376668, 0.8042458227570448, 0.6025404500419351, -0.9753847681689654, 0.17879652734217633, 0.07887656582548708, -0.4256548870560406, 0.38145344922788027, 0.31489675776804926, 0.34222557674445864, -0.8280095946057635, 0.07011067927412856, -0.031914158469179776, -0.45415967102361, -0.6171821279485246, 0.03542335126588836, 0.5459470423562072, 0.5678568389744072, 0.4360199430257883, 0.7672200154840527, -0.5774280809133285, 0.7098946636065204, -0.7857453264613334, -0.8225322341641554, -0.8744709878830501, -0.1049908103657935, -0.185730657213667, -0.2092788595005901, -0.4258201595139075, -0.9980438247146215, 0.3516103899019267, 0.45130265361214383, 0.27264110863496827, -0.5351158239488836, -0.1422290620696003, 0.5369464597773572, -0.0015739197690174285, -0.5424263484109288, -0.7674304122039735, 0.4136482553671734, 0.4995470254159793, 0.6197199575800207, 0.43557869148984696, 0.9289992089294461, -0.29648878535348966, -0.24412162460878473, 0.4033896208003165, 0.08754356167331978, 0.9789274011166404, -0.8844073242122159, 0.2701380031326176, -0.002906346748358324, 0.49326555300065333, -0.6041921885249777, 0.43382425244247735, 0.16103746877664005, 0.3703987134385941, -0.2422292120103704, -0.012562282479350761, -0.445054295877066, 0.26854788425719844, -0.7730142972041718, -0.39188168244203103, 0.4989182305396196, -0.5766813824744508, 0.09028521052954716, -0.9612684414474642, 0.41238026214768286, -0.29780088566516394, 0.21354875447777721, -0.6693669546695056]}, {"b": -0.08484437779957754, "w": [-0.9322135979212902, -0.32954224950610245, -0.6371747373051935, -0.26859668559809724, 0.6788781154470247, 0.5673395171351896, 0.00398268780838551, -0.7704926478380918, -0.7029580984403934, 0.6836752787095208, 0.4746135089630694, 0.4466340080274487, -0.6200386716220909, 0.0033598946043365834, 0.07830852318447246, 0.17408507360654069, 0.5028596906839422, 