[[[{"b": 0.7594297945608921, "w": [-0.50806189178774, -0.47872425829319165, -0.9512776777033554, -0.44471924779047445, -0.38963279943677875, -0.5834425452613896, 0.3653941661202633, -0.936143117406101, -0.10652330923911912, 0.8683064484760383, -0.032669964757966685, 0.06602647730775435, 0.07696235359863235, 0.06848227431012677, -0.5253962911623924, -0.09659426018174044, 0.3894008687758115, 0.38389829992839974, 0.24280588686929727, 0.9187075958328006, 0.23784114770349563, 0.9658979258977378, 0.7484891823047846, -0.7421675362910634, -0.8450576316288523, 0.395237273677151, -0.4298238960397691, -0.35888354636812103, -0.9166057230112654, 0.7815694229431711, 0.3742387564539198, -0.14466761385958882, -0.36941251013684906, 0.18910999678740437, 0.08233586085620903, 0.2373876336085985, 0.4498777967128187, -0.16363845626577622, 0.014170647656801094, 0.7213576095427146, -0.8337620234961911, -0.660527305426752, 0.24696654458559908, -0.16268912608150732, 0.9072855182787762, 0.47600509284960335, -0.1883883843479679, 0.11712662639548643, 0.8911988023354389, -0.45413040631134205, 0.7818635746263516, 0.380202680483799, 0.7617069120884792, 0.21104450257818286, 0.3961393967461666, -0.8615783534177417, 0.5979681452314727, -0.9693594199629749, -0.7327229672746405, 0.04812696456661292, -0.8765601223752169, -0.9856693856889462, 0.3490602595301999, 0.635867080725508, -0.5495601872293645, -0.6566505930782591, -0.402100748357197, 0.008429451279985845, -0.0067573216282079684, -0.9420078462415626, -0.23797551183167265, 0.09225243800646865, 0.9726127230351902, 0.012663959759976917, 0.4335604777998596, 0.8614814469025349, 0.9717512573812865, -0.9760633328559221, 0.5767635104709719, -0.2521326766577776, 0.41427356305264773, 0.7443478593941342, -0.38366726802355555, 0.5508983076652716, -0.023981149209012065, -0.8772174268219699, -0.8721435082004279, -0.3543022217204692, -0.680923322550455, 0.49463612676510516, -0.40996044948535393, 0.6816024665158857, 0.6632331348023146, 0.03339076337939306, -0.4413441200518986, -0.9192031051235716, 0.0568463873320435, -0.7006609593900799, 0.20829102029161395, -0.0994796544491503, 0.4862067312059746, 0.09456727151126021, -0.6720565684805313, -0.9365273977941135, -0.09074397476102969, 0.4936581138293763, 0.6968759033186016, 0.570849770214624, -0.34693917400240437, 0.9922251905435795, -0.06334147861686867, 0.006399277797596081, -0.22247559452205512, -0.4317500744489957, 0.6390753113752725, 0.8001035187662258, -0.863218154389537, -0.08189164209717004, -0.8515941587253448, -0.005211239321615491, -0.13942349363718987]}, {"b": -0.23646072686690456, "w": [0.5874164652819551, -0.06660573613870358, 0.6119398821299387, -0.9767006914491281, 0.3902617030307374, -0.7255203238721506, 0.056691694178971686, 0.9466751743420885, -0.7544246635905258, -0.05345662931762907, 0.8213939785601896, -0.3086595786010853, -0.32343483424834574, 0.21518292576561415, -0.15434105331695624, -0.04639931020745158, -0.5364419910007912, 0.8937090112261741, -0.38017219464952645, -0.6220187027014579, -0.5134584971320935, 0.5386406195144224, -0.21243837849020886, 0.5001410885039106, 0.6064175758922872, 0.3605022500202273, -0.9329817511354934, -0.5738174247187586, -0.7729559339206968, -0.907636414226273, 0.9577436214619763, 0.21313472617758378, -0.37120820448533043, 0.9381082964450851, -0.2046931796117757, 0.8233066014208807, 0.05227709094506028, 0.8280713544453617, -0.16542052754778847, 0.768457572893152, -0.12933532453297136, -0.612667404678725, -0.5910756627581302, -0.6455841958356641, -0.46471558793909584, -0.8110502317069843, -0.3272107944061724, 0.38387314388458393, 0.9322297304939069, -0.6888566479111049, 0.3611000203661259, 0.9881848319588096, -0.8904255713424298, -0.9726342046146186, 0.4771141306635269, -0.4420077836131773, -0.37213268149845513, -0.36531943806780265, 0.8962376013507762, -0.5605397606756488, -0.13947694246914777, 0.3180020956285641, 0.39504020307148857, 0.7288133376576702, -0.8599829374563346, -0.5649864448821449, 0.1601203409305485, 0.005791495561429105, -0.9353783143358152, -0.23086921860328968, 0.875914787749851, -0.5337727860501176, 0.19984109879121492, -0.3287801262777148, 0.3344178892720444, 0.6390482274795484, -0.605986917119139, 0.8300086462489, -0.8140122655134101, 0.5884430940513614, 0.013530314317230951, -0.06699604637148204, -0.11419307378567001, 0.6212473370308003, -0.28832294252881985, -0.3484554914170921, 0.9475838512204859, 0.9956171186196909, -0.9600990083681888, 0.6586946835277243, -0.8557703059570683, -0.3066633111954473, -0.59109755181625, 0.8118115794974246, -0.9155408604804263, 0.6548777947903275, -0.15011281894604567, -0.9169577311452355, 0.6952709558707191, -0.12870185994718053, -0.8333412159314169, -0.9981215764630262, -0.0386407339373509, 0.730301985956898, 0.34646253126360405, 0.561570409337844, 0.5950194339290684, -0.1736977785464997, 0.5273563886529606, 0.8268755841640107, -0.42635633505942705, -0.3309942004266231, -0.17096178155409203, -0.14988356150981041, 0.4713502467188344, -0.051724735340785255, -0.06597375659775717, 0.9244183272520745, -0.6662427043403001, -0.7093554682439438, 0.09057718239403467]}, {"b": -0.40247250282697244, "w": [0.7277071386891925, 0.6070523654253803, 0.9692301779957435, -0.7126019930295691, -0.21607608719023985, -0.480723887813864, 0.7033291615192319, 0.5057998694637049, 0.6768542592580309, 0.36408180340631735, -0.4099545428521538, -0.2080352661888929, 0.6339080500359258, -0.7090804468289429, -0.8611043351005092, -0.8673640236166253, -0.9064233861169937, 0.19038510841555922, 0.820536439945786, -0.13489483792912238, 0.9021676325413872, 0.28351191911625495, 0.2869451983416962, -0.2578471770065298, -0.6265341449363622, -0.7480617989060356, 0.029517562575883893, 0.5661536281619746, -0.241505645642639, 0.0011252282541989178, 0.5604717359403744, 0.012281535946682132, -0.3928272490269371, 0.28862947029138053, -0.27955064487214565, 0.047905680985456556, -0.09897004770237472, 0.3659547201091031, -0.052547726249674076, -0.2348903833328957, -0.46850528450854445, -0.8269637431623991, -0.2395232976591095, 0.9864320810418261, 0.8995788731877559, -0.16153482068488678, -0.7312641912120592, 0.46055578634750693, 0.731732159188657, -0.8973468403366034, -0.8409063228242233, 0.021259483999011453, 0.34812701301887583, -0.64948112410009, 0.28200007033289465, 0.06173280954962124, -0.9795747487804358, -0.5099951908068552, 0.8999711934837344, 0.12450024172724627, -0.30455103531149463, 0.6603156511987223, 0.5698575868003417, 0.7675162343110624, -0.7979113964919602, 0.6566959519224054, 0.7074006121177441, -0.5851043586740254, -0.9385056657055995, 0.7556773523407161, 0.3108652953030373, -0.2252143002917033, 0.008572858798597816, -0.10608644279270729, -0.12028982076683903, -0.47045125077013017, -0.7536604385694452, -0.2536459128785782, -0.06100094966206293, -0.9297842198381328, 0.3547980173232368, 0.20556240798602143, -0.0876720292805484, 0.6628850177009742, 0.9747264738171624, -0.18300538576905878, 0.5642540714010835, -0.4724701092461776, -0.4094765564694649, 0.959387209140506, 0.10654090069759081, 0.9750969899854887, 0.546505122362392, 0.9658450670752601, -0.4419820233866838, -0.09732134999785158, 0.3122497688661654, 0.8049361183899097, -0.010535232995258825, 0.17156111657380668, 0.14916579498663762, 0.41567623989004576, 0.1277732964476026, -0.890664876761093, 0.6498080453445276, 0.5896953975857728, -0.013041683075309951, -0.2509407006779911, -0.11438694745736955, 0.19291442958692295, -0.08579684689779277, 0.7841506600279118, 0.9317855338615624, 0.5350708677217815, 0.01615552756289551, -0.8276433636208984, 0.4858408092349338, 0.9489472700705823, -0.968298973930863, -0.5540609196953947, 0.42510868058417994]}, {"b": -0.02127003795213933, "w": [0.7003993212046387, -0.08432660370267242, -0.850157322449103, 0.6298292628360849, 0.7768715397163954, -0.9973649570659491, 0.9302398788689745, 0.415009755526754, -0.07242075954866278, 0.882508897055496, 0.16061805051231492, -0.9653520376973823, 0.6897266162665898, -0.4168788487843784, 0.7315363208174528, -0.7766119784736916, 0.09174484703471864, -0.8431192480550131, -0.8795186585064039, -0.3505098596474381, 0.4241603329878423, -0.14018266393458112, -0.6252382211713248, 0.5222116152421363, -0.5794645150282169, 0.003662245722882984, 0.8903686648306035, 0.5529504440856372, 0.5440327436618486, 0.5033240540934418, -0.09042882856359968, 0.9518975510912366, 0.2468200929304678, 0.1069334851772128, 0.9394817159979691, 0.4931539724149381, -0.6452825906146524, -0.1406873695928723, -0.06050414708274188, 0.8968769354044552, -0.3045367826001788, 0.15146033130226177, 0.2824547832957309, -0.3746366419081606, 0.23402032167501585, -0.9957783970666896, 0.09074758420729578, 0.9344700947300839, 0.9124248065888529, 0.2175932848143174, 0.22850176500437924, 0.29664505217041737, 0.013672818544758991, 0.08713795475751351, 0.4166816890957985, -0.26548966232185656, -0.23768044677697842, -0.9385582024385117, 0.9108802135290024, -0.9853414716899247, -0.5943725285747286, 0.08865858618616174, 0.6005826664165574, 0.8447192575263058, 0.9801887780426544, -0.16432091230603119, 0.2660628672614256, -0.0650182125156642, 0.8040063894218774, -0.8089048034550681, 0.9112934759325548, -0.8654115754377203, 0.13168203671067547, -0.7377358924491848, 0.8907287246586666, -0.7228018793219368, -0.3059900560047888, -0.006214724391930826, -0.03340640570880793, -0.9288835253705081, 0.879997437727625, 0.6577926165057226, 0.5879795275736273, -0.4097109565091901, -0.79721921296833, -0.5030110568386794, 0.1837489705243467, 0.26623651285060457, 0.5161955158927043, 0.08042584923268103, 0.029420176474461046, -0.6799817144718432, -0.14475274305215824, -0.030805439655617883, 0.424951354960577, 0.17623746854786249, 0.7365381209701005, -0.443393433875253, 0.09797055326490622, 0.18845539519908727, -0.8991170834417705, -0.6781883010918304, 0.6097565523955715, 0.8740068198725153, 0.8573927148676652, -0.6152996609877235, 0.2227284209918674, 0.5336331849749789, -0.09560347867121499, 0.0529398729311501, -0.8634127342088123, -0.7844654025647382, 0.5179092088774353, 0.5506700191948999, 0.9147053452691272, 0.3875051041698083, -0.7445603072630904, 0.13522626355599154, -0.43063032109108046, 0.7712961653835615, 0.5719349164242775]}, {"b": -0.7507568023807005, "w": [-0.4922854096756044, -0.9626877940803777, -0.5904520532336173, 0.06478572950636186, -0.8885367771471879, 0.6772835172804752, 0.2314360132727562, 0.2217724631910991, -0.6907575777725639, -0.6241630913278711, 0.29250325495980367, -0.14615722140540122, 0.2883963958664095, -0.17996899192810378, 0.07098591361759454, 0.8077781535254687, 0.8520173375099009, -0.6406023656368192, 0.6208116194967732, 0.8409420496488018, -0.11670246517074778, 0.13056850458406322, 0.6211702132416408, 0.30016118654814483, 0.6448946912816012, -0.10681780823158249, -0.08446372804093705, 0.9986962217160991, -0.6018390909437152, 0.3807164964898295, -0.7173195930079939, 0.7246977500848459, 0.24117984054076302, -0.31274519660196076, 0.6380886076165404, -0.1107348937122874, 0.9751758639289212, -0.5367274027479636, -0.017482766616444323, 0.4721243812295708, -0.2684153852107849, 0.7026139996163794, -0.2939326570410785, -0.3267266524695751, -0.9427440665517839, -0.42254777344102656, 0.7332965871221255, -0.49645614520089776, 0.08952368098071117, -0.5635756698063086, -0.0989925028236438, -0.505073894124098, -0.6257922143227763, -0.9711136919513847, 0.38947912222382475, -0.6230898048808635, 0.8659421608395295, 0.7106484629231713, -0.21437501708031048, -0.7988671915438226, -0.841683509015503, 0.18587915387436005, -0.3729477818435012, -0.30588753821315784, -0.4854820083775848, -0.7267257186325127, -0.3186476264146436, -0.47033453380328716, -0.7105682438665717, -0.28771456900547476, 0.11013132129229164, -0.9188111803148433, -0.12397448664768906, -0.0873429976430562, -0.8629758276714228, -0.1451091637223143, -0.9545320665426997, 0.18767157984888816, 0.3206611108280417, 0.6660792913864513, 0.2150224163302783, -0.709686801831771, 0.8650161752218817, 0.3137676437547352, -0.021013979100295233, -0.004929294312362886, 0.007507114422037775, -0.034675692687831994, 0.08465942961504247, -0.9763060697369781, 0.9960249597096356, 0.001343143445824202, 0.321380710781614, -0.481939141532592, -0.9713316858859213, 0.7129898587514483, 0.29100235315114764, -0.7187280090325934, 0.6704246844431998, 0.6954210574560622, -0.8192002721992704, -0.07097443163251826, 0.3036459817999273, -0.03748293678197889, -0.6770702769352219, -0.7910086341420617, -0.37266891736850893, -0.1658884679697541, -0.1895632437778636, -0.8355313670888131, -0.9127208475228041, 0.3082648158259249, -0.8342925453275294, -0.4653572389162641, 0.07086770568053491, -0.08450071495753786, -0.46142388291794534, -0.6690077793975182, 0.9908792424191737, -0.3718610021950466, 0.09449522782751196]}, {"b": 0.4935329478999464, "w": [-0.7899282766319298, 0.008099400315048522, 0.9501238393776699, 0.45897687973188495, 0.6197340027144282, -0.38217646985004605, -0.8801169293166629, -0.2632222467143066, -0.519562877851591, 0.35574697436804126, -0.2778802471593651, 0.16876385655530246, -0.23091054068605898, 0.955185914951239, -0.407961763946161, -0.26153602426364775, -0.840352276031437, 0.7268893856513083, 0.8325813393738601, -0.720546884264855, 0.4527376321795893, 0.7640930433661934, -0.6206148332764159, 0.3270653423950991, -0.1299315406316821, 0.2379099418722579, -0.6912772743904518, 0.12160978139071399, 0.6888253437148575, 0.532293753630048, 0.15754971904838255, -0.48851209864573963, -0.06248536418875239, 0.3302357505846265, -0.416417181357319, 0.6966588632921507, 0.08977589445814349, -0.10663196627811189, 0.5716223343116307, -0.952919378097485, 0.9884362965920659, -0.8841450631204362, 0.19570606111591382, -0.3369351468466417, 0.9357481743790714, 0.5933024009368086, -0.7836511312130374, 0.10706121360368281, 0.6199891077523914, 0.9533864898378228, 0.20183993824839086, 0.9537613871429707, -0.5370344927978186, -0.03633250801208132, 0.5490690695158806, 0.6813244865851036, 0.21773317300731843, -0.468286010039473, 0.7093212826404052, -0.8912855866339051, -0.2873034423811147, -0.19078053623576485, -0.260948444725579, -0.39750172903776604, -0.6264931392442945, 0.6822241342909994, -0.6296846894209038, -0.9633914186632204, 0.19939150301369657, 0.7348913652339086, 0.8390008598561935, 0.5021814070754733, 0.7923737715564496, 0.02393124246302758, 0.9386465821385994, -0.7160629400548291, -0.25854005822009385, 0.9721062218019487, -0.980239817286457, -0.7126240637781247, -0.38766598000993, -0.001438956645907652, 0.6624915172808088, -0.03241071161755871, 0.06262599788486978, 0.9046473867549871, 0.34854652554459786, -0.6908131312814605, 0.5811426443305514, -0.1714419870579793, -0.9597787253409062, -0.06028020497359576, -0.49691481231737233, 0.5327754992153071, 0.4030031536825225, 0.13096316227833182, 0.1821520467138782, 0.7892798094102609, -0.5876532172659581, -0.06573442727163581, -0.3725417339649846, -0.9228487946674111, -0.39110677151827833, -0.5541483781268062, -0.008674811392612058, 0.6988718419742364, 0.13483644356430835, -0.28760860769816476, -0.5251666224726363, -0.31510229868904904, -0.008112714925363917, 0.15444839353177997, 0.7104597928397738, 0.987316299659674, -0.7623223300530084, 0.5484642137741504, 0.9756186980016506, 0.4872442578325542, -0.45608135976485764, 0.09520186460957225, -0.5936642978694873]}, {"b": 0.34616835800902557, "w": [0.3446462778130699, 0.7288400446207217, 0.07159408706214498, -0.06048553631393294, 0.15079091112324217, 0.3430971827724998, 0.7143816890077006, -0.612285142580494, -0.5375710182396918, 0.06072481498654647, -0.14617352045504584, -0.08587418718284412, 0.5444575837190766, 0.12499832634834362, -0.7493462444373891, -0.6235497694102419, 0.2486335225465679, 0.8333943664548309, 0.9356841873341659, 0.2890136623538493, -0.11538069786311689, -0.49753117689567916, -0.03022983327214379, 0.7221809425592236, -0.032647716667470794, 0.33831741482532474, 0.7340359362087381, -0.6129424013144402, -0.6111305655672701, 0.5739616553418134, -0.6397568093099333, 0.7813339491398794, -0.4636237328140085, -0.07447172741471975, -0.6190439626252442, 0.9281175034677935, -0.0464420147813569, 0.007182805751380972, -0.261266369272249, 0.14529875908339251, 0.009049447700782087, 0.8956061204521857, -0.8248717754407109, 0.5136178689847679, 0.9878876222569561, 0.6721131643616907, -0.02491207664874362, -0.1158270557402652, 0.2510848091065654, 0.44023262041245914, 0.5005694116313419, 0.9462910695018463, 0.7908725666492455, -0.07391704219211692, -0.13527936259778195, -0.9023393339744281, -0.17974597741917053, -0.3967088204225657, 0.21696257634971094, -0.050021784897535504, 0.2788077100990505, 0.3491671183639218, -0.3483419362214413, 0.05155317936841475, 0.632579631330993, -0.9676659038824138, 0.5802022677019367, -0.7621925755274042, 0.8018822336450888, -0.8014446471561876, -0.3345335826473135, 0.628211431364865, -0.21815055004323014, 0.9572319225582053, -0.35201558522991117, -0.5069157367088748, -0.479984559565549, -0.3179914790155882, -0.8300986717304171, 0.1468268770979131, 0.35800403095513644, 0.1147869958755452, -0.2175501085478182, 0.1952101867517626, 0.05873322838808037, 0.09791498331838255, 0.14278490258401866, -0.3999565026549772, 0.20048685328904914, -0.778277526237892, -0.6449059732980171, -0.8539697879461066, -0.36941801747693637, -0.31611176526551743, -0.6604430009924616, 0.4336903469999962, 0.48668970764414343, -0.3907152184642164, 0.4686112768473967, -0.19293773603722464, -0.9325098527581634, -0.7987424709345843, -0.44731899118677676, 0.8639657250074755, 0.845976968443457, 0.2776106137609129, -0.11115598096151014, -0.7564953157694561, 0.40547790351432234, -0.3162611993562703, 0.42853652604273984, 0.8834505582592884, -0.16288016573066177, 0.01191056740634111, -0.1714996782668159, 0.8734117973009636, 0.027169787407802515, 0.9201997358556773, 0.30720253433037437, 0.11833929031773294, 0.6460023135156359]}, {"b": 0.07031413383762564, "w": [0.33293253245184906, -0.01751242172211942, -0.9184383008777706, -0.16486246997994014, 0.18772887679186878, 0.8012318681604753, 0.4532386195675462, -0.07736887781686042, 0.9721901614647719, -0.9578733257879595, 0.46337433261968175, 0.8182509515556542, -0.5862149177991309, 0.6782366466503713, 0.4844648649357892, -0.2855613294372237, -0.7213697443473257, -0.574311156810823, -0.946425027715091, 0.9235264777750163, -0.932107536696851, 0.7057187627262176, 0.5962302775802903, 0.8192309605209185, -0.1305818081772876, -0.53046162645854, -0.8059942222205452, -0.6237224035919171, 0.3799246661525215, -0.18376582403300423, 0.5285595857714014, -0.35621812164231104, -0.018992726606442245, -0.7449141947710265, -0.3464406707645704, -0.46537424401541316, -0.2649712788647509, 0.20782349718811322, -0.20669804515814483, -0.9576154893094693, 0.888208777724188, -0.5180318240181538, -0.8517859978022251, 0.9447551387077906, -0.08382485141511076, 0.032628707405517376, -0.889116567482596, 0.30579076104073577, -0.8283632216365147, 0.20557077546838332, -0.41311869214777364, -0.48223939254230164, 0.5928163030313944, 0.9833544043961531, -0.9288748456679092, 0.7938919649162801, -0.20497673806319994, 0.5117579552756202, -0.9190604796318618, 0.267430435482922, 0.7284007541903192, -0.2009910907806851, -0.1565379520011434, -0.8663069896137809, -0.7421690337390283, -0.6854531980957168, 0.31977367683499436, -0.8956513875817442, 0.7690313750232747, 0.2280166576515259, 0.9256285299597664, -0.1399128194699053, -0.10356349449830704, -0.40480270380260697, -0.15531083407605473, -0.47019689260720576, -0.022971935634318763, -0.10600493629798824, 0.8966432591139799, 0.9212253042755731, -0.7876654460235832, 0.7620025454463419, 0.9193004074502127, 0.63794218164626, 0.07360404149406152, 0.08549055286367935, -0.7733294326394176, 0.49268718342377604, 0.883817904564743, 0.4379856245942477, 0.5664861568433937, -0.3505826414894446, 0.5700578358248203, -0.8493717182268972, -0.2368755384347696, 0.40746149307878743, -0.05120569744328862, 0.6293215180316136, -0.5026131099637976, 0.482337466998916, -0.8524205527082485, -0.7562409742421878, -0.9993087463597985, -0.5342132370507005, -0.14773099652009303, 0.6719705334301203, 0.23296205104913792, 0.567416649652396, -0.4863205398722166, -0.32882370607986533, 0.4753294274635078, 0.8034492524471593, -0.35555100884269386, -0.9447657151928666, -0.6493957050965529, 0.7188864751011741, 0.2705115095283064, -0.7443537324919733, 0.19792911128483537, 0.06662451605076458, -0.9192650027299014]}, {"b": 0.1386099043297382, "w": [0.9699841675898888, -0.015292356348139524, -0.9007765432553334, -0.021421003240108094, 0.9518753388608963, 0.2045077554341641, 0.26342120919599243, 0.5730633449192797, 0.10500822492341011, 0.19613082707155294, 0.22575168730392803, 0.3609207181228944, -0.08165778016090797, 0.5583441877893112, -0.7746050444872981, -0.9908821220520101, 0.5476013979644643, -0.7608489209132252, 0.2862619727453879, 0.2115273729297018, 0.7181018255210334, -0.16477101859590193, 0.21664141268491854, -0.9780610523060513, -0.15130395651925155, -0.40559834250687166, -0.7822512393165848, -0.28481769350171393, -0.0005044348358926865, -0.4293372362644152, -0.18377962320762764, 0.7458395158674991, -0.40707536362259966, 0.012871512263844753, -0.10687799152842414, -0.5348567398532282, 0.14320836551591354, 0.7772881358692274, 0.052237888628074325, 0.4519772185078532, 0.4158342413017626, 0.3606292394899351, 0.7465017381773595, 0.7991681822445018, -0.8184032684501106, 0.7442236536888214, -0.9481336592149352, 0.3671985694423703, -0.7250673451943048, 0.7950992820953457, -0.37001764507359036, 0.9183270493101192, 0.4845549225234935, -0.10544081685612228, 0.06425888507298771, 0.7413182905459339, 0.2858036100463264, -0.1375625889094323, -0.9647542965361853, 0.5921807018485625, -0.12753514626215123, -0.5466648570214909, -0.4472201314591351, -0.009762604975356082, -0.516095331392701, -0.060140126836712104, 0.6449641234917753, 0.5338234472974661, 0.8986134713121794, 0.3816293710435821, 0.820928170005087, 0.018659044032544703, -0.3137676141041097, -0.12264017197193744, 0.6511043622947934, -0.1310967974559618, -0.15368030011029354, -0.24117633729599808, -0.5492677271096327, 0.8663547210914486, -0.7122935990585844, 0.14539672197024323, -0.3467135587440917, -0.8946238006055789, -0.9019587841477639, 0.7121175296940048, 0.2937146430962816, 0.6440160362670866, 0.0379059347921431, -0.7767455089216937, -0.9106876965359554, -0.645035197725677, 0.4557478999618316, -0.5183259548449339, 0.5518387244049425, -0.3636209110311521, -0.5264149706600085, -0.6589373917532202, 0.6132853270393228, 0.8078181625279279, 0.8382049686753745, 0.9346772004485908, 0.635770453999545, 0.8453307815829003, 0.864227095519408, -0.18199006134193274, -0.1721037662275775, 0.7288214416029868, 0.709373843729906, -0.7124736863522159, -0.04679059626364701, 0.6458403891827704, 0.39224027646973547, 0.3959356074628575, -0.9362352563505221, -0.9972086052972347, -0.8934403332401606, 0.5573834439825465, -0.6503693271237412, -0.7822921357780512, -0.9402250707281845]}, {"b": -0.7598590486090355, "w": [0.057236483640652924, 0.029516050402180083, -0.9637659097950053, -0.39470062458476285, 0.3258257871732364, -0.3439749873098923, 0.687505274475779, 0.41382827091320395, -0.39532694613835395, 0.8054797581114763, 0.6782950782342534, -0.8561250630235604, 0.14346951334513558, 0.4475378640344949, -0.662959985517175, 0.7338377888927101, 0.5685841375702698, -0.13757274376325035, 0.866185868776709, 0.023273366251649552, -0.8018200724407889, 0.2070056720105593, -0.616680848063863, 0.9158550294095875, -0.4872283014757752, -0.12074745636591255, -0.007110936252852307, 0.7883855717305364, 0.5713769118082976, 0.8247410146177236, 0.9817008957153464, 0.3749421154205246, 0.47664420813342656, -0.9378904110677924, -0.01716540240914255, 0.5797219747626803, -0.5244762839299666, 0.011801568942682472, -0.44930232615406607, -0.3518478747250984, -0.14583459809306665, 0.6412099138993581, -0.4115148118760421, 0.777963183197119, 0.47930039649410405, 0.23222394847888195, -0.4719404747086833, -0.7048054787302853, 0.6391339224423198, 0.9501031668501527, -0.4478010694968131, -0.10547866412969897, -0.23710719378372613, -0.15601661742629025, -0.42549065499200434, -0.5541711769668887, -0.7146722296183694, 0.2668882655324878, 0.24706854211199802, -0.13059695424485906, 0.36143982032715627, -0.7283194789915006, -0.27787106603651224, 0.032471255238671004, -0.4895521431357299, -0.42691174870059734, -0.16855712905858966, 0.7713034815087487, 0.7934713682145895, -0.020890869192841555, -0.7239586190639324, -0.17967929809519778, 0.9102228726368524, 0.5021090075076198, 0.12588947696775432, -0.0936260242738649, 0.8027749052705124, 0.3944223503395323, -0.8507781156059446, 0.3633137980929728, 0.7711592191950527, -0.32735937140975224, -0.009927391941350505, 0.5069264496975445, 0.6162320273253312, 0.9627929846859682, -0.2170529758786024, 0.5114355397621733, -0.9544000751283466, -0.10485507121658433, 0.41402566749623126, -0.5361061464442871, -0.41545253190514564, -0.9547171252682909, -0.6093953703642006, 0.8415988530430085, 0.7236621297229955, 0.101281258516279, 0.5964630242922333, -0.8247965601201979, -0.2384042081781823, 0.33104651738182955, 0.5974313894439007, 0.920944465399808, -0.7761112450492418, -0.45739097515519633, -0.6360269049234009, 0.922778968588476, -0.7612520677454633, -0.6929095737107627, -0.1867000335284945, 0.4771844080832781, 0.7737844827916582, 0.9182674460420659, 0.518921326813365, 0.018989550015537482, 0.2966048126890317, -0.6173069577043733, 0.8535984465295074, 0.847292590724259, -0.6520980710170385]}, {"b": 0.4621829271065412, "w": [0.802381023451135, -0.8783064078267802, -0.2982851021628523, -0.3101226037407061, 0.5613700730754774, -0.07144604573742996, -0.489460967573192, -0.8089027855914499, 0.114016073227857, -0.9486248004301583, -0.3338194154645382, 0.8798299136042009, -0.11777309308454242, -0.4898317586236096, -0.6666522810607003, -0.2196762497019984, -0.763638114768084, -0.6911111547657263, 0.4535185178966801, 0.6454053052227988, -0.7649075867693731, 0.997153152975226, 0.8115603744166553, -0.8012653955311659, -0.7621608455482958, -0.5965711286605528, 0.0695594101145931, -0.3235000443134619, -0.47214005777564827, -0.47505605950027197, -0.7016698765807434, 0.1955888121848537, 0.3951418044814563, -0.9331881569325884, 0.8045508347835895, 0.6808006032409728, -0.5331752617656436, 0.7272585945046122, -0.7647215329207324, 0.6803974415574849, 0.4228936852313605, 0.5408755922579525, 0.097235301592977, 0.6660296994303394, -0.37974359861616547, -0.12031064106463552, 0.5302742389752919, -0.18985787868470783, -0.16369897095396713, -0.1992823199884426, -0.043020773187284256, -0.7878676648557383, -0.3385436544484275, 0.9353789408190105, -0.5417884023045532, -0.7639057085759078, 0.795134195264704, 0.6621380367174838, -0.35322439268522543, -0.6768355712089744, 0.2606290110521676, -0.5972405086910146, -0.11977976537352264, -0.6472543100770205, 0.00953034373871442, 0.6885243311315865, 0.5425932930919859, -0.6039751605358854, 0.9874900098822363, 0.38998636248954344, -0.6848534144453216, -0.8444039266794445, -0.27753730308999724, -0.46958757290145114, -0.8588332991255843, 0.39412645605746777, -0.8917207909895022, -0.36887521586224414, -0.8299182913237544, -0.9962174595883992, -0.907979637112933, -0.9205119397616714, 0.47324170526100473, 0.7884173221227766, 0.028612959078114786, 0.9015007257179208, 0.544393377584371, -0.8833264916084618, -0.4886405983015101, 0.8639124936277733, -0.8476218708586354, -0.7009849223694895, -0.8039152704094188, 0.7502290327827743, -0.06011719495927137, 0.6959787535316173, -0.366331151715392, -0.37652134589200603, 0.31816166471459995, -0.492567838171863, -0.48566385612754503, 0.833695067336625, 0.2390071173622541, -0.14909042061370092, 0.6917634799685413, -0.16007002711698215, -0.6617499848569155, -0.46241112726036304, -0.02176098945714311, 0.12895224484511902, -0.2775351356323976, 0.924885840115713, -0.5045598539340608, -0.060364761932999, 0.8301393858291302, -0.8907586142436461, -0.24566197825549008, -0.988721737341689, -0.33719132404152585, 0.041867431030821134, -0.8454912447019602]}, {"b": 0.18813421446992562, "w": [-0.031108170490556475, -0.11263140158112939, 0.44751394317438176, -0.6824084070949954, -0.25757405926814325, 0.09367882516519321, -0.3696130648962388, -0.9905624493197713, 0.6981415522814718, -0.819512303268217, -0.2284475969680877, 0.3222222273543376, 0.42910196985966786, -0.15268232682322957, -0.9756382409495092, 0.18838158914285508, -0.03347906534788758, -0.2806907650128725, 0.9955393386431015, -0.4489021687894401, 0.7775206160356603, -0.4815284266285351, 0.3345141381881256, -0.8160320829892291, -0.46565103840534317, -0.4821154513056327, -0.15153821587072436, -0.06766466517924141, -0.2072627180155897, -0.9715117563971025, -0.16744576714812975, 0.39117809355554467, 0.4769757410686759, -0.8797933084568241, -0.5713231953536952, -0.36203635005811563, -0.6228350954947344, -0.14853173565055422, 0.5099194561755422, -0.1275258884148338, 0.947016555470797, -0.8524529761642672, -0.21747652762040803, -0.7993402876378521, 0.13812528811337588, 0.11972265785714131, -0.41966036224964, 0.3217657320424583, 0.9304712164436137, -0.19017690102906326, 0.8092363617481342, -0.7201238218393, 0.31999698316159275, 0.4806174035551505, -0.6070737056373074, -0.25688503387199146, -0.7137644184371552, -0.4687635275315398, -0.2312497457579159, -0.1915007723329476, 0.54856989710596, 0.5301310206853529, 0.8421942341103184, -0.26651513354306733, -0.005111554458274492, -0.7905172646265506, -0.04297404209893929, -0.5931583262207782, -0.6530327365268742, -0.9988708965102799, -0.7507947403436923, 0.15252008750762447, -0.11201093528280492, 0.6971405141149796, -0.04816551245748357, 0.06584044072794293, -0.2489440345917482, -0.5092803322751143, -0.1064836559159561, 0.8987481625249345, 0.6024511935380477, 0.043305623960653294, 0.9612774735447474, -0.22447920074552363, -0.46458334784687483, 0.8554674414686745, -0.7243476917807246, 0.1570007288807358, 0.8323938015915286, 0.4782354013646335, 0.9596783694114279, 0.2206810084913602, 0.9170915254158587, 0.0229436235790208, 0.5373444587207625, 0.15819078387603347, 0.6178693508227524, 0.23613818089006844, 0.11056760544409272, 0.518682101848893, -0.7151805728586353, 0.287886428766958, -0.5953690164807184, 0.4751955096781837, -0.05989971322287557, 0.5146261700704158, 0.4465326356099375, 0.11536631212998039, 0.8402821195434473, 0.8141902778641055, -0.822395379092997, -0.5139222117716267, -0.5717189398409246, 0.397287518174267, 0.6057376783769921, 0.17240760666397814, 0.36889994905399437, -0.9537598154145519, 0.5082582075723998, 0.8825271665885794, -0.3510481904495204]}, {"b": 0.27714561260821324, "w": [-0.6873128726890105, -0.403050033473231, 0.55305998833446, 0.30528645684106026, 0.15498152405780075, 0.7171846297895044, 0.4656576366907361, -0.09793430605923747, -0.3323344682771705, 0.3853206588711122, -0.038860784339589616, -0.034157122833574416, -0.9660800886348508, 0.0663056255759209, 0.2146190699127688, -0.9336004839872198, 0.41463813342453615, 0.5190524461624635, -0.7752188609848099, -0.7216254549052459, 0.7740760906894599, 0.19199105133424288, 0.7656947223052397, -0.18915833365569457, -0.5677651792418783, -0.37311962045420377, 0.9580912054371209, -0.7043246623102251, -0.6728247605935289, 0.7938112512710636, -0.21602700945838782, -0.29856936346177854, 0.9384498498069547, -0.5872891797422595, -0.8401508778900515, -0.9525829099987388, 0.6223768466766242, -0.16699325500459028, 0.6645053200624922, 0.7364603664689737, 0.4370240219699528, 0.9105585740351545, 0.15401298079453718, -0.7489423417187506, 0.03929369768084179, -0.40507506587879805, -0.25242123558010054, -0.8088200237372802, 0.47654142914206865, -0.3624560344980934, -0.0197828918280869, 0.2813058821075449, 0.8961687179022193, -0.9090398271245796, 0.2454339146075557, -0.24684740912047398, -0.8016134522652338, -0.7900903841476403, 0.332030435496699, 0.1546217701164896, 0.9229348948483989, 0.5639201368288342, 0.1748403532324161, -0.46631643525295097, -0.9997876053824302, 0.2938462513822684, 0.972479923005338, -0.8899222620715401, 0.26071889102816614, 0.906794535567379, -0.2183832449538856, 0.3293745146740128, 0.9026317421005574, -0.7630650506404733, 0.7772556705706648, -0.866803785488897, -0.34755695947519416, -0.5452707868376367, 0.493598833295515, -0.22859344499881362, 0.42037324768186246, -0.5247285119267615, -0.9207840035068198, -0.9598595745034331, 0.7956644806260904, -0.9221964866800418, -0.610499483967079, 0.6633818456701381, -0.22399829607631316, -0.20890710282646507, -0.5246543503506471, 0.7994925817221896, 0.9060115049546729, 0.6331996395151505, -0.7139425612944141, -0.9872397577232976, -0.017171809017073603, -0.7948335797883159, -0.937098211411528, -0.07297968517238784, -0.7668527349108889, -0.6150143281822122, -0.9836774645276418, 0.22227373335583755, 0.50263274056577, -0.02992240793986367, -0.5562008173756785, -0.4468237076239565, -0.8152948498361168, -0.08263201527310615, 0.4988203054884299, -0.5961121474596913, -0.7376219165735896, -0.9419022315248835, -0.5342524322853761, 0.0047775934619218585, -0.24535826285868345, -0.10576199773442263, 0.08101637066076717, 0.5243258386297167, -0.016611852458198628]}, {"b": 0.05028379564693841, "w": [0.8188767575000084, -0.6529617860761414, -0.484650400626244, 0.4787454433057856, 0.6262322342045117, -0.5814330835462302, 0.12076385047653893, -0.6129779755993205, -0.41268831701826403, -0.4730859886952532, -0.13033081722372253, 0.22792816187123055, 0.17253885735132002, -0.989267751869713, 0.9143503043219887, 0.694401284687455, 0.5973772793719447, -0.984953722896966, 0.5337614573599001, 0.4361924851544583, 0.10504543921792409, -0.5063026579783081, 0.8765808087685787, -0.5942661775284039, 0.2497977343037503, -0.47570751323367966, -0.6649083537709735, 0.4224224532644749, -0.9966499298833738, -0.9012466064587106, -0.41094963009411933, 0.41170896947643354, 0.47040485669816867, 0.8083391004753708, -0.23319933610534394, 0.30857699570350317, 0.990230773316948, 0.23417581202697013, -0.14750956550032446, -0.8555534617632148, 0.09276375935117254, -0.2562791724412756, 0.3627489369632557, -0.035956923779257854, 0.11127160824078097, -0.7772104823620838, 0.8085583971786541, -0.0843981334584174, 0.37762586940455445, 0.07486131988504652, 0.4133651390798212, -0.4136291514076056, -0.4438418081234192, -0.3260002044086494, 0.9068394894116492, -0.7169612823199845, -0.5823805414171477, -0.532146003041621, 0.7458813248181215, -0.5059933386904969, -0.08557222202569625, -0.7167635798482179, -0.8426589828570403, -0.7774899387148924, 0.8530382654832263, 0.2692113277853092, 0.19314553131969192, -0.18077917776302233, 0.7112601336706426, -0.8449985412527923, 0.31290317439317805, -0.7131672846967172, 0.25271269822840825, -0.6202354705707465, -0.5274562193911272, 0.48348712208750877, -0.07260475031412006, -0.47113602576586944, 0.8466522588420438, -0.7536003572226015, 0.0550232118210483, -0.08549226083923123, 0.21061107844305926, -0.5858787819721716, -0.30076609511398944, -0.12172150111106084, 0.25398645127338093, 0.6178111537576134, -0.7984537544503512, 0.4595625695282557, 0.8544202217467871, 0.500689165208412, -0.10843683059687725, 0.6393137220773688, -0.46285861031120135, -0.10772139852677776, -0.04672787476084972, -0.07655964804461246, -0.1482338534043961, 0.6095284497050024, 0.9175070196516317, -0.5661506030220707, 0.9456089717519012, -0.9444546438127499, -0.44841367183550274, 0.5324783851651338, -0.5942636041691758, 0.8376409744179327, -0.7948299023737837, -0.8299104162404389, -0.8456640416268473, 0.6417387209533618, -0.9827383769861227, 0.19410528738264765, -0.6372467870434322, -0.3626179142891659, -0.7739773188665067, -0.6867878412997466, 0.77537574012628, -0.9396856517691325, 0.16798938635660754]}, {"b": -0.9133538630819527, "w": [0.9118709902264379, 0.39405723711822516, 0.3195188972260934, -0.6088126988667479, -0.8720718419124742, 0.48541392009858253, 0.7440318184423236, -0.5810861229607442, 0.02740738150827071, 0.9242858593894845, 0.881721592821378, -0.7667418688011833, -0.026572195609575022, -0.34941370718403886, -0.8045655283488433, -0.1749118177065705, 0.22544151034866045, -0.7382519459033177, -0.9369075483535918, -0.9626250785552812, -0.17216752390884538, 0.19594668246178082, 0.5715279236105038, -0.9817262881157138, 0.949806106925539, 0.8584642967822016, -0.5899637072657709, 0.27093069658446933, 0.8483958315766695, 0.43475112956261786, 0.07177120158364092, 0.6600408756631315, 0.8949998098425052, -0.6288117952962913, -0.012593076011266913, -0.9446978156307515, -0.4251632415944364, 0.533481792715875, 0.8891075961086801, -0.7330215002523643, -0.7474124896560403, 0.39149684453140754, 0.3440167391452633, -0.5623468401554441, 0.0944398655690959, -0.7406589879688115, 0.11133263896931944, 0.22280466917253516, -0.6989127369082555, -0.974597733810169, -0.4485545340231514, 0.26003013640792383, 0.6640018433685988, -0.38997555718986265, -0.49661672361757003, 0.3767769627187809, 0.18853376911892705, 0.176443416287815, -0.22693999340145576, 0.11034503397847639, 0.7177627648705909, -0.7100586814808698, -0.45337109087512006, -0.14581760683075906, 0.7052305201651299, -0.026675172148397985, -0.7905296430634186, -0.8052802599740849, -0.8377287928658215, -0.34115340383654513, 0.13931585981865302, 0.5316858677157741, 0.8788958712223884, 0.9849303732079331, 0.9724741902972494, -0.23583578548672968, 0.6543551541467123, 0.7830853268792977, -0.31448430358847834, 0.023741077544236378, -0.51958247364842, 0.8247097829989092, -0.3176753811106794, 0.46494587150407307, 0.8623392150586067, -0.8646567786078172, -0.7096720652095365, -0.22730113343739755, -0.45965802466901184, 0.38561107718865584, 0.28991841380617744, 0.08655315515841289, 0.7380181176640244, 0.19115981660002546, -0.6619623049638892, -0.5519490805456932, -0.3641335098133396, 0.7503214587111358, 0.8141920778660161, 0.7484257095024933, 0.43346790810766045, 0.045484479896669594, -0.378489458485221, -0.18284608764077825, -0.9152363830745758, -0.14576346086447844, -0.7281015778282935, -0.8470765958485251, -0.6983287794674067, -0.17547051685132287, -0.3870367544004374, -0.9064075578563555, -0.6868087625412669, 0.6731362838953057, 0.09180601714590853, 0.3891245822868332, -0.01581554154291931, 0.42989985541728126, -0.3922465113965652, 0.23933328300620804, -0.6515724282384676]}, {"b": -0.5167529139880482, "w": [-0.5505796472521494, -0.26239214420432555, -0.856441129226887, 0.6537652117656174, 0.907991313020601, -0.6938347525869002, 0.4568878213776899, -0.45529136252197877, 0.2404616267078874, 0.38512419449153956, 0.6447048226283003, 0.5299290700276036, -0.25723438155126765, -0.23275985065710425, -0.6793507729119574, -0.949393503003229, -0.3111507378437235, 0.3299723456438919, -0.9568272736068197, 0.3447238222892126, 0.15764179071905216, -0.0957789297770244, 0.6583720196892793, -0.793205207992673, -0.2898976507515587, -0.14463326345470917, -0.5797895135514375, -0.1692463304958689, -0.009443267689238866, -0.4844396071138457, -0.5122602553649986, 0.8992945630988358, -0.9270450565074102, -0.5047207682123871, -0.05589441514646554, 0.08804141214900585, -0.35621376682752626, -0.3495930182953719, 0.57964981412158, 0.9870025453524769, -0.7538843751250581, 0.02312834473084835, -0.3699378928586605, 0.6664486625636781, -0.7655716060538058, 0.7228320385573714, -0.8261339703039738, 0.9540624433694214, -0.1732987000808841, 0.45316222733079625, -0.8137024629098915, -0.2812517306028375, -0.30210164339940015, -0.18095807220734517, -0.929415797189896, -0.38466416968575223, 0.8092717399508091, 0.21586404265941028, 0.944949855401507, 0.9353477615977761, 0.38988571947117645, 0.04821286609504338, -0.3230395110862425, -0.11652936406122794, 0.9840967225346071, 0.9309647418578577, -0.8992856137843643, -0.13290258698437607, 0.6254424978706972, 0.43868131564377855, 0.3202810776731859, -0.7312101077137996, 0.00465192003818804, -0.7730848465031281, -0.42860233765769573, -0.00999627815213322, 0.32330052389183583, -0.7727249632702624, 0.8141390335385943, -0.956595061486883, -0.9593532581949753, 0.8782297494067381, 0.4719450030188663, -0.7919406954446302, 0.3481804701821407, 0.5506554025026715, -0.8836520487896007, 0.22288490999514288, -0.3248210366676212, -0.6306679288011716, 0.0702188082920685, 0.8713280854466876, 0.0608364808929871, -0.7619593437505807, 0.06777943819610965, 0.6671273964511566, -0.277076736456805, 0.25390222699327203, -0.9358409060843982, 0.27991815495765104, -0.7274559258676292, -0.6327369462671817, 0.053058450756464204, 0.6800194860813815, -0.774171519709903, -0.788060824469752, 0.6509951447608671, 0.8237731504032033, -0.6270936099997764, -0.7466356516671353, -0.7390993857255121, -0.6791078263722232, 0.24445153350536786, 0.3549918249375439, -0.198761449709413, -0.42396373698300627, 0.09961352928261147, 0.13733584796067255, 0.5667723841788259, 0.3431078792287481, -0.16911043248355817]}, {"b": 0.7181113114624127, "w": [-0.03139727359359923, -0.3978657497062943, 0.17523889897924594, -0.18443513402818268, 0.36924333851099767, 0.7054496415607716, 0.8839028111726697, 0.7453072583707776, -0.7552232773710255, -0.9141934686632125, -0.480748960152634, -0.23330165187003793, -0.7712401663550579, -0.6399645457520575, -0.6677640875140642, -0.15997017969611083, -0.9052215880737133, -0.49741793871697704, -0.449082349095145, 0.6770098109127376, -0.5547008522358463, 0.468853614236441, -0.300453587531857, 0.1211346629602037, -0.11023895161897435, 0.06971651651649591, -0.976574799621311, -0.9862295523000362, 0.026364971169900997, 0.6592794882397852, 0.07658173062711993, -0.47127864149926557, -0.5425521016522699, -0.38884768842947337, -0.036392188052495555, -0.3314685069865917, 0.015472837486535607, -0.25654369775400254, -0.648542405139171, 0.6208677391906208, -0.6643022687215661, 0.26069080822726476, 0.4980285090329579, 0.49190149664784033, 0.006316587837196019, -0.9132727603578628, 0.4071119517190822, -0.11872158855797421, -0.4943589786880702, 0.39943974941409843, 0.9640355158975067, 0.38458386982009696, -0.10406306606635529, 0.5884194514778516, -0.09521992856655692, -0.24098803121676982, 0.881457518816452, 0.07883500088217743, 0.5123864372476346, 0.963591011057306, -0.4094306383485842, 0.590059457455721, 0.11527381413398219, 0.5485298038440614, -0.2871674359485985, -0.05668667901239677, 0.37520079356216574, -0.23833769629299706, 0.3927353155298219, -0.09406045188531587, 0.757468265101022, 0.6650788102207446, 0.07842015791677026, 0.7172875003575145, -0.8392265713750002, -0.615412770114993, -0.9455809690943737, 0.2284571115125873, 0.9838418664626967, -0.5795895248741554, 0.24542892211102574, -0.5857588665195832, 0.09815488555766172, -0.8382277350017, 0.21557473181873865, 0.7425549332613375, 0.20657371825498627, 0.3682362583053036, 0.4590603129922479, 0.33107890230690984, -0.2536396559978771, 0.21539359757957044, 0.30871026114144295, -0.08459337175496118, 0.9742652651463277, 0.7812434278577247, -0.46899414759430624, 0.5093804616386457, -0.13946211194555325, 0.8381527244733316, -0.4545425758036703, -0.3707004839226349, -0.12484420053573064, 0.6567182094032236, 0.7804577625785607, -0.6076728487514771, -0.13760710343484606, 0.0612336180334363, -0.21666390241053435, 0.4345312142004727, -0.8016424510348219, 0.7396490277028587, -0.7384381429992646, -0.5930915954775962, 0.022479912787147782, 0.4197831364053246, -0.2974349023970597, 0.6826959426961077, 0.24044112600016354, 0.049505997044269945, -0.24300415659232]}, {"b": -0.6308530743251739, "w": [0.6485797830084492, -0.8114707374169681, 0.7368445158068961, 0.45158453566339407, -0.10014665102474019, 0.09814366796298235, 0.7083845323879361, 0.04782192968430232, -0.9517889647928466, -0.6531373849584525, -0.7620523580539771, 0.32239853546671626, -0.48503602656663336, 0.5468940107075042, 0.018346735287143368, 0.02694432647138245, 0.9185655748980375, -0.023415830622351752, 0.1530267834083312, 0.17601597297392502, 0.10383036341669727, -0.012021435187607343, 0.44150646883412015, 0.3820098976649562, -0.7155952598530744, 0.21859512623396005, 0.9934252984937586, -0.10926730026999287, -0.7648498287124323, 0.8523876651441409, 0.8418347406409361, 0.8985917602783955, -0.20188774598620673, 0.30794351097208716, -0.9556041932915771, 0.8134294347098396, 0.4586705681940233, -0.2222276137809458, 0.9391748520647938, 0.13858126248067038, -0.21753711327102376, 0.4842488435125303, 0.678566958918561, 0.11243284677765675, 0.5068822740353149, -0.9180844345528956, 0.7096715647118159, -0.5933992622655846, -0.5452995187867244, -0.018932063327238735, -0.9200408251054002, 0.5769057969249833, -0.0838585392634601, -0.13595222107606664, -0.5624990974168325, -0.27980305876944356, 0.6322178370148432, 0.5679561020982349, -0.6915469630724389, -0.1333613000642404, 0.09721630412050675, 0.07687010715462916, -0.6977415498121733, 0.23534162262694402, -0.5486528790751439, -0.8473361577510115, 0.4254526638107283, -0.6002208251728949, -0.4004872594440767, -0.4494845118080131, -0.47936032018113073, -0.012341496286679687, -0.04383349090147437, 0.8009372119084035, -0.23743637407469365, 0.19905650733414038, 0.995271336363132, 0.6193027251438037, 0.9650162714419179, 0.8280365466583208, -0.8314080604453287, -0.5977104032539948, 0.8179970673121926, 0.9460395222866134, 0.673176567278853, 0.2655182119018258, 0.6550665461937668, -0.6759385456218545, -0.9712513291909664, 0.1854820603335483, -0.14605307666944145, 0.8557138958148209, -0.8075026973076631, 0.05688960929436404, -0.7399046655726391, 0.9378378205514606, -0.9588434248343858, 0.7060584398552465, 0.25194127337024397, -0.6251199098814224, 0.43085841088939225, 0.7688675576281945, -0.9831952643695694, -0.6203960293332842, 0.41826512727617726, 0.002609144686806175, 0.3830103889196441, -0.8384017649677462, 0.7670024351179665, -0.024535463554614, -0.6990417140123768, -0.3279462073816013, -0.7803522876631743, 0.3789090155678798, -0.3398215660490149, 0.33650055777107535, -0.9248965325898388, -0.4193104931452676, -0.529174191347582, -0.20644546127361996, -0.08414223801022036]}, {"b": 0.3622417821494708, "w": [0.3299204880366562, -0.19592405851075445, -0.7672399063815467, 0.384747289671286, 0.5706957765977996, 0.48508191708266635, -0.3087146212434164, 0.35798516689114335, 0.5678752517951857, -0.08343219702900218, -0.3354643626929843, 0.3863066508400519, 0.8154624070085177, 0.10967033263317894, 0.3361541751659769, -0.5690445851587882, 0.1281283574179295, -0.21763014847755424, 0.617875115782508, 0.48375838763842993, 0.9426924735511482, -0.02051334658843973, -0.08017604215897078, 0.4612143389500887, 0.17718955660629487, -0.917714346476749, -0.397449489983015, -0.3519991028735274, -0.06588307991377151, -0.4068841987474623, 0.7256339525941264, 0.4245861743169599, -0.3127482532740389, -0.9701294964848475, -0.3684038591157297, 0.08542176880487529, 0.5811330119761011, -0.04144483194417492, -0.30587664449692253, -0.3604004354710131, 0.29662840651478883, -0.9723529810472424, -0.5746038764882935, -0.8348674246348826, -0.1428204869129508, 0.16587862205816695, -0.1506190526216027, 0.21341156303300313, -0.5888773667338609, -0.1625516505047735, 0.7114126691337856, -0.4611491338380318, -0.8637899154576774, -0.30383240574429804, 0.9172317066118747, 0.9589851558615061, -0.7373650176175461, 0.1696290449818969, -0.6024200346816893, -0.38687946038107923, -0.9701301522858825, 0.1586018260541262, -0.44206014886095346, -0.011598691811643302, -0.6643566403395835, 0.21049560319948935, 0.7917247829922525, -0.6414047267313023, -0.685557013570194, 0.22838147374528472, -0.8175810353483048, -0.2393140175890176, -0.33082047548420035, -0.6938779377031989, -0.9982013378692394, 0.930417246702677, -0.20126384833572963, 0.30138070228377045, -0.6342127632159211, -0.01757596629811764, -0.660516671173422, -0.09650507997183522, -0.02201278966060327, 0.09270118306305908, 0.009345326046306557, -0.5385259296469631, -0.6692747058182815, 0.6671141823879256, -0.039489045904090636, -0.09794225260602807, 0.16197763147111277, -0.0051481974753249116, 0.11433604378719942, 0.890870990622513, -0.38486606634422715, 0.9060317477833824, 0.26563540638794003, -0.350887157198726, -0.3801719268614001, 0.006221911344250319, 0.11807566734421915, 0.5857253350233924, 0.04905441166767277, -0.5993146589515019, -0.03171952677765755, -0.5369964077387233, -0.0752039831550868, 0.8408451004527586, 0.20129689914028703, 0.6349372697581592, -0.23757917626898384, 0.9880049620508475, -0.37387619650114856, -0.3724366636066385, -0.7863878338515531, 0.5451768501464969, -0.9580005514735648, 0.9033919501748815, 0.10382083798325703, -0.2961572000984818, 0.6600494437031177]}, {"b": 0.9018932166251028, "w": [0.5211050185039467, 0.4671273786934371, 0.24958882081643097, -0.7064729373468577, -0.8545910983623637, 0.4796337266068722, 0.26075775389720723, 0.8745203274461077, -0.4465555170512703, -0.35598402341125346, -0.34632834305956695, 0.5515624053526951, 0.1892123022532921, -0.2541419438659456, 0.8648901559164945, -0.13788506586961513, -0.19809604003252934, 0.1567012191545858, 0.6347483050756044, -0.11651433657878463, -0.9678858813671847, -0.3805050016570848, -0.4695656176154943, 0.7729181702571464, 0.9676330840993299, 0.6044663468642877, -0.6614249852806697, 0.6502209052830723, -0.4959018561454678, -0.30864412779828587, 0.856724566207508, 0.231303880666331, -0.0095861174252867, 0.30345871982330763, 0.10737696047186396, 0.7896818285811318, -0.150629360295073, 0.24181110189992894, 0.5915691677358399, 0.4079368824067704, -0.14953771550410155, 0.7542458693855962, -0.9597285368656641, 0.5263491123602173, 0.4778949280060856, -0.5258528549466956, -0.7044668588571521, -0.9488894051965424, -0.7420865659004812, 0.3637760187577941, -0.9237786333280935, 0.10732456580479233, -0.5315520415290149, -0.26484089115692, 0.7950213864482367, 0.8732815359782746, -0.05777787745135532, -0.5866234786935995, -0.696557151492808, -0.2049729899421131, -0.9980228292890831, -0.23005424927408846, -0.29296320027680145, 0.4174022226283183, -0.8225951623927787, 0.959860248927642, -0.1277498959265564, 0.6161063872554717, 0.5897100115993483, -0.08804873613689068, 0.8475938542888446, -0.9441342321341861, 0.9865730983399297, -0.9707425664027243, 0.4480784585044584, -0.711791834369667, -0.11394441437034386, -0.794457443143503, -0.43702061678652204, 0.42233420338182226, 0.5378254930532209, 0.6601853605277388, -0.23022465561821637, -0.4430235048736424, 0.561792419350255, 0.45960411820219793, 0.6169639156151392, 0.4135887285897486, 0.972480158156193, 0.594324979481796, -0.6909936603445184, 0.7185400995251316, 0.15500949404754882, 0.9475843665184194, 0.8679736524610029, 0.6688680423532714, 0.5861115340770131, 0.8311499863912384, 0.26999707983778487, -0.531654144125842, -0.012818167594775165, 0.5192276868263332, -0.7637443016658141, 0.18654257870915214, -0.5555957456579583, 0.9899727691308069, -0.321122839954076, 0.153477062212116, -0.26689426278151296, -0.30381094717919366, -0.8914061367288648, 0.008691454637448803, -0.7747418286297749, 0.49185425419761186, 0.2661948835076653, 0.9528513916377739, -0.8139585261232467, 0.6767945091639405, 0.4008414677561982, -0.7935842352120173, 0.7104282046645132]}, {"b": -0.783804410945973, "w": [0.35420570524396244, 0.7890763354130219, 0.7700346516805556, -0.1636788044895381, -0.9183320255115874, 0.8720759478164415, 0.5567458873215603, 0.30827011285607653, -0.28683758321424935, 0.3329196581567211, -0.4605594276581739, -0.6527596904204189, -0.8003930404498054, -0.4905545223942396, -0.6154088688481543, 0.022979254423930895, 0.49747301870058647, -0.16547622809888063, 0.759541874008588, 0.4747016473214545, 0.8532703288717989, 0.29404352072300854, 0.6740160426497148, 0.6731349322669551, 0.541156810481068, -0.577636476543667, 0.9527544845299196, -0.12657750600710727, -0.19267501637652962, 0.8594532306259695, 0.20670638937937102, 0.2667990887485685, 0.20517703275311905, 0.7952397422077098, -0.6415699404223212, -0.5845212262864525, -0.8196992146594555, 0.9164271830192199, 0.3398214536929922, -0.9749769817813403, 0.03299678282597118, -0.03105761531418394, -0.3880678519245584, -0.02074081349781154, -0.035082168466421315, 0.77641820863663, 0.7593677522508482, 0.04931378583884305, 0.5683113125890202, -0.03816102659738596, -0.9428316839509205, -0.39615808781951345, 0.19618539923376765, 0.5069682152472814, -0.44088936246341537, -0.4312770944967821, 0.8504156590271987, -0.8186257524089431, 0.7759664470289256, -0.6876647896830599, -0.8082456475861235, -0.741037812595595, 0.9675005092794091, -0.19892314152386925, -0.4887525215465063, 0.3254806964686856, 0.8767546457602666, -0.465294024336139, -0.9908968912063829, 0.8649912033006777, -0.9437456038997611, 0.7716312694336447, -0.28177605022405716, 0.2946335254062611, 0.11985311653279518, -0.4416181581141527, -0.1638177081477583, -0.985793915134066, -0.5485796485250944, -0.35747028880671095, 0.7911024790834673, 0.7979363602368319, 0.9395259841414076, 0.6768005833212378, 0.09042166349698388, 0.3260156671477825, 0.4402338813723967, -0.8378501466039316, -0.12273353551703892, -0.6301020994545616, -0.6540094109075476, 0.9123458825293829, -0.697119866550808, -0.2962893693396502, 0.21803259069228398, 0.37781217862792826, 0.3087056219680322, -0.2932389844389449, 0.5714743040640213, -0.42112046634662637, -0.8748694675267503, 0.4437072857194493, -0.4551378439944769, -0.34883274765674077, -0.801479137053231, -0.07725711787945122, -0.6400065419594905, -0.2266202346748898, -0.5350243943852169, -0.051052064083302984, 0.8338993436906654, 0.813851675384353, 0.9808769872307963, -0.9780238680892488, -0.7894044300757919, 0.0014797564990449708, -0.30719568533249864, 0.6421102459842969, -0.4146260046635375, -0.19141768106797818, 0.9372922196377844]}, {"b": 0.7995179569991628, "w": [-0.7152879391538469, -0.835436262688493, -0.24240359006284984, -0.161526946789472, -0.8426786926777654, 0.7646790056083144, -0.3890783488894587, -0.8844744356591789, -0.1990260056073212, -0.39837013971550994, -0.6949169201984597, -0.6333795361840442, 0.15532376817328686, -0.9008862668385431, -0.21381103776545474, -0.24998770185426267, -0.7616444555720734, 0.6124443564038797, 0.5925455156381207, -0.5324279033487567, 0.47627205513731785, -0.22399466780862887, 0.7138559062140928, -0.882133879050077, 0.054038507510038025, -0.1065774167146798, 0.7118407985943118, -0.8990669692302802, -0.0210064585905958, 0.7362328355055379, 0.9082386288881326, -0.9154081553239544, -0.10581029789327978, -0.5238761104884284, 0.42489592020578004, -0.821254496550466, 0.5697092797943841, 0.8203979979837328, 0.1003919773919455, 0.36378223237370855, -0.4263393686053887, 0.04617057081232412, 0.409704051324026, -0.5424321850269715, -0.13456873229249866, 0.7704114531986208, 0.5448891005760592, 0.7564746684387025, 0.5151688260378107, -0.156680996033975, -0.559088030244278, -0.3832420468303359, -0.7091380833676553, -0.8496052906023912, -0.5606345395034555, 0.319937412276597, -0.15003944327793506, 0.19805051361877757, 0.32935817897306063, -0.5687164455459215, 0.2560954287122621, -0.6351625872482962, 0.9372853645479964, -0.4110727762592905, -0.2573281042958906, 0.33074765262762496, 0.41862721809697523, -0.8541597145552666, 0.6354390155151217, 0.723082413885801, -0.6578047263229074, 0.2657776611860332, -0.9167325597767377, 0.2214189793851511, -0.24321507576453616, 0.8732405836729531, -0.1323903258406509, -0.22844398908561625, -0.04013697906584768, -0.8418631974968616, -0.5393110505256846, 0.514558935762478, -0.757095392749854, 0.9575403423910551, -0.5163817477077806, 0.5494967882925073, -0.4381708964372637, 0.9069441223533112, -0.5948330667799107, -0.9980873934724286, -0.031136442261517905, 0.5895589124806986, 0.6757050495930188, -0.5712372691472958, -0.04485997770805983, -0.5763894904585214, -0.027284209376625457, 0.10233887077322978, 0.30090163167723083, 0.6987060522339237, -0.44536605608432667, 0.3223399804536313, 0.21771136509930056, 0.5000840990044872, 0.5897177136251921, -0.7581578369160213, -0.5632637760850525, 0.9587708946461746, -0.28616774717166504, 0.263749566995064, -0.32157578929717046, -0.3920996562962151, -0.6889135610838069, 0.549802112673365, 0.4263128839210253, 0.12528857991049103, -0.6168287957011511, -0.8973212920407712, 0.042058792966441993, -0.4178848021526935, 0.5349285017732488]}, {"b": 0.6708248363784064, "w": [0.6515494305157614, 0.5991295312940625, -0.6578182944678594, 0.7313165106460888, 0.6366350588736678, -0.7157025302014848, -0.9518184379602983, -0.9141895238037738, 0.37693365402378265, 0.24114913376708635, 0.7973029991804321, -0.9618069875722695, -0.9543975284993775, 0.9352803457230736, -0.8745961980790031, 0.709545395579003, -0.535251944016492, -0.17167547059633703, -0.3090460359328886, -0.7769744361628321, 0.336679540489627, -0.8151395866217181, -0.042312578512806676, -0.6099939822259806, 0.8473810645609683, 0.4919732128899694, -0.2645823872697568, -0.3301769822143681, 0.1446115955603462, 0.056728943588869596, -0.006864301233419967, -0.997584950596093, -0.7298248428024887, -0.7521378887047632, 0.40738458136081634, -0.584847589914919, -0.4335153334924453, -0.5903975971210456, 0.504013405461986, 0.08242031951223128, 0.9821591588727852, 0.8473374661091146, -0.292244213511756, 0.5425177899730453, 0.7608342894359197, 0.45694681331552967, 0.6391564636117517, -0.6140020663824248, -0.16366766725390036, 0.24457102860862645, 0.23490151178382024, -0.5644022592576476, -0.8595840865994415, 0.033239288779784104, 0.37749283053944405, 0.14773086707078575, -0.3759236111967481, -0.4639807184149902, 0.26895348927134144, -0.8056916753605674, 0.5868215870017399, -0.7167259025166917, -0.7898463309467192, 0.259832792037038, -0.7252930310345065, -0.46870716627130204, -0.7324445980716225, -0.9408895755195505, -0.12004164002027418, -0.30801371353082296, -0.1607424381501239, -0.6501075897506734, -0.919320421211268, -0.5977500776903093, -0.6624373766481699, -0.2831314805251972, 0.03848772057864025, -0.20983762169381381, 0.9333318320073283, 0.9706986186357558, -0.9820790257361696, 0.6867122946940178, 0.1935572256918503, -0.16951383334825287, 0.4716130489803072, 0.4887481835311531, 0.02942901592796976, -0.576408803193599, 0.4611123284691616, 0.7338031613975937, 0.5893353933777645, 0.5936746586020913, -0.28745903821305197, -0.4104711354839563, -0.20138472741051827, -0.9623379958294149, -0.4257528492955047, 0.9042713761441361, 0.7206213812018867, 0.4100171540853057, -0.9257529381745555, 0.289900058136898, -0.7770138183386448, -0.10443752990935318, -0.28013676900068707, -0.10904901905527176, -0.19522282075408248, -0.6361893733723347, 0.3254597188261781, 0.7648724010920289, 0.7313858436907099, -0.73628907951431, 0.288575067325725, -0.401099520811528, 0.0874390448904454, -0.6445936916119437, 0.6415918444153279, 0.6035590429298794, 0.17274999512221667, 0.20927217012436627, -0.7939079814686243]}, {"b": -0.8869768469947263, "w": [-0.28308610260415046, -0.4323366483473474, 0.5087525650821909, 0.8449710736813594, 0.022572695321336544, 0.2578356747982009, -0.5145020543275756, -0.7301521558629664, -0.9472917182112206, -0.4663981894414526, -0.8808033197211242, 0.9950094384790513, 0.17966303481005852, 0.7971382998962597, 0.2092724481145536, 0.46007631035132746, -0.10557633735620131, -0.7126093452087474, -0.3455787675767432, -0.31278109618459093, 0.9783665784450961, -0.08554744396697433, 0.16484539176936708, -0.09776066385695259, 0.061000180240632584, -0.35959943105196057, 0.63542862053301, 0.2830312444504932, -0.4338543229140621, 0.4592949574006453, -0.9527708756540618, -0.7417091318956881, 0.1350933366117859, 0.06431699245004929, -0.2703600810287625, 0.9723931851545979, -0.3464547631183561, 0.6766854712467034, -0.9948872556771622, 0.20170335347741863, 0.4645566367357403, 0.11559584973571657, -0.9341715793463075, -0.3964478453268403, -0.4300084403356441, -0.1245062814643374, 0.4430636146370306, -0.7205747103902527, -0.3133694139562184, 0.377106883704325, -0.9014102676101061, 0.028870377745857878, 0.3050252071500865, -0.801318983703821, 0.12610585646380978, -0.5004011175481449, 0.9518009731695105, -0.1069380558784625, 0.6693823824045697, -0.7479398335706151, -0.29495055679053195, 0.7606281607819627, 0.6262316810611035, -0.7759784143204562, -0.0694305651558651, 0.10026893110223845, -0.7610689858647228, 0.4438757399005391, -0.8215609587007209, 0.3837717863404315, -0.8301593641607048, -0.7001333582351157, 0.3147635876599171, -0.2733428516206209, 0.5278379655882213, 0.4962040848150422, -0.7522173429441101, -0.6166469296932944, -0.801522823703505, 0.8045043628190991, -0.013327153659465019, 0.2856849597235007, 0.6372960524272044, -0.14332052042006094, 0.5744245043714902, -0.20534422249022288, -0.9031387239254787, 0.45916339698892705, -0.7586225772674511, 0.7158185853367447, 0.2174758806742021, -0.9262570285033112, -0.6844818480620265, -0.5779785529787613, -0.6649778232755512, -0.019283483659499945, -0.7403216334977052, 0.9940864633115807, -0.6186074358633955, 0.40238050273775317, -0.32673151853646654, 0.3753520011461069, -0.18834897724535726, -0.2198169071262981, 0.2559717939436088, 0.21966945902622248, -0.34770928389539435, -0.867557052061479, 0.5673829930054288, 0.33973863095290646, 0.8668892564519128, -0.7616112581398584, -0.7071096261864211, 0.5256841374031689, 0.7175780415180995, 0.10383741373819366, 0.778132248009882, -0.822698515628717, 0.6588900858678397, 0.26238824883872924, 0.6069547471241441]}, {"b": -0.04963099454469422, "w": [0.7888088748429267, -0.15609191031869618, -0.46500050483647626, 0.5163907536440104, -0.9608188873328809, 0.35477640393584786, 0.23937776410284384, 0.30540787743198305, 0.8898589230996987, -0.2797998925261751, -0.6906259162089443, -0.4952971443342038, 0.547363726137045, 0.2036879150144313, -0.6196055286863105, -0.31852178598685943, -0.6929628075765606, 0.11999523594644335, -0.0211476883376156, 0.8683446814031044, -0.3470811185257594, -0.7403245034153745, -0.7226582774595955, 0.11708303401286813, -0.22767973391464036, -0.7899551916744467, 0.6421704587288586, -0.1872920132883531, -0.220504876285341, -0.2934770869328358, -0.7819445415976523, -0.07828886252813616, -0.6429765038378574, -0.7419361373487603, -0.495271680348353, -0.01592193266428965, 0.5035472431644663, -0.7313125291114464, 0.6100093474526005, -0.4134886220057452, 0.5496142713947632, 0.5753011000848631, 0.49985899487563756, -0.6648331511624272, -0.9156022504664527, 0.6362620018105167, 0.021078587309189656, -0.7395671707564835, -0.6097979155830817, -0.01329351125920697, -0.2655178588556695, 0.38098264495884515, 0.1848868760242297, 0.6978271310317428, 0.4361637370670064, -0.42158944432940504, -0.4894667308385252, 0.18710211898286855, -0.39785273295013757, 0.7524639065213243, 0.7625277038747951, 0.9888418569371253, 0.3936980987785206, 0.16521220279672777, 0.8585919933015513, -0.4347336160538069, -0.2878926756038924, -0.16131772162349156, -0.3125300627428922, -0.5449782148120283, -0.9473981815517571, 0.45569580433351975, -0.16726764639644376, 0.5629402022376331, -0.6297144304225375, -0.456451911944453, -0.8282542002696052, -0.4591789572385383, 0.29141730694381174, 0.22025084233849235, -0.4961477790008897, 0.11453876098100779, -0.26864995002769554, 0.49417218438795496, 0.660822769958231, -0.7108380660797715, -0.9309728725617423, -0.15752532844310907, -0.1572709252585056, -0.31157616732803706, -0.08285976053980249, 0.6252651451761566, -0.9368182276999413, 0.18281236037770388, 0.4802713323713068, -0.39282818322499247, -0.4075028470294244, 0.5207940827032578, 0.2552788916463282, 0.5170181973826038, -0.617661867539393, -0.04036577029333177, -0.9818909119248087, -0.9869527036763923, -0.23226644011738595, -0.8904628666389054, 0.7491741604466633, -0.4026259157031873, -0.2614510444097744, 0.11964858403898448, 0.4976028412716833, -0.43230256267777967, 0.2997732224863845, -0.007666210900225456, 0.32967062583385154, -0.9254402080323847, 0.3020657246124714, -0.22141485494247592, 0.6412232025947444, -0.5814497247330868, 0.8063693850842204]}, {"b": -0.9280654962007582, "w": [0.6672557622662414, 0.8345342421981294, 0.2787245049203444, 0.5865048178698102, -0.4196704384061012, 0.9678584522145468, 0.5201437782054747, -0.9129496948764027, 0.33413965224984343, -0.0837308045257148, 0.23675215920974768, 0.9704353522206226, -0.37334095714552085, 0.5381982592744554, -0.5316352679390042, 0.671169168145582, 0.4046970865301929, -0.5571703918848465, 0.7729886572119846, -0.30491636157569846, 0.37482246199277647, -0.12933312720585555, 0.19862072793603902, 0.6355004114384963, -0.7223755771548439, -0.4525321836774263, 0.29626021803489233, 0.9069462018400805, -0.5422586852341218, -0.1236243746749417, 0.4838092285772111, -0.10265380497904042, 0.37039844718545956, -0.6459604026806398, 0.7176290767270075, -0.2643681017158217, 0.9309126650264674, -0.18598208953356155, 0.14335344849665033, -0.3406057081680052, -0.27624419433079006, -0.5491241698039364, -0.5134528255653823, 0.09096999367142389, -0.6416439722578189, 0.22076087206959882, 0.6085531475716297, 0.42542229534972864, 0.5747264512678687, 0.6054526676821013, -0.6234656361924946, 0.5850261932769607, 0.23209739949120234, 0.37539869425163896, 0.27573488729245543, -0.6551663798900298, -0.39147038794067557, -0.2608872875445092, 0.5577048208658877, -0.6041307447156024, 0.8385571398796721, -0.8546632747700165, 0.8447259504990337, 0.7344938401525549, -0.17420636382970534, 0.04580127015324975, 0.2203131920769592, -0.23593508830196397, 0.8414338853877938, -0.7078870657548852, 0.28218933984472505, 0.4604065050111208, 0.33239324620100685, -0.7364383557186129, -0.21609535425777238, -0.3191486955957046, 0.6642869987152749, 0.7740903174656215, 0.6659497177788649, -0.4216845520898438, 0.3491375491131279, 0.6107131536294867, 0.8102916052864888, 0.16930937565578108, 0.7454160336287625, -0.5891449222710079, -0.9788362545471847, 0.8734828294069439, 0.3994125332388667, -0.8425808040204481, 0.6595676200588325, -0.8611747841881281, -0.01680886854219943, -0.2481241446279292, -0.3738042586553023, -0.3040100861772468, 0.35408907594967554, -0.47553824225263885, -0.8860263381475748, -0.7522520911084924, 0.2149785381249436, 0.9562104354486334, 0.059088865805417834, -0.4648994779363249, 0.8254936788030383, 0.48503013241405735, 0.8105338960596742, 0.21515860494198003, 0.3191584723494496, -0.585334186075652, -0.13778507475855273, 0.9135939771487542, -0.1568485430086124, 0.3876701649199885, -0.24774183513636938, -0.10682270909471647, -0.11016541147321934, -0.9239614644443395, -0.7677425475320263, -0.4914310498889445, 0.590685209244749]}, {"b": -0.5591725988721139, "w": [0.3585817484832845, 0.16014320496061663, -0.9707307776196097, -0.9572742630615381, 0.6442754938279593, -0.7646654558855712, -0.7294346856729097, 0.735057031365473, -0.8097920955267932, 0.6289667727568398, -0.9968977810341912, -0.45900378123404395, 0.5354703064517985, 0.02714629800703361, 0.5077691402154345, 0.36551231414725827, 0.15358114908009757, -0.680515725267536, 0.48613742535730653, -0.9861343610718369, -0.45578945220859635, 0.3739304494986859, -0.6699947135092506, -0.71856052169714, -0.5686085401999708, -0.23375549711659627, 0.3534278599300267, -0.7876698422018202, -0.15820235473224398, -0.9515709748248526, 0.5884454182037666, 0.25291975105258424, -0.7090509311112467, -0.5115451284834838, 0.6686281299898824, 0.7254226457693196, -0.8242479830188596, -0.9873520066225581, -0.21750734381820647, 0.48933988918091487, 0.1404564024404189, -0.20702098157168858, 0.8573148513357429, -0.22821501342943584, 0.9442562634669414, -0.49957417970948015, 0.8243288529627935, 0.2626233057729359, 0.02473981725974994, 0.0749187745526636, 0.7789623651808801, -0.9854628604777482, -0.0672862505608427, 0.6863667608760147, -0.36500916579907483, 0.02467919213085179, -0.3356838539528202, -0.3938331377907953, -0.3817338008176969, 0.422852570773979, -0.7642330491803497, -0.19091429677326777, 0.7705171703473115, 0.32114710182890893, -0.9957695671565288, -0.8557354474171379, -0.39193887391872817, 0.6828259617569628, -0.48806393373334145, 0.46471641763474913, -0.9046198776457242, 0.5201268515322421, 0.7937137675705337, -0.23759675045281314, 0.5405751379184782, 0.015141938030313273, 0.09204847590580845, -0.8251943744583639, -0.9494185782331297, -0.18647601753001775, 0.4032084528974422, 0.9326979347003939, -0.2838326054009612, -0.2624517756435516, -0.8449018288346035, -0.20181574549277403, -0.9053384678832994, -0.08408680217252362, 0.8428703636956509, -0.22791369535433992, 0.49759790431865625, -0.6711815553917144, -0.37465684412651235, 0.3121901177231048, 0.43825454882934567, 0.8183453552261231, -0.5470301207302588, 0.32773151755325136, 0.22445963619849252, -0.5115959621361015, -0.7055623724613553, -0.4745179025871824, 0.27106017282435224, -0.04855187634131153, 0.37977595336377434, 0.04567908998721504, 0.04291032165237629, -0.6057993745691399, -0.14290784879078466, 0.26499726453412853, -0.9455633883419525, 0.749772250516739, -0.8537004594580173, 0.8404160972567594, -0.08149494417274594, -0.8634124020260523, -0.7494618798575963, -0.5141323139053982, -0.0382156904928701, 0.6406981405875802, -0.533134670325786]}, {"b": -0.49997703868759724, "w": [0.8995752310074927, -0.36247444845543964, -0.5389591979750719, 0.5400803704473474, 0.8526748518520535, 0.034144179940833075, 0.03278646140187069, -0.419766379172563, 0.8664527349054938, -0.14605835649196774, -0.25517946860796314, 0.9563803357843295, 0.07372469224229006, -0.44398918549641175, -0.361596022607086, 0.3271357433363453, -0.7340694902518881, 0.3033398417394966, -0.17050711553472908, -0.23343606812993745, 0.1202557541059961, -0.8601884736889991, 0.07386111157515862, -0.810974619875213, 0.156580128317114, -0.32711999829854044, -0.8516522379635123, -0.13212010138518293, -0.50007585119286, -0.041644535500495516, 0.5187210563846021, 0.7902939710261407, 0.47067812169633805, 0.044529945013001004, -0.5511679802789902, -0.1884284920128323, -0.5209114461654945, 0.8861081612077599, 0.9529145953463021, -0.33585629711240683, 0.2511457342072192, 0.22919200428775333, -0.52524774731788, -0.599041653144639, -0.4095563827467419, 0.8643795859674539, -0.6701436640753675, 0.317376917054522, -0.23116702982260273, 0.6886403681516855, 0.7302065607277415, 0.3156703532939915, 0.19011311159099198, 0.9334271263437663, -0.7938908225734254, 0.5804814971265038, -0.8183551425898659, 0.41699903964534846, 0.958816703340295, -0.14343907480471696, 0.05040380597326766, 0.217869128781367, 0.21687053449803084, -0.1235528160656203, -0.14901487879510444, -0.7305207035522105, 0.037967707370016646, 0.08281771834330498, 0.12065719229769378, -0.948744265224124, -0.17812966707943145, -0.18889348848221, -0.5436231832274259, -0.8236050557947043, -0.9481508653412398, -0.656551724741842, 0.7335802541077496, -0.1925029640975846, 0.3244449661815674, 0.04001078102570044, -0.8096420780093994, 0.2036077469660107, -0.43933708920224857, 0.7717537386337512, 0.5519114071709648, -0.14472069842602964, -0.5751102912336092, -0.19656313828668948, -0.2031752560787432, -0.5668949902650215, 0.6756962715515904, -0.5564870552891261, 0.7328594085539222, 0.39179554285588414, -0.10005201485638482, -0.3773378692122056, 0.7079990896391379, -0.5406792034860648, -0.9469385407085937, -0.9798448793163252, 0.8786737373147113, 0.023270214222491425, 0.10861936518052628, -0.4550274225458759, 0.7985121634552026, -0.011159616354874391, 0.18035646129736227, -0.43527091258749007, 0.7346684813169033, -0.6748050695776049, 0.3874666053378586, 0.7956008740837215, -0.3727765824974465, 0.26639066980104764, -0.18423212407262324, 0.7333051956262482, 0.017886149183259814, -0.04439123788403254, -0.3379500743088628, 0.5703943918721384, -0.3564885897625365]}, {"b": 0.4453106393547872, "w": [0.7417564891496093, -0.737670545371278, 0.9051279702504975, 0.9103510937813362, 0.13356560941271778, 0.04800622691520995, -0.036046095778895726, -0.38070059596591355, 0.3436361025492831, -0.6182828527414959, 0.6412999395218901, -0.2309107333714462, 0.9966089282040098, 0.06236555140963951, -0.9034463548201181, 0.7297589927119932, 0.9944308366742132, -0.12099818897143355, 0.3509549991202332, 0.5757079305137982, 0.9335599364798914, 0.2770820642463274, -0.2926339985608115, 0.5014618810817291, -0.1766654374268133, 0.04134130694936733, 0.9671479791269766, 0.5511763049083018, 0.7046801687012834, -0.6941316974300651, 0.3025295018756853, -0.5636453709422342, 0.6081303551637118, 0.2746752299789126, -0.6463975775719022, 0.7618096063226474, -0.13797348590734781, -0.06876412113569663, -0.09371458937808308, 0.1597647314869055, -0.42576749057909313, 0.6514309867578838, 0.464400055976526, 0.07202779222232714, 0.23712644622691448, 0.6621561911701894, -0.7184297037402514, -0.6452725113901276, 0.6431322474733154, 0.86640186352495, -0.9175739515232559, -0.934333658899158, 0.7457515394059366, 0.07033996572902379, 0.010056287945642284, 0.05824907313157168, -0.5370105634331244, 0.24542291080416012, -0.7099534113202213, -0.8488641939318384, 0.08855374333911081, -0.5901825731680839, 0.4767944766707026, -0.025100528414271128, 0.012360553522798634, 0.4746209681085707, -0.5927519144876285, -0.6888594146196525, 0.7303695349927424, 0.5079086840741343, 0.8374174120049056, 0.24544812515921777, -0.8518781341809154, -0.5822684005934051, 0.3844655221667821, 0.9438354368237718, 0.7353788449098453, -0.5212467742620186, -0.7633741041110398, -0.9460684157283099, 0.8941183019018621, -0.008591496493976836, -0.09386786657670099, -0.872530324546902, 0.3051040742784068, 0.4659683398777079, -0.5028814683450624, 0.47138544622789147, -0.3741079763122206, 0.8827698418720138, 0.3152469037122827, 0.6515285274505067, -0.8647246560647761, -0.11715511331579664, 0.9722561550514468, -0.8183707337403952, -0.40975882698389476, 0.17930393731763328, 0.3970145337394677, -0.9277705382267922, 0.08499519364827401, -0.14595198476610038, -0.1298645741199531, -0.9505544354743987, -0.3414419191040823, -0.2537961793518142, -0.04418526209977314, 0.34581160241202724, 0.9496071516664768, -0.5553721078438769, 0.625772773170924, 0.5166039268157872, -0.5599991963328628, -0.9366121814957258, 0.05486055541754675, 0.802740286628777, 0.25016561263935655, 0.9811775808774532, -0.20701523165465563, -0.5775836801137209, 0.28625410224838066]}, {"b": 0.30050689412689935, "w": [-0.09991718668915439, -0.5567354867689169, 0.9797376864532072, 0.12135932403444682, 0.8368773989286722, 0.5963575119116111, 0.2590628273178326, 0.8102852014811159, -0.4055838316058755, 0.7725306212998357, 0.7160539417240959, -0.6698607506085879, 0.06571732739126634, 0.7819703055882534, 0.9051168047380391, 0.573876822772047, -0.36152671579142903, -0.2211986230160785, 0.467248940926986, 0.5913292219711115, 0.6534269229009237, 0.7568900839942243, 0.9109821907146862, -0.11055481445740734, 0.3629198308795154, -0.665774749670774, -0.5363224158768396, 0.024832336825773016, -0.023105245772625516, -0.5285611969019157, 0.36686880092770635, 0.5849420259465241, 0.4591374228451244, 0.8567018555295911, -0.9074995868488149, 0.48708532930224835, -0.6586941205219652, 0.6801056667292804, 0.026334655002039575, -0.5479645578736951, 0.35377506505109846, -0.45843586008520765, -0.2917570020701019, -0.07003346233463925, -0.38575020137830895, -0.4286729083631491, 0.008663172032515432, 0.07738525826956377, -0.8730149710013124, -0.8761701349180111, -0.20689518245166427, 0.8281620288621485, -0.9071939149955055, 0.2505335835599749, 0.12585227744964467, -0.02143492385861534, 0.5067694039830186, 0.270140774029193, 0.7914285391353746, 0.7692204722015579, -0.321784887032432, 0.3253789480892382, -0.5250619853126266, 0.3602917150336147, -0.9806076902887917, -0.10741336549728864, 0.7901316611699822, -0.37618561175446685, 0.985238496486373, -0.5973917616568893, -0.8603843708451293, 0.5869769723913356, 0.2197018793139891, 0.10512142336508101, -0.35746856789923775, 0.3981320063357874, -0.9282334156385299, -0.46851247119140127, -0.358855603491989, 0.39232762224347484, -0.5448457460825451, -0.1507981604190396, 0.569086713645043, -0.7761847142448584, -0.13928348066335006, 0.35229202365474, 0.7558210333579618, 0.10235647470259446, -0.2651932817052589, -0.6175629640922193, -0.23925385804547594, -0.19859864749920364, -0.21165569503878623, 0.281191673214485, -0.7933841342473189, -0.8285214330745849, -0.014438873448886502, 0.10869338153611752, -0.06584384241497676, -0.15178391727018226, -0.803848935354962, 0.17291973808353545, -0.7375229878158824, -0.7678124679491847, 0.49895586857976126, -0.28366189270904263, -0.7073499606470455, 0.07009559518178765, 0.23774755704528516, 0.7385112945531476, 0.7419980598627782, -0.05258264992491868, 0.7272007648340917, 0.3682747836814826, 0.37765461653645604, 0.47654574761229784, 0.38533993626113405, -0.09566779817967963, 0.8472014839251063, 0.6708202984113258, 0.30714104249905705]}, {"b": 0.0792426680702325, "w": [-0.4954318852527051, 0.012832140541247039, 0.24373053217622043, -0.5777973179869569, -0.2540453065603008, 0.37898375603456436, -0.3174858064821342, -0.9674125499275754, -0.13202610989929386, -0.04797999557203814, -0.6149971514445518, 0.3062340070022944, -0.3701825744226761, -0.15567791857259228, 0.8432237003877785, 0.3391431456776144, -0.7836367264953474, 0.9788337819601678, -0.9480085075445477, 0.9786028503499522, -0.6085050961411211, -0.8656499363076777, -0.44168173246004083, 0.8170747333314414, 0.21062779301798895, 0.394294663452591, -0.9276562751990716, -0.3964793310575341, -0.6811496814869251, 0.054794531539112734, -0.8648967518374764, 0.7140563152320074, -0.1086840424393738, -0.43289181976051627, -0.5736212608205686, -0.8090423923370158, 0.30685225304602826, -0.420852377574954, -0.04260716153148958, -0.6067167998954868, -0.25719145933979126, -0.6804935880469609, -0.19940683967334505, 0.0595462038009964, -0.9136877234757534, -0.8759392896042919, 0.6893581841597716, 0.33325831287572916, -0.5911130162346676, 0.7012749238804774, -0.03653477978468911, 0.5410549993536191, -0.9890897309729061, 0.3476418395566869, 0.7388472490482687, 0.5268192094215309, -0.09532916656571744, -0.5494739136765601, -0.32035678824317015, 0.31980446321707356, -0.8922369135867205, 0.5104234984843352, 0.2930780617865387, 0.2069614382409879, -0.8287420300873527, 0.7932410951625872, 0.5199539851873858, -0.3879125901400766, -0.3270725597253925, -0.33391275073401805, -0.6005276660984957, 0.5696325313448785, 0.4812689428583452, 0.654368504930998, 0.18617401793688115, 0.05826173757356323, 0.07982150579713454, -0.19163583881723745, -0.8798620931106869, 0.11241747246913159, 0.850893429365635, -0.9468511269550595, -0.745285354018639, 0.5371312728367443, 0.5376171886719323, -0.5968367378380002, -0.905393483176135, 0.4521543765050806, 0.7094551919233032, -0.21955731904705234, 0.9857805278635827, -0.5055263315268907, 0.21590668946366764, -0.19967643192575846, -0.4300594306816583, 0.10009646968573604, 0.22139995455682215, -0.09427783278002111, -0.16052159354356776, -0.9590998856823325, 0.025904610312695642, -0.07494544592420582, 0.3960541217035234, -0.23990944320754348, -0.9707840790391258, 0.3013437020087397, 0.6320956822544099, 0.5919562040646629, 0.6635145238984212, 0.6962843727211869, 0.5542256717971483, -0.643854472176598, 0.3465684638259179, -0.9405620848118534, 0.6714369160649709, 0.27152137981131674, -0.8237162215714389, -0.5323593629222332, 0.21460113079720888, -0.9832193817579644, -0.16944552518497935]}, {"b": -0.25631188914005953, "w": [-0.9300995262054494, 0.3475332749842752, -0.44751459706483954, -0.6376000129260437, -0.0989112110147905, 0.30792325852897884, 0.9490731029802078, 0.03927421678798515, 0.3448846892749815, 0.9094872186416432, -0.13426763379957096, 0.9266662067173361, 0.833076459398614, 0.9412516805862676, 0.2129906353040274, 0.8612319458853306, -0.12469114895194644, 0.19446655542217184, 0.7647801423708882, 0.3086448325443585, 0.8899515000817926, 0.8842712320662103, 0.7341429964187911, -0.025015197619302043, -0.40614632747034984, 0.2597096359870774, 0.17820879350048524, 0.9443285583209213, -0.6531865359329747, 0.8934906865792591, -0.4059790926851583, 0.5840340065112297, -0.08759186821932197, -0.6957189821561074, 0.6964944831831124, 0.5732451679236765, 0.9493832962890576, 0.17422232049423636, -0.18925315772254514, 0.9628214104972088, 0.3902625098417618, -0.9361155563016808, 0.7252080023942908, 0.2775917733671227, 0.2539564979801683, 0.4089271566815602, 0.38921759528483846, 0.6156547101172085, -0.8235299029186527, 0.675391943355313, -0.8075043321765076, -0.8265148734856471, 0.3986357939435201, -0.31373858340386485, 0.38248175098121684, -0.0535393140340088, -0.18137103838177615, -0.9937599514649982, -0.2281696927780701, -0.8531453538282368, 0.7011646543648267, 0.7904305574889128, 0.325416772698228, 0.9969646085994364, -0.9581423716325312, -0.4249425007670058, -0.4447528908738094, -0.09662679692460041, 0.12610919940480647, 0.661396569769255, 0.06909857966446209, -0.5593199437331466, -0.24177750284255262, -0.29583474981986857, 0.5118897002389584, 0.8192848867777653, -0.5116534185888577, -0.0886549101536378, -0.8727578926043529, -0.25202068168950054, 0.7308749096491296, -0.08572340087997254, 0.6053374907569726, -0.5947146142038615, -0.17719413194215305, 0.6557779628549618, 0.5624077683329016, 0.31572955616274223, -0.5161477054152568, 0.7999602432085964, -0.40854215408832917, -0.5564015227372958, -0.2892636108674398, -0.8386041765269521, 0.631308713825935, -0.31984351251253873, 0.611806898203737, -0.4958211690519143, -0.682289781814907, 0.14037999131540668, 0.39415478883805943, 0.18125367162536143, 0.03491848866725045, 0.021852747472531187, 0.03331561725718224, 0.7307942856823968, 0.24592354983160902, 0.17555362407290165, -0.10658749802556255, -0.3676623018677929, -0.31689366389346496, -0.6649008932309279, -0.4600985617522284, -0.8255800400804552, -0.5539264268284214, 0.9763532450854404, -0.7768594365994836, -0.9257711466532115, -0.19423747959144277, 0.9532746033719923, 0.4006069048016381]}, {"b": 0.6998625695496454, "w": [0.3238023962450134, 0.10870057742420558, 0.05474539118685917, 0.1676485098119267, -0.9190586051777503, 0.04330173988426367, -0.9089958889662755, 0.5021404040223918, -0.2820124479574364, 0.10508759517932842, -0.8521308272050381, -0.702134472583078, -0.5366249696582186, 0.6934202485600085, -0.5883550494468162, -0.03469612277736389, -0.7458315562213835, -0.43403276911679245, 0.4698677752112259, 0.009054565286730432, 0.38869406378140536, -0.09044105310690931, 0.19302927399648517, -0.3129269270756174, 0.907560200448019, 0.7440645810606086, -0.7566114851043979, 0.49642491060286176, 0.8510875207212467, -0.9455496450629726, 0.04623268556575466, -0.35182873380571, -0.7417834842879594, 0.23098589179132745, 0.5195555607794735, 0.32163553591032223, -0.707749197233374, -0.9810164212206316, -0.7391549183292729, -0.6797896480188959, -0.3619125568289674, -0.5073023620336616, -0.37993159173924607, -0.7426076112283744, 0.39657238169682785, 0.5390379163888379, 0.20834216355998292, 0.5504833017654491, 0.22297768242676197, -0.581978919804371, 0.2943001795601512, -0.6061851011933739, -0.2402255731603531, 0.9629866744978359, -0.9934844602984889, -0.954027026450367, -0.02726020910847171, -0.3771248181654172, 0.3946201590415681, 0.3566916896371424, 0.5256714632223278, 0.8684441379492807, 0.6438096210441946, 0.8449806258787127, -0.9292128704762228, -0.7285674186576983, -0.20424207783756665, 0.5177011815636334, 0.07470094926201809, -0.4338419108835274, -0.8404350349551952, 0.8231466038147068, -0.16918702057195656, -0.047684512959812464, -0.7926569232507876, -0.9406676709887871, 0.1558794040071807, -0.7346192443937865, -0.3090782652854591, -0.39673609040441127, 0.37205456285688676, -0.3251432867344164, -0.9304846919067256, -0.9445488834658333, -0.7367184011101648, -0.5095949409963416, -0.681551149751622, -0.014091204730614981, -0.7082833512593607, -0.9144056680231107, 0.033190422875276626, -0.18676503816022572, -0.44592531954115944, -0.299628664291959, 0.26166060282888703, 0.39790829811281525, -0.39952136335976185, 0.8177355849794099, -0.9944490125683663, -0.8106237573799111, -0.5213192606740611, 0.6622235375033934, -0.7872216675276, 0.8600782459676475, -0.819777254989366, -0.6410757507518952, 0.5248572483636145, -0.2697273722855924, 0.9884477358799506, -0.5516244685147125, -0.5287289513406794, 0.8186790858034039, 0.9521296897592408, 0.8186126088442984, -0.6881926379153605, -0.7929582070660155, 0.6581067628060575, -0.2569073955903285, -0.5266964830495593, 0.6135610814093231, -0.8981380830779633]}, {"b": 0.8749276552514802, "w": [0.35284556085397667, 0.5347411173907979, -0.9864466298988492, 0.5083835344687655, 0.3449496786032489, -0.640571968173588, -0.8179941146784107, -0.16269794098821078, -0.7185653607607889, 0.12412844829292125, 0.571603788970271, 0.5746122423735514, -0.5318211908001669, -0.6312843031986446, 0.6149585110385967, 0.373756097159442, 0.9500961816517157, 0.09744158624289057, -0.6315300589107866, 0.12700306938929717, -0.44095901284793926, 0.8414348805949066, -0.3176949388456185, 0.911958597897117, 0.14645067274725365, -0.32343303270216617, 0.02797248968497401, 0.8553775068042269, 0.9134673760715895, -0.09377841841364787, -0.21483463136454461, -0.3533091653064313, -0.033741785122657575, 0.9529603892696481, -0.5517632537153814, 0.41756150362944155, 0.09849660130819804, -0.24407973974156394, -0.16860065919454903, 0.9459098939291568, -0.02143753942658888, 0.6398341919977373, 0.8493914609134661, -0.796579111767693, 0.26645333362273527, 0.8941362750442403, 0.9081359450208024, -0.4430188421096386, 0.8175610281838337, -0.762332783917689, 0.3892195844008801, -0.6720177540891381, 0.8082779723693392, 0.7498377168864392, -0.5148738945549343, -0.035630080757195204, 0.8146651758120409, 0.4713782550116725, 0.37352190490534287, -0.6938031633215993, -0.839132016275264, -0.9740490664671368, -0.3921437465389741, -0.6644268019851851, 0.14223717532770452, -0.9109813701396108, 0.3539886280567368, 0.6358986486122213, -0.2424083282845073, -0.7382337476407754, 0.6267383294153399, 0.3294655711374279, -0.04698816281661, -0.6166204195285434, 0.32836774219632203, 0.0420400376644432, 0.9299836586423103, -0.7504104781508794, -0.3622490204909834, -0.15099523985927998, 0.4834359924266869, -0.7765015090658509, 0.6296036823148801, -0.11797822734421404, -0.3786631267327605, 0.32899981366779474, 0.45716777795992014, 0.47018397909539655, -0.7563722436981228, 0.9596266727477147, -0.46857028822222757, 0.21958616914589468, 0.7084168276449947, -0.42744093798535476, 0.41552426594832514, -0.08156884334634329, -0.6106136240414308, 0.5111247712709124, -0.602202171778359, -0.37391344667001225, 0.8369943771320851, -0.20269247052048556, 0.4557294181303728, 0.5082940434276508, -0.7648017594401209, -0.023046636194286263, 0.2092119261071499, 0.3362002050713522, -0.6713100088017325, -0.4695043159214194, 0.2502368927212686, 0.6584611471406665, 0.26767293728745, 0.8404889890692755, 0.5311895349607061, 0.061364553580063985, 0.5517484876818004, 0.4347348604786563, -0.19867121532759602, -0.25342499332076174, 0.34661746104488356]}, {"b": 0.40546070061623785, "w": [0.19849151067118487, -0.5163231534468422, -0.09061105425833627, -0.8708361338934678, -0.09468743319673156, -0.3337199389768035, 0.6650299725622733, 0.7333824445810113, -0.7419773717785532, 0.20746060719350834, -0.6814329036461548, 0.4501124700803265, -0.41140783089881805, -0.3984051130768378, 0.6387856653402249, -0.10553432782782535, -0.8557378774326647, -0.6009540527254262, 0.5489284337045384, -0.026289030784334644, -0.8518275647846507, 0.7101969049438759, -0.2928136759112894, 0.3289068301903415, -0.772250471318241, 0.404320591401393, -0.9958776746953866, 0.028595175527086125, -0.5534502987277885, -0.41996130532936715, -0.5321995185985806, 0.37040105184509686, -0.9990565985917499, -0.40805847653967753, -0.7755547951868655, -0.6560286539932854, 0.27767237263791156, -0.2762435436781754, 0.30937893642259473, 0.21624224037690665, 0.5409920378137614, -0.2602604262429069, 0.770742842465258, -0.030280341280489953, -0.5220883382942523, -0.9097645836736321, -0.5142158004763038, 0.003841498084682815, 0.536616370272033, -0.4321307154585139, 0.5179656795437833, 0.8843981334190238, -0.2218372580517436, 0.791766680053841, 0.6159345393904092, -0.8182541230420348, -0.6695996625501817, 0.8347936015022401, 0.7363464824040737, -0.7985802185275048, 0.6568546033593674, 0.7715798056881924, 0.16113134975293542, -0.43687751184026347, 0.8268183500385837, 0.6995820214093356, 0.7528985800315107, -0.1638579982121635, 0.5433894984902907, 0.28085095917000014, -0.6468689123694735, 0.7710879874512895, -0.9088845231292839, -0.47772000675422976, 0.8291809172948281, -0.7872378470477697, -0.017573052754788376, -0.4311880284986491, -0.7642069200501194, 0.028470141491646395, -0.2657899648495916, -0.3463466995224891, -0.499219527989764, -0.35390711903689853, 0.38099649301279714, 0.2817141856979539, 0.6682044831384655, -0.9236119473531692, 0.8164758769318907, 0.2503178774630983, -0.917114658386327, -0.6182846595260343, -0.331376960029218, -0.46002851395463384, -0.9492324377628221, 0.3716510832963009, 0.2822969394457455, 0.6336272530965792, -0.014807807253964578, -0.28471705820153614, 0.8737753580532011, -0.653032868500464, -0.43561916428258685, -0.5140768304696588, 0.13523070063228637, -0.5826363867055697, -0.17488458828213171, 0.3234028497424921, -0.6868730722195804, -0.1929620567551904, 0.820173757619099, -0.24906953421469935, -0.8927792452121259, -0.43205695723576487, 0.23971167022874473, -0.5720506495528397, -0.5629988304372242, 0.34950095514154866, 0.256637330411164, 0.3227998550957507, -0.7110422269568151]}, {"b": 0.0660013980017935, "w": [-0.49635861933690917, -0.27395107435201815, 0.20708763529536256, 0.40719389160890396, -0.06268671851269225, 0.18915529557566946, 0.16520037969650292, 0.7696634916909664, 0.04720848921146148, 0.20921789797450074, 0.6478232411783165, -0.36310308770925737, -0.12236550089287879, 0.20223750973663956, -0.24987830666986732, 0.5259536089623322, -0.6497135852688809, 0.73591321296593, 0.8538984354164707, -0.48248072100021866, -0.6419431438308414, 0.8063434281502675, 0.25709642364133245, -0.34674947339340134, -0.6293960767297637, -0.8392242509773984, -0.49177169140820176, -0.933629917085885, -0.9718187804630589, -0.27040170582266, 0.47928602300900813, 0.36226836136246643, -0.7722778054286761, 0.014116170631097047, -0.832191294735767, 0.7966409406471455, 0.8588759179159233, 0.3595337388553479, 0.31976531554682874, -0.25883061873993984, -0.816361237507603, 0.9074636554931494, -0.6369985817507791, -0.43777089348016585, -0.06231503650454395, -0.8905545820980214, -0.7319909109014202, 0.8581809275619237, 0.9962102600237823, 0.006584362459592041, -0.24560231354908124, -0.956640958107728, -0.1274585569516149, -0.07886136307746128, 0.2928981889199831, 0.7188450841804179, 0.2786702463832782, -0.7182095818768497, -0.07460343911170741, -0.585869309600004, -0.9236885252254627, -0.5641462586936612, 0.20917210057147195, -0.9851417182901299, -0.7876874693582798, -0.21985766826004083, -0.06399048542001262, -0.34129086601166203, 0.7427702876839086, 0.6332206477426314, -0.9648227359230657, 0.8091805833103767, -0.5895113169790456, -0.06714268265428358, -0.09505598192710907, 0.5836438741057666, 0.2874492363306609, -0.9171888853773473, -0.580212538124208, 0.48828172530321634, -0.7792824640822382, -0.11396775880703913, 0.7884900540737783, 0.9500098434840325, -0.3335053575597735, 0.8293926830994685, -0.4056046056840108, 0.6508800453513186, 0.8707344572500766, 0.07819355920475157, 0.4576581295302462, -0.5253230527264336, 0.04609283624522664, 0.792400045944694, 0.3554444236281864, 0.3950909840926091, -0.20405759582569694, -0.8157707285837734, -0.5592847303074888, 0.07189031444904304, -0.0543965186215869, -0.04971669798188527, -0.2469168462778868, 0.1528831862259321, 0.5607814318289943, -0.8008225474544235, -0.716028016388734, -0.009998851095433192, 0.4311119417366973, -0.9204943106511505, 0.9503150589165859, -0.027752205481053727, -0.7677844432519629, -0.8251785349884408, 0.17417932293096627, 0.2586957541639727, 0.5639583293244574, 0.4488798143513075, -0.3718769968483471, -0.005953566078743977, 0.9883337297558727]}, {"b": -0.37394930388728476, "w": [-0.21844818994567494, -0.29012515802911176, -0.7381799845615324, -0.19860403732369836, -0.10790979938916978, -0.6522458929050663, 0.5764671614287431, 0.1596731087100245, -0.5282104603005935, -0.7811322613442735, -0.39385593124189877, -0.8612938225144535, 0.7707805650918211, -0.3315085911168858, -0.9513136565913014, 0.41430741277462224, -0.5745808085549127, 0.018058284700280813, 0.711098879629882, 0.358766829943147, 0.169506435513477, -0.8373535719330152, 0.6956182509703912, -0.960702432748848, 0.6187728126121745, -0.5704439343766519, -0.5899143056186154, 0.6307229037265913, 0.3435706924837518, 0.6694841099445701, 0.15897274015015794, -0.9867196174565889, -0.1650632616932861, 0.4361984509943879, 0.5888548754805918, 0.5448276554407148, 0.5563449286723092, 0.9155086288938972, -0.17711802753068695, -0.33693156044770967, 0.11148518350958025, 0.6197425255652729, -0.7005196012032462, 0.09951142167726168, 0.24431260761421236, -0.45617561817163765, 0.9270710274084877, 0.572867457165013, 0.12671728771450685, 0.4506502042709306, -0.8020159714796697, -0.5228792904574866, -0.873648881843335, 0.29025244758819535, 0.43781491173537335, -0.6097164221225913, -0.02368763881181657, -0.9058050081300251, 0.8619987407742435, -0.45344106667040895, -0.31359403478150094, 0.49149847155951054, 0.8872388348534894, 0.9292463766891583, -0.9843876738503088, -0.6319740232030111, -0.7894877219635705, 0.4702620989028099, 0.6274258275520164, 0.21604536859371182, -0.47195092457886156, -0.5109179232720342, 0.9321016729706642, -0.6228996119361898, -0.7875384186475398, -0.7647178509204859, -0.09034229030040475, 0.1126322556836512, -0.9836341728688518, -0.1943158893869914, -0.6628652751566326, -0.26081813830667144, -0.09390810978567643, 0.0354858933714457, -0.129574477519532, 0.257939770669096, 0.4004439740348107, 0.3508207514021682, -0.6522239100736709, 0.6297119575455645, 0.1598958279730136, -0.527267102718985, -0.28959189650437955, -0.10521929153082743, -0.004887794580368254, 0.2491509431261607, 0.3418317916499949, 0.4397895588507408, 0.21065227337454395, -0.6308892678716105, 0.8190353696135919, -0.19330966499305546, -0.7205115394747474, -0.5021689815577031, -0.7571168911606647, 0.11455675049573033, 0.8001591229968141, 0.3685974949321573, 0.6007092277491712, 0.2848926541642902, -0.1029561090586264, -0.7682962223009853, -0.660897311228317, 0.2481694283640581, 0.8701581650149068, 0.08783454551600012, 0.9206816803977336, 0.04927562468292557, 0.9171867144104824, -0.9215819203950115, 0.8777929299194926]}, {"b": 0.23874409473609637, "w": [-0.20321561367427798, 0.2071407997335888, 0.01889279932584187, -0.0825524458110789, -0.42638907061182674, 0.32469461615882533, 0.2501805420597929, -0.0052553871758229675, 0.5442435628344202, 0.047369730194438464, -0.21740890632551912, 0.8046946603164309, 0.4000478398746734, 0.22213003570073786, 0.08300848790544268, -0.94459065827202, 0.41554252604262176, -0.35561979397777654, -0.0034602442669968703, -0.9297877890630277, 0.5164324857465254, 0.03603029334844332, 0.0033552803836875977, -0.3425906644101673, -0.1302303325801415, 0.9434114215358698, -0.8361669405915291, -0.5856395086223236, 0.9826316856092585, 0.7992870749184757, -0.7664841119159165, 0.18500448675338688, 0.46489682462732906, -0.9588090850393374, 0.04776328870116631, -0.973929347186236, -0.17109618748307454, 0.39111223630769376, 0.503979149446045, -0.5392152656611431, 0.17974334717173157, 0.6432355613510179, -0.08143706342489598, 0.20508395001023527, 0.4149989700859069, 0.14648455322411635, 0.05117158145289458, -0.5330021583125093, 0.9055052385712992, -0.08020631875089457, 0.5031036976405912, 0.7147143016005602, -0.8933728521221227, 0.7601572830671215, 0.8117115413742579, -0.11482751379435352, -0.6992472791047932, 0.10883029814818856, -0.6789155947315455, 0.010099767703531715, -0.4635965618970699, 0.44024020352231497, -0.5837245629878258, -0.50649084055741, -0.25447875856607394, 0.9080610454216014, 0.0643638300087439, -0.677337160062986, -0.05190081731735785, 0.1457968869362667, -0.5343538978064917, -0.28715484758319487, -0.2400570810207081, -0.7319303310159915, 0.4365139575723671, 0.4046768799784404, -0.16564441762176463, 0.6089730035167991, -0.05957167706204358, 0.5729645727977271, 0.7808676889025516, -0.35899867277467723, -0.05488532328306728, 0.6502194010245756, 0.7840461949532178, -0.3517602391194605, -0.9573543094923562, 0.8628504445937324, -0.12996774002273037, -0.6479565291836651, 0.2660837272456025, -0.6552291516574864, 0.7056587071062956, 0.1467280703962921, 0.706881280001441, -0.20179860510997205, 0.29247917987669036, -0.711792765845942, -0.1786234825840467, -0.26139776030527595, 0.2709225819162191, -0.8128777378282901, -0.7038411711406236, -0.5152464280555888, -0.5068471015667184, -0.11913419284254556, 0.7096611266640562, 0.7525661839251472, 0.06578118822008916, -0.6035246450416298, 0.5447779277146378, 0.9981231765929464, 0.02954053816190072, -0.819162986075354, -0.7375257496601808, 0.9750938141944032, -0.8887116537477346, 0.7879256934647947, -0.05870361294063664, -0.4185372086625847, 0.1033190921968894]}, {"b": -0.2779435869695053, "w": [0.831385017488987, 0.4792443911203237, 0.10593190259370577, 0.5223315866384848, -0.9374606851234348, -0.38554705669621026, -0.5180619489183258, -0.2370252465555398, 0.4013530401715568, -0.9293183238130043, -0.3206063509443966, 0.4516495916999992, 0.47818237819559806, -0.5302744063018454, -0.14508651699610198, -0.5347071678394302, 0.6662519277285186, 0.07980359604434195, 0.15747122079469533, -0.17842106041409944, -0.2643239539372284, -0.6869148985918805, -0.3437585051248748, 0.9143095962940853, -0.8586104566054298, -0.04336269848577512, -0.8931137871770569, 0.13844380426525738, 0.15700220381139784, -0.07136901193843004, -0.6881476267092375, 0.9720808058297907, 0.9386436386208545, -0.3866588351997895, 0.34621464813273706, 0.0507778528882572, 0.11461561698330658, 0.9305899538227305, 0.1616392467218355, 0.623331998952553, -0.6990804860209052, 0.38583547019288367, 0.9401961221114936, 0.28787259782491836, -0.9899243232685042, 0.5108222223022574, -0.3200543485880196, 0.7873190466073137, -0.35818867797569465, -0.006526833154747003, -0.9334427956913782, -0.6868127740769834, -0.6219258347426635, 0.9422559170834168, 0.6451525910390938, -0.02313884501540575, 0.13159197622542074, -0.11625912759574586, -0.3650401511374737, -0.26670070940417334, -0.6890105441736032, 0.4327484976902809, -0.0335054645327475, 0.4587173126544004, 0.20572726971926136, 0.655989707994376, -0.6770171984806896, -0.048079721144609566, -0.8513768584981434, 0.9376353896674003, -0.07044189558693281, 0.7842643846642512, 0.07667960296323661, 0.07868355301384233, -0.3913110493440932, 0.3041232214686884, 0.2931119451281725, -0.5063475347652862, 0.08020093928342176, 0.69665756644228, 0.7912165209762494, -0.4514250044646626, 0.7980578618484622, -0.11683952409787568, 0.3601246617691496, -0.9292141202163973, -0.41769726426048703, -0.9785520047756577, 0.5073980404094847, 0.8252612267181672, 0.0036275154684608513, 0.8969817750719591, 0.05895518362440377, 0.2664197316792556, -0.40425127543066464, 0.8044693522575102, -0.7821015722656233, 0.5585447680083719, -0.11697612861733542, -0.6330051819507014, -0.5503885109083797, -0.19891940949341125, -0.1498980497998077, -0.6670124761296228, -0.5248527462898884, -0.8662850656229615, 0.04346808317742745, -0.12674653403540592, 0.49815379306648255, 0.5490700611408523, 0.4427709473356607, -0.471938946193178, 0.17280531254065745, -0.41846661460569345, -0.9595631245110732, -0.5291341750214784, -0.4386896217978258, 0.2841776397919593, -0.4437249507430683, -0.12423056483037676, 0.9693880927914353]}, {"b": 0.1707308941689265, "w": [-0.8557496087189178, -0.7687062604141146, 0.03152891373959399, 0.009205703647363617, 0.07282939322798598, -0.660368072747298, 0.7412061942369943, 0.9877618370419361, 0.406814580584022, 0.05190741835896828, -0.3085333210532326, -0.1257647728484328, -0.1277634361085107, -0.9679404141973271, 0.8868817946975354, 0.9429365934887517, -0.11349905752156242, -0.11697345650024515, 0.16937097365228126, 0.7507111674966378, 0.21587347282302538, -0.17067730225611943, -0.02469705462649241, 0.391633836476895, -0.4614187255239095, 